{
  "attention": {
    "bias": -0.03998515009880066,
    "weight": [
      0.15871694684028625,
      -1.0735197067260742,
      0.8694673180580139,
      0.6383113265037537,
      -0.48564040660858154,
      0.49570581316947937,
      0.637607753276825,
      0.8865958452224731,
      -0.5183889865875244,
      -0.2150406688451767,
      0.7727506160736084,
      0.33032822608947754
    ]
  },
  "hiddenSize": 12,
  "inputFeatureNames": [
    "timestamp_seconds",
    "ball_near_rim",
    "ball_above_rim",
    "ball_arc_apex",
    "ball_through_hoop_likelihood",
    "possession_change_likelihood",
    "transition_likelihood",
    "player_to_rim_distance",
    "ball_carrier_speed",
    "transition_speed_score",
    "defender_proximity_at_shot",
    "shot_release_candidate",
    "same_play_continuity_score",
    "basketball_confidence",
    "rim_confidence",
    "player_count",
    "tracked_player_count",
    "tracked_ball_confidence"
  ],
  "modelVersion": "temporal-encoder-lite-v1",
  "notes": [
    "Lightweight temporal encoder over structured basketball signals and perception features.",
    "Projection hidden size=12 pooled size=48."
  ],
  "projection": {
    "bias": [
      -0.4542739689350128,
      -0.20015093684196472,
      0.3461620807647705,
      0.443966805934906,
      -0.1528569608926773,
      -0.6917349100112915,
      0.26618269085884094,
      0.38238251209259033,
      -0.32254549860954285,
      -0.08515564352273941,
      -0.3829944133758545,
      -0.03452565521001816
    ],
    "weight": [
      [
        -0.17535705864429474,
        0.7147260904312134,
        0.7382315397262573,
        0.3077307343482971,
        0.20399323105812073,
        0.25057363510131836,
        0.6319000720977783,
        -0.24296849966049194,
        -0.002503284951671958,
        -0.1620669960975647,
        0.35021504759788513,
        0.28548744320869446,
        -0.05230621621012688,
        0.12551026046276093,
        0.03150637820363045,
        -0.24664679169654846,
        -0.2542818784713745,
        0.13914737105369568
      ],
      [
        -0.15749125182628632,
        -0.9319648146629333,
        -1.6089774370193481,
        1.5973577499389648,
        0.38196036219596863,
        -0.9419848322868347,
        0.622054398059845,
        1.0160096883773804,
        0.22688086330890656,
        0.5939677953720093,
        -0.6862428784370422,
        0.3165281414985657,
        0.2638290226459503,
        -0.46209681034088135,
        0.574542224407196,
        -0.04809022694826126,
        0.3732924163341522,
        -0.1907893866300583
      ],
      [
        0.32685860991477966,
        0.3277849555015564,
        0.08795145153999329,
        -0.6649743318557739,
        -1.248496174812317,
        1.042980670928955,
        -0.4295579791069031,
        -0.4118106961250305,
        -0.2867986857891083,
        -0.21418268978595734,
        0.7997187376022339,
        -0.2822672128677368,
        -0.139054536819458,
        0.12036266177892685,
        -0.12860262393951416,
        0.03238757327198982,
        -0.45369774103164673,
        0.1742737889289856
      ],
      [
        0.48228082060813904,
        -0.8068469166755676,
        -1.3065263032913208,
        0.06577499955892563,
        0.4704401195049286,
        -0.1199013963341713,
        0.8991186618804932,
        1.4076119661331177,
        0.4094620645046234,
        0.5472735166549683,
        0.39675283432006836,
        -0.5732332468032837,
        -0.5000180602073669,
        0.11869463324546814,
        0.15250377357006073,
        -0.26953551173210144,
        -0.2768516540527344,
        0.12120798975229263
      ],
      [
        -0.3054249882698059,
        1.0899604558944702,
        1.2264783382415771,
        -0.15472489595413208,
        1.0876164436340332,
        1.2511577606201172,
        -0.5557771921157837,
        -1.0946825742721558,
        -0.571628987789154,
        -1.147692322731018,
        0.8070403337478638,
        0.21738608181476593,
        -0.03615220636129379,
        0.4938235282897949,
        -0.3169879913330078,
        0.23410442471504211,
        -0.4060972332954407,
        0.4376184642314911
      ],
      [
        0.3606325685977936,
        -1.3563674688339233,
        -1.3755460977554321,
        1.2405731678009033,
        0.8851864337921143,
        0.912912905216217,
        1.1357473134994507,
        0.8819698095321655,
        -0.15986289083957672,
        0.5615960359573364,
        -1.1636325120925903,
        0.7383160591125488,
        -0.12719577550888062,
        -0.28383100032806396,
        -0.905840277671814,
        0.2523827850818634,
        0.02404765784740448,
        -0.5100959539413452
      ],
      [
        0.48945948481559753,
        -1.1445646286010742,
        -1.0211836099624634,
        -0.7616071105003357,
        -0.9335541725158691,
        0.32136812806129456,
        -0.4872078597545624,
        0.5826494693756104,
        -0.07405649870634079,
        -0.4178593158721924,
        -0.5963605642318726,
        -0.5522171854972839,
        -0.5193856358528137,
        -0.09863695502281189,
        -0.6715642213821411,
        0.15116921067237854,
        -0.5496394038200378,
        -0.29840463399887085
      ],
      [
        0.4031946659088135,
        -0.28768861293792725,
        -0.5792894959449768,
        0.026018379256129265,
        -0.3160606920719147,
        0.11117523908615112,
        0.006895547267049551,
        0.22728851437568665,
        0.08788371831178665,
        0.07918114215135574,
        0.4100964367389679,
        -0.5354309678077698,
        0.2717447876930237,
        0.11968123912811279,
        0.3822934329509735,
        0.43576136231422424,
        0.29137876629829407,
        0.01922108791768551
      ],
      [
        -0.04060979560017586,
        -0.5432658791542053,
        -1.22710120677948,
        1.2768231630325317,
        -0.9972649812698364,
        -0.6197376251220703,
        -0.7906047701835632,
        0.8361656069755554,
        -0.5768990516662598,
        -0.9087559580802917,
        -1.0605640411376953,
        0.5680184960365295,
        0.4729234576225281,
        -0.4006974995136261,
        -0.4599495530128479,
        0.3013251721858978,
        0.23089684545993805,
        -0.18024440109729767
      ],
      [
        -0.08248786628246307,
        -0.22884869575500488,
        -0.007545468397438526,
        0.4605545699596405,
        1.3085582256317139,
        -0.9104899168014526,
        -0.5259986519813538,
        0.703850507736206,
        -0.4862387478351593,
        -0.7559130787849426,
        -0.8070915937423706,
        0.21823850274085999,
        0.13885194063186646,
        -0.5026648640632629,
        -0.32306087017059326,
        0.04947280511260033,
        0.20925050973892212,
        -0.2625349164009094
      ],
      [
        -0.03570672124624252,
        0.19488322734832764,
        0.8749140501022339,
        -0.7738106846809387,
        0.5174390077590942,
        0.7143892049789429,
        0.8537157773971558,
        -0.8015472292900085,
        0.053265612572431564,
        0.2295769900083542,
        0.026589801535010338,
        0.3553900122642517,
        -0.09603215008974075,
        0.3495529890060425,
        -0.016740288585424423,
        -0.15125517547130585,
        0.04877472296357155,
        0.27556243538856506
      ],
      [
        0.41024887561798096,
        -0.1728542000055313,
        0.0714786946773529,
        0.08634722977876663,
        -0.20748886466026306,
        0.31012842059135437,
        -0.40250512957572937,
        0.40738174319267273,
        -0.06722114980220795,
        -0.2022687792778015,
        0.2857491970062256,
        0.3832724690437317,
        0.2151881903409958,
        0.4377521872520447,
        0.0953340232372284,
        0.05587414652109146,
        0.3084911108016968,
        0.1896435022354126
      ]
    ]
  },
  "schemaVersion": "temporal-encoder-v1",
  "sourceDataset": "synthetic_or_runtime",
  "targets": {
    "eventFamily": {
      "bias": [
        0.08767524361610413,
        -0.13462412357330322,
        -0.040924884378910065,
        -0.042468342930078506,
        0.24462613463401794
      ],
      "classes": [
        "shot_attempt",
        "turnover",
        "defensive_event",
        "transition",
        "other"
      ],
      "marginThreshold": 0.05,
      "temperature": 1.0,
      "topK": 3,
      "uncertaintyThreshold": 0.45,
      "weight": [
        [
          -0.31440648436546326,
          0.3898954689502716,
          -0.730791449546814,
          -0.8073413372039795,
          0.5695511102676392,
          0.15682992339134216,
          -0.6802641749382019,
          0.07001972198486328,
          0.37676510214805603,
          0.42125025391578674,
          -0.011521036736667156,
          0.2319471687078476,
          -0.10920444130897522,
          0.1990053802728653,
          -0.49230703711509705,
          -0.7893133759498596,
          0.6724395751953125,
          0.0839667022228241,
          -0.6364808678627014,
          0.14394894242286682,
          0.466552197933197,
          0.4422893226146698,
          -0.09227064996957779,
          0.19282135367393494,
          -0.16248512268066406,
          0.2889554500579834,
          -0.704204797744751,
          -0.7106776237487793,
          0.5762174129486084,
          0.14624302089214325,
          -0.6638743877410889,
          0.30278199911117554,
          0.4176586866378784,
          0.34777259826660156,
          -0.13154743611812592,
          0.12713730335235596,
          0.43618935346603394,
          -0.26984959840774536,
          -0.17035670578479767,
          0.046381086111068726,
          0.04672464728355408,
          -0.03390397131443024,
          -0.43326041102409363,
          -0.42888957262039185,
          -0.2997879683971405,
          0.09254924207925797,
          -0.44974207878112793,
          -0.20739997923374176
        ],
        [
          0.10428476333618164,
          -0.6018977761268616,
          0.7954376339912415,
          -0.05790373682975769,
          1.1970515251159668,
          0.1799081563949585,
          0.9029644131660461,
          -0.14288069307804108,
          0.21906758844852448,
          -0.002647885587066412,
          -0.012815759517252445,
          -0.17284682393074036,
          0.011421437375247478,
          -0.6629807353019714,
          0.8419364094734192,
          0.23552405834197998,
          0.7664005756378174,
          -0.0403161384165287,
          0.8231707811355591,
          -0.1532512903213501,
          0.48199641704559326,
          -0.11683841794729233,
          0.19321557879447937,
          -0.20826628804206848,
          0.0009496902348473668,
          -0.6673749685287476,
          0.7900832891464233,
          0.19555576145648956,
          1.2568116188049316,
          -0.13880695402622223,
          1.0166301727294922,
          -0.1617358922958374,
          0.2627682089805603,
          -0.07968669384717941,
          -0.06372303515672684,
          -0.1446889191865921,
          -0.09407184273004532,
          0.08809501677751541,
          0.11969359964132309,
          0.23512277007102966,
          0.5699148178100586,
          -0.8347665071487427,
          0.21622686088085175,
          -0.2257179617881775,
          -0.9536362290382385,
          -0.5812005400657654,
          0.25215500593185425,
          -0.08440130949020386
        ],
        [
          0.2592904567718506,
          -0.3854939043521881,
          0.7498180270195007,
          0.1956392377614975,
          0.869635820388794,
          -0.43491992354393005,
          -0.6369868516921997,
          -0.0645986795425415,
          -0.5910119414329529,
          -0.37562310695648193,
          0.09346721321344376,
          0.15358556807041168,
          0.13340792059898376,
          -0.3201453685760498,
          0.6702829003334045,
          0.38422685861587524,
          0.5842776894569397,
          -0.11291506141424179,
          -0.8101187348365784,
          -0.10182017832994461,
          -0.7254925966262817,
          -0.4777229428291321,
          0.1634834259748459,
          -0.10256291180849075,
          0.12219816446304321,
          -0.4901559352874756,
          0.6394161581993103,
          0.41553473472595215,
          1.0344645977020264,
          -0.28267496824264526,
          -0.8028746843338013,
          -0.16120149195194244,
          -0.5972577333450317,
          -0.2796576917171478,
          0.24465733766555786,
          -0.09879458695650101,
          -0.3138033449649811,
          0.12500783801078796,
          0.0867505669593811,
          -0.04887213930487633,
          0.3869679570198059,
          0.24256591498851776,
          -0.25322380661964417,
          0.1200140118598938,
          0.03530253469944,
          -0.10068394988775253,
          -0.1792764812707901,
          -0.10671499371528625
        ],
        [
          0.016824305057525635,
          0.2580842077732086,
          -0.38564053177833557,
          0.4698833227157593,
          -0.9633957147598267,
          -0.22567692399024963,
          -0.8239436745643616,
          -0.11111587285995483,
          -0.26155486702919006,
          -0.29699066281318665,
          0.29540640115737915,
          0.13362181186676025,
          0.14942121505737305,
          0.264696329832077,
          -0.4571595788002014,
          0.7534872889518738,
          -0.7669613361358643,
          -0.09258408844470978,
          -0.7251576781272888,
          -0.21941201388835907,
          -0.18867136538028717,
          -0.3545290231704712,
          0.24333924055099487,
          -0.008151859976351261,
          0.1048101931810379,
          0.36614370346069336,
          -0.20406784117221832,
          0.8856582045555115,
          -0.7070972323417664,
          -0.022039860486984253,
          -0.7433757185935974,
          -0.23606908321380615,
          -0.2577832043170929,
          -0.4458422064781189,
          0.18967661261558533,
          -0.1426125317811966,
          -0.06612595170736313,
          0.33837074041366577,
          0.26686644554138184,
          0.010641561821103096,
          0.12934596836566925,
          -0.4639382064342499,
          -0.5212813019752502,
          -0.39882832765579224,
          -0.5277761816978455,
          -0.48995938897132874,
          -0.5480401515960693,
          -0.25245070457458496
        ],
        [
          -0.04652457311749458,
          -0.18149334192276,
          0.15649624168872833,
          0.5622929930686951,
          -0.8928681015968323,
          -0.06712380796670914,
          0.5492278337478638,
          0.1638021618127823,
          0.07239070534706116,
          0.10717210173606873,
          -0.449353963136673,
          -0.2649041712284088,
          -0.02822316624224186,
          -0.03062838315963745,
          0.23213401436805725,
          0.568219006061554,
          -0.4305015802383423,
          -0.05983935296535492,
          0.8177533149719238,
          0.05831676721572876,
          -0.0008495546062476933,
          0.08169766515493393,
          -0.20917002856731415,
          0.1657080501317978,
          -0.08087227493524551,
          -0.09373773634433746,
          0.04186359792947769,
          0.6199456453323364,
          -0.7690256834030151,
          0.051573824137449265,
          0.6651149988174438,
          0.20231856405735016,
          0.08536649495363235,
          0.15419048070907593,
          -0.42712530493736267,
          0.07673326134681702,
          0.12214101105928421,
          -0.2169228047132492,
          -0.2269272804260254,
          -0.15810997784137726,
          -0.7002931833267212,
          0.7859743237495422,
          0.8993375897407532,
          0.25161582231521606,
          0.5433089137077332,
          0.2798786163330078,
          0.3592076897621155,
          0.25078120827674866
        ]
      ]
    },
    "outcome": {
      "bias": [
        -0.10488168150186539,
        -0.17840124666690826,
        -0.3069190979003906,
        0.15432769060134888
      ],
      "classes": [
        "made",
        "missed",
        "blocked",
        "uncertain"
      ],
      "marginThreshold": 0.05,
      "temperature": 1.0,
      "topK": 3,
      "uncertaintyThreshold": 0.45,
      "weight": [
        [
          -0.05896034836769104,
          0.5272860527038574,
          -0.9541875123977661,
          -0.5510355830192566,
          1.0081067085266113,
          0.22817270457744598,
          -0.5658827424049377,
          -0.11063970625400543,
          -0.018207449465990067,
          0.7608440518379211,
          0.04636378213763237,
          0.27354753017425537,
          -0.17592757940292358,
          0.29092827439308167,
          -0.7974851131439209,
          -0.5202417373657227,
          0.6661159992218018,
          0.07122308015823364,
          -0.6195915341377258,
          -0.19745485484600067,
          0.15054380893707275,
          0.6380122900009155,
          0.10029285401105881,
          -0.08616717904806137,
          -0.18356816470623016,
          0.37419167160987854,
          -0.9536266326904297,
          -0.41548439860343933,
          1.050607681274414,
          -0.04659886285662651,
          -0.8035540580749512,
          -0.026621416211128235,
          -0.019007110968232155,
          0.8457324504852295,
          0.008878804743289948,
          0.005221184343099594,
          -0.10224960744380951,
          0.9864906668663025,
          -0.8703653216362,
          -0.031385261565446854,
          0.9564661383628845,
          -0.668154776096344,
          -0.7262824177742004,
          -0.284908652305603,
          -1.0013551712036133,
          0.6071964502334595,
          -0.39902642369270325,
          -0.229453906416893
        ],
        [
          -0.2216564267873764,
          0.011932926252484322,
          -0.033572226762771606,
          -0.7219480276107788,
          -0.0948321744799614,
          -0.1531907171010971,
          -0.6477039456367493,
          0.04886716976761818,
          0.9080459475517273,
          -0.49603110551834106,
          -0.13667693734169006,
          0.04854383319616318,
          -0.10348518192768097,
          0.2536037564277649,
          0.35216134786605835,
          -0.7950186133384705,
          0.4920741617679596,
          -0.23918774724006653,
          -0.44571948051452637,
          -0.08730742335319519,
          0.7638098001480103,
          -0.26192033290863037,
          -0.258666455745697,
          0.012761082500219345,
          -0.22133468091487885,
          0.014207643456757069,
          0.2915695607662201,
          -0.8788217902183533,
          -0.5122361779212952,
          -0.06339547783136368,
          -0.3664065897464752,
          -0.13376440107822418,
          1.0695782899856567,
          -0.648318350315094,
          -0.32524561882019043,
          -0.03112424537539482,
          0.1556427776813507,
          -0.3667289912700653,
          1.2048033475875854,
          -0.6916676759719849,
          -0.5261473655700684,
          -0.14847007393836975,
          -0.2622634768486023,
          -0.2716231942176819,
          1.0360205173492432,
          -1.2174044847488403,
          -0.5261898636817932,
          -0.3341985046863556
        ],
        [
          0.1283271312713623,
          -0.24233373999595642,
          0.4943535625934601,
          0.3606742322444916,
          0.9818323850631714,
          -0.3391343951225281,
          -0.5798777341842651,
          -0.2654193341732025,
          -0.42398369312286377,
          -0.333431214094162,
          0.12089332938194275,
          0.14297552406787872,
          0.13665737211704254,
          -0.20216666162014008,
          0.7664215564727783,
          0.3145209550857544,
          0.6064863801002502,
          -0.22549942135810852,
          -0.4667831063270569,
          -0.1488611400127411,
          -0.5182883739471436,
          -0.1470995843410492,
          0.15248045325279236,
          0.030674658715724945,
          0.3035828173160553,
          -0.30184879899024963,
          0.4646483361721039,
          0.34008997678756714,
          0.8864637613296509,
          -0.27985110878944397,
          -0.534914493560791,
          -0.15034045279026031,
          -0.34903499484062195,
          -0.18953847885131836,
          0.22978025674819946,
          -0.01943020150065422,
          -0.20990368723869324,
          0.11360861361026764,
          0.1863221377134323,
          -0.24154597520828247,
          0.2764599323272705,
          -0.005054350011050701,
          0.09939007461071014,
          0.009360585361719131,
          -0.05003409460186958,
          0.10310769826173782,
          -0.18306799232959747,
          -0.003982933238148689
        ],
        [
          -0.17455415427684784,
          0.040206193923950195,
          0.26599493622779846,
          0.6622647643089294,
          -0.6852174997329712,
          0.2949994206428528,
          0.6647590398788452,
          0.21494613587856293,
          0.12797385454177856,
          -0.016536736860871315,
          -0.1909019500017166,
          -0.26237088441848755,
          0.03418189659714699,
          0.05539266765117645,
          0.48450273275375366,
          0.6028767824172974,
          -0.7099995613098145,
          0.31642550230026245,
          0.5922555327415466,
          0.24390636384487152,
          0.12019490450620651,
          0.12053292244672775,
          -0.15787556767463684,
          -0.004754147492349148,
          -0.10636303573846817,
          0.028487756848335266,
          0.21329650282859802,
          0.779108464717865,
          -0.901428759098053,
          0.3672957420349121,
          0.6442352533340454,
          0.22025232017040253,
          0.03864535689353943,
          -0.08792953938245773,
          -0.17417927086353302,
          0.007399452850222588,
          0.3034087121486664,
          -0.35830143094062805,
          0.16283057630062103,
          0.5666909217834473,
          -0.5188210606575012,
          0.03646383062005043,
          0.7451678514480591,
          0.37277838587760925,
          -0.018601253628730774,
          -0.11934567987918854,
          0.644700825214386,
          0.3769336938858032
        ]
      ]
    },
    "shotSubtype": {
      "bias": [
        0.05796268582344055,
        0.25624555349349976,
        0.08470546454191208,
        0.043412256985902786,
        -0.33305028080940247,
        -0.16947558522224426
      ],
      "classes": [
        "dunk",
        "layup",
        "jumper",
        "three",
        "putback",
        "null"
      ],
      "marginThreshold": 0.05,
      "temperature": 1.0,
      "topK": 3,
      "uncertaintyThreshold": 0.45,
      "weight": [
        [
          -0.11526191979646683,
          -1.0075974464416504,
          0.02153358981013298,
          -0.8331217169761658,
          1.1008353233337402,
          -0.4988519549369812,
          -0.04011315852403641,
          -0.0830841138958931,
          -0.8799557089805603,
          0.035762250423431396,
          0.21660883724689484,
          -0.3519037961959839,
          -0.002596428617835045,
          -0.6825370192527771,
          -0.17002670466899872,
          -1.3630067110061646,
          0.5054967999458313,
          -0.31962910294532776,
          -0.38203829526901245,
          0.08341104537248611,
          -0.6511946320533752,
          0.07756011188030243,
          0.17681275308132172,
          -0.14343883097171783,
          0.12185055762529373,
          -0.8980417251586914,
          -0.027377527207136154,
          -1.2866365909576416,
          1.3396354913711548,
          -0.07849368453025818,
          -0.17540550231933594,
          -0.11977196484804153,
          -1.047492265701294,
          0.16271044313907623,
          0.21752263605594635,
          -0.22261613607406616,
          0.04594697058200836,
          -1.2390412092208862,
          -0.6241225600242615,
          -1.1263319253921509,
          0.9807917475700378,
          0.37878283858299255,
          -0.9653791785240173,
          0.17935018241405487,
          -1.099814534187317,
          0.5392345786094666,
          0.005129252560436726,
          0.16383002698421478
        ],
        [
          -0.34420010447502136,
          0.09922046214342117,
          0.3693692088127136,
          -0.4177572429180145,
          0.570982813835144,
          0.247279554605484,
          -0.08097222447395325,
          0.21266812086105347,
          0.30811992287635803,
          -0.14364339411258698,
          -0.19606351852416992,
          0.06080827862024307,
          -0.39934948086738586,
          -0.1290617138147354,
          0.2998183071613312,
          -0.6568405032157898,
          0.6649561524391174,
          0.33264732360839844,
          0.0009826107416301966,
          0.27098190784454346,
          0.1299799233675003,
          -0.22499606013298035,
          -0.25961482524871826,
          0.22479672729969025,
          -0.34547188878059387,
          0.03608375042676926,
          0.16451436281204224,
          -0.5970243811607361,
          0.3178565502166748,
          0.19655485451221466,
          -0.027221426367759705,
          0.2771122455596924,
          0.2685573697090149,
          -0.1242164745926857,
          -0.012368583120405674,
          0.12082075327634811,
          0.2420121282339096,
          -0.6725732684135437,
          0.6083593368530273,
          -0.08062970638275146,
          -0.07252626121044159,
          0.659846305847168,
          0.49629998207092285,
          0.09813983738422394,
          0.11612801998853683,
          -0.5696735382080078,
          -0.1142486184835434,
          0.11388695985078812
        ],
        [
          -0.28833678364753723,
          0.6746234893798828,
          -0.024590086191892624,
          0.38564419746398926,
          -0.7747558355331421,
          0.40026548504829407,
          -0.08976081758737564,
          0.18889567255973816,
          0.6612779498100281,
          0.1264437735080719,
          -0.23727092146873474,
          0.21097996830940247,
          -0.13152991235256195,
          0.691551685333252,
          -0.012900760397315025,
          0.6811662912368774,
          -0.4913704991340637,
          0.175220787525177,
          0.23949334025382996,
          0.33084389567375183,
          0.7951417565345764,
          0.12711723148822784,
          -0.42703598737716675,
          0.11747508496046066,
          -0.19911181926727295,
          0.7632564306259155,
          0.0015839531552046537,
          0.5869572162628174,
          -1.2034571170806885,
          0.17505201697349548,
          0.35684558749198914,
          0.17452067136764526,
          0.6619994044303894,
          0.11725784838199615,
          -0.4157123863697052,
          0.1954624354839325,
          0.14902369678020477,
          0.7142016291618347,
          0.12031266838312149,
          0.7583255171775818,
          -0.8885984420776367,
          0.44768309593200684,
          1.032975435256958,
          0.06937120854854584,
          1.061953067779541,
          0.07404977083206177,
          0.5458770990371704,
          -0.04163743928074837
        ],
        [
          0.04992731660604477,
          0.7268098592758179,
          -0.47168076038360596,
          0.8281013369560242,
          -0.48964923620224,
          0.13756762444972992,
          -0.2509985566139221,
          0.13230805099010468,
          0.4139595925807953,
          0.6092629432678223,
          -0.03350596874952316,
          0.1909613311290741,
          0.05700264498591423,
          0.536711573600769,
          -0.7143339514732361,
          1.3524335622787476,
          -0.3151341676712036,
          0.10030949860811234,
          -0.2747507691383362,
          0.10848657786846161,
          0.36601197719573975,
          0.6062522530555725,
          -0.15322883427143097,
          0.1145305261015892,
          -0.0048425509594380856,
          0.5761481523513794,
          -0.7854589223861694,
          1.1674021482467651,
          -0.925269365310669,
          0.047268033027648926,
          -0.307368665933609,
          -0.06931648403406143,
          0.3503111004829407,
          0.6961038708686829,
          0.04168223217129707,
          0.06754143536090851,
          -0.1286800354719162,
          1.071554183959961,
          -1.1632604598999023,
          0.9267004728317261,
          -0.6174881458282471,
          -1.0997047424316406,
          -0.4843842089176178,
          -0.11890336871147156,
          0.382345587015152,
          0.45441949367523193,
          -0.0729331523180008,
          0.09821529686450958
        ],
        [
          0.24623119831085205,
          -0.35617244243621826,
          0.42473021149635315,
          0.31763795018196106,
          -0.413409560918808,
          -0.15504512190818787,
          0.4716523587703705,
          -0.1305878907442093,
          -0.1683126837015152,
          -0.39002686738967896,
          0.08090128004550934,
          -0.07744159549474716,
          0.3246632218360901,
          -0.29214033484458923,
          0.27288466691970825,
          0.3386105000972748,
          -0.3487706482410431,
          -0.3223135769367218,
          0.3870640993118286,
          -0.32756471633911133,
          -0.3581298291683197,
          -0.38494518399238586,
          0.20573024451732635,
          -0.5071435570716858,
          0.21609218418598175,
          -0.44281700253486633,
          0.42055827379226685,
          0.2480843961238861,
          -0.032346080988645554,
          -0.1797521710395813,
          0.5011089444160461,
          -0.14683961868286133,
          -0.1687709391117096,
          -0.3494005799293518,
          0.16250261664390564,
          -0.28626883029937744,
          -0.3239661157131195,
          0.1336544156074524,
          0.06410188972949982,
          -0.1846754401922226,
          0.23449072241783142,
          -0.2177964746952057,
          -0.03177192062139511,
          -0.32883575558662415,
          0.4332772195339203,
          -0.3756697177886963,
          -0.4194406569004059,
          -0.3750830590724945
        ],
        [
          0.26595214009284973,
          -0.3872380256652832,
          0.17203839123249054,
          0.22248364984989166,
          -0.4780927300453186,
          -0.313448041677475,
          0.5760219097137451,
          -0.4129839241504669,
          -0.16469642519950867,
          -0.3657072186470032,
          0.20687270164489746,
          -0.14974501729011536,
          0.37927576899528503,
          -0.3503027558326721,
          0.46030688285827637,
          0.276230126619339,
          -0.22153586149215698,
          -0.29550284147262573,
          0.4242490530014038,
          -0.13719889521598816,
          -0.33623284101486206,
          -0.22511833906173706,
          0.19791319966316223,
          -0.555732011795044,
          0.33957377076148987,
          -0.28421124815940857,
          0.4085792303085327,
          0.09814275056123734,
          0.07826423645019531,
          -0.14255686104297638,
          0.3556095361709595,
          -0.20374178886413574,
          -0.11217296868562698,
          -0.3661271631717682,
          0.301116406917572,
          -0.5092769265174866,
          -0.2327256202697754,
          0.06257209926843643,
          0.2929471731185913,
          -0.3064402937889099,
          0.3942578136920929,
          -0.32803866267204285,
          -0.3009006679058075,
          -0.30540353059768677,
          0.4943543076515198,
          -0.32504546642303467,
          -0.540215253829956,
          -0.186925008893013
        ]
      ]
    }
  },
  "trainedAt": "2026-03-31T08:18:55.323659+00:00"
}