{
  "attention": {
    "bias": -0.035889092832803726,
    "weight": [
      -0.36644285917282104,
      0.06153453141450882,
      -0.12839765846729279,
      0.4887455403804779,
      0.08912002295255661,
      0.00913460087031126,
      -0.08051390945911407,
      0.016079289838671684,
      0.17390744388103485,
      0.04653457552194595,
      -0.09883095324039459,
      0.3252764344215393,
      -0.4325413703918457,
      0.07216595113277435,
      0.27601394057273865,
      0.3164563775062561
    ]
  },
  "featureSchemaVersion": "temporal-student-feature-v1",
  "hiddenSize": 16,
  "inputFeatureNames": [
    "timestamp_seconds",
    "ball_visible",
    "hoop_visible",
    "ball_detection_confidence",
    "hoop_detection_confidence",
    "ball_track_count",
    "rim_track_count",
    "player_track_count",
    "tracked_player_count",
    "tracked_ball_confidence",
    "tracking_continuity",
    "detection_density",
    "tracking_density",
    "ball_near_rim",
    "ball_above_rim",
    "ball_arc_apex",
    "ball_through_hoop_likelihood",
    "possession_change_likelihood",
    "transition_likelihood",
    "player_to_rim_distance",
    "ball_carrier_speed",
    "transition_speed_score",
    "defender_proximity_at_shot",
    "shot_release_candidate",
    "same_play_continuity_score",
    "basketball_confidence",
    "rim_confidence",
    "runtime_confidence",
    "runtime_top_count",
    "source_ref_present",
    "human_verified",
    "clip_duration_seconds",
    "event_center_seconds",
    "pre_roll_seconds",
    "post_roll_seconds",
    "source_event_count",
    "was_merged",
    "source_domain=hard_negative",
    "source_domain=live_shadow",
    "source_domain=teacher_pseudo",
    "source_domain=benchmark_eval",
    "source_kind=gold",
    "source_kind=silver",
    "source_kind=disagreement",
    "source_set=gold_set",
    "source_set=silver_set",
    "source_set=disagreement_queue",
    "runtime_label=highlight",
    "runtime_label=dunk",
    "runtime_label=layup",
    "runtime_label=three_pointer",
    "runtime_label=made_shot",
    "runtime_label=block",
    "runtime_label=steal",
    "runtime_label=fast_break",
    "runtime_label=miss",
    "runtime_event_family=shot_attempt",
    "runtime_event_family=turnover",
    "runtime_event_family=defensive_event",
    "runtime_event_family=transition",
    "runtime_event_family=other",
    "runtime_outcome=made",
    "runtime_outcome=missed",
    "runtime_outcome=blocked",
    "runtime_outcome=uncertain",
    "runtime_shot_subtype=dunk",
    "runtime_shot_subtype=layup",
    "runtime_shot_subtype=jumper",
    "runtime_shot_subtype=three",
    "runtime_shot_subtype=putback",
    "runtime_shot_subtype=null",
    "runtime_display_label=highlight",
    "runtime_display_label=dunk",
    "runtime_display_label=layup",
    "runtime_display_label=three_pointer",
    "runtime_display_label=made_shot",
    "runtime_display_label=block",
    "runtime_display_label=steal",
    "runtime_display_label=fast_break",
    "runtime_display_label=miss",
    "runtime_video_mae=highlight",
    "runtime_video_mae=dunk",
    "runtime_video_mae=layup",
    "runtime_video_mae=three_pointer",
    "runtime_video_mae=made_shot",
    "runtime_video_mae=block",
    "runtime_video_mae=steal",
    "runtime_video_mae=fast_break",
    "runtime_video_mae=miss",
    "runtime_xclip=highlight",
    "runtime_xclip=dunk",
    "runtime_xclip=layup",
    "runtime_xclip=three_pointer",
    "runtime_xclip=made_shot",
    "runtime_xclip=block",
    "runtime_xclip=steal",
    "runtime_xclip=fast_break",
    "runtime_xclip=miss",
    "runtime_label_highlight",
    "runtime_label_dunk",
    "runtime_label_layup",
    "runtime_label_three_pointer",
    "runtime_label_make_shot",
    "runtime_label_block",
    "runtime_label_steal",
    "runtime_label_fast_break",
    "runtime_label_miss",
    "runtime_event_family_shot_attempt",
    "runtime_event_family_turnover",
    "runtime_event_family_defensive_event",
    "runtime_event_family_transition",
    "runtime_event_family_other",
    "runtime_outcome_made",
    "runtime_outcome_missed",
    "runtime_outcome_blocked",
    "runtime_outcome_uncertain",
    "runtime_shot_subtype_dunk",
    "runtime_shot_subtype_layup",
    "runtime_shot_subtype_jumper",
    "runtime_shot_subtype_three",
    "runtime_shot_subtype_putback",
    "runtime_shot_subtype_null"
  ],
  "modelVersion": "temporal-student-v1",
  "notes": [
    "Perception-first temporal student trained on structured basketball signals.",
    "Gold examples anchor evaluation and weighting remains source-aware.",
    "Candidate windows stay frozen; only labels and perception features change."
  ],
  "projection": {
    "bias": [
      0.07811321318149567,
      0.0938287302851677,
      0.09789614379405975,
      -0.12362736463546753,
      0.026452332735061646,
      -0.027949152514338493,
      0.14499975740909576,
      -0.06692089885473251,
      0.026293406262993813,
      0.06900230050086975,
      0.020653115585446358,
      -0.12286530435085297,
      -0.0320805199444294,
      -0.03692742437124252,
      0.006936893332749605,
      0.11873191595077515
    ],
    "weight": [
      [
        0.10147513449192047,
        0.06914561986923218,
        0.09319739043712616,
        -0.007310614921152592,
        0.18743884563446045,
        0.10955442488193512,
        0.1376926600933075,
        0.1588338166475296,
        -0.007584541570395231,
        -0.03017004020512104,
        -0.4643135666847229,
        -0.08602454513311386,
        0.06629298627376556,
        0.20497368276119232,
        -0.02158920280635357,
        0.09048048406839371,
        0.04697008058428764,
        -0.10222531855106354,
        -0.29916298389434814,
        -0.053603678941726685,
        -0.013404513709247112,
        -0.3548021614551544,
        -0.0027341474778950214,
        0.28827884793281555,
        0.07633781433105469,
        0.053715456277132034,
        0.07547719776630402,
        0.053790751844644547,
        -0.04861894249916077,
        0.0008067484595812857,
        0.08493289351463318,
        0.0653998851776123,
        0.1029740646481514,
        0.10726463049650192,
        0.0174835454672575,
        0.13742586970329285,
        -0.013667240738868713,
        -0.0756189376115799,
        0.08774248510599136,
        0.17182239890098572,
        -0.32704097032546997,
        0.06900108605623245,
        0.009559032507240772,
        -0.042120311409235,
        0.08253954350948334,
        0.05676400661468506,
        -0.11384198069572449,
        -0.026247959583997726,
        -0.12519578635692596,
        -0.029575563967227936,
        0.08000968396663666,
        0.26365312933921814,
        0.1004946231842041,
        -0.2511683702468872,
        -0.46504729986190796,
        0.0385216660797596,
        0.15722888708114624,
        -0.3274743854999542,
        0.0536436103284359,
        -0.36181044578552246,
        -0.012396649457514286,
        0.07847486436367035,
        -0.02958437241613865,
        0.04851894453167915,
        -0.375034898519516,
        -0.08524037152528763,
        0.09081141650676727,
        0.2505338788032532,
        0.017598643898963928,
        0.30336371064186096,
        -0.4423676133155823,
        0.0916067510843277,
        -0.14791877567768097,
        -0.06597260385751724,
        -0.03568355366587639,
        0.10413756221532822,
        -0.007130063604563475,
        -0.2758735418319702,
        -0.48433345556259155,
        -0.04495608061552048,
        -0.07101399451494217,
        0.026752140372991562,
        0.01983395405113697,
        0.01965407095849514,
        -0.08076141029596329,
        -0.04354536905884743,
        0.02903955616056919,
        0.07661224156618118,
        -0.028304971754550934,
        -0.03072957508265972,
        -0.06976661831140518,
        0.03416275605559349,
        -0.09052818268537521,
        -0.06795480847358704,
        -0.047365639358758926,
        0.04964088276028633,
        -0.07815540581941605,
        0.04708222299814224,
        0.07704940438270569,
        -0.11464868485927582,
        0.021539945155382156,
        0.08533301204442978,
        0.20919524133205414,
        0.12864749133586884,
        -0.35411718487739563,
        -0.48084285855293274,
        0.03416565805673599,
        0.27119237184524536,
        -0.37837669253349304,
        0.13679054379463196,
        -0.44492340087890625,
        -0.010740064084529877,
        0.04418468847870827,
        0.00576289277523756,
        0.02391861006617546,
        -0.43679770827293396,
        -0.042405564337968826,
        -0.0351983979344368,
        0.32331910729408264,
        -0.01888921484351158,
        0.15502043068408966,
        -0.3011528253555298
      ],
      [
        -0.27070674300193787,
        -0.0928979143500328,
        -0.052100952714681625,
        -0.0019208454759791493,
        -0.0430593267083168,
        0.04357561469078064,
        -0.06781169772148132,
        0.06189582124352455,
        -0.06233009696006775,
        0.04118766635656357,
        0.45162054896354675,
        0.031741056591272354,
        0.06711755692958832,
        -0.06699367612600327,
        -0.025196727365255356,
        -0.06801057606935501,
        0.16811318695545197,
        -0.296268105506897,
        0.06766609102487564,
        -0.03062298521399498,
        0.053177714347839355,
        0.41304197907447815,
        -0.06468774378299713,
        -0.31790614128112793,
        0.07066028565168381,
        -0.09459973871707916,
        0.028471095487475395,
        0.08148131519556046,
        -0.043448545038700104,
        -0.03998883068561554,
        -0.07763953506946564,
        -0.023987913504242897,
        0.003390899393707514,
        0.10246044397354126,
        0.07604999840259552,
        0.03884578496217728,
        0.021907014772295952,
        0.0037613429594784975,
        -0.012522107921540737,
        0.012886334210634232,
        -0.43801674246788025,
        0.0153303612023592,
        0.10808674991130829,
        -0.019454794004559517,
        0.029088124632835388,
        0.31365108489990234,
        -0.3364241123199463,
        0.5391656160354614,
        0.57166588306427,
        -0.008042516186833382,
        -0.08145265281200409,
        -0.27854955196380615,
        -0.3124365508556366,
        0.13630160689353943,
        0.36957186460494995,
        0.07385583966970444,
        -0.00752718560397625,
        -0.02473202534019947,
        -0.42134612798690796,
        0.3340252935886383,
        0.5444434881210327,
        0.06296174973249435,
        0.08811017125844955,
        -0.38810327649116516,
        0.39295142889022827,
        0.4459271728992462,
        0.31985124945640564,
        -0.3917681872844696,
        -0.01932869292795658,
        -0.44736170768737793,
        0.3662645220756531,
        0.49359309673309326,
        0.5208323001861572,
        0.0033763889223337173,
        0.06943801045417786,
        -0.26664286851882935,
        -0.28102847933769226,
        0.12262045592069626,
        0.4622088074684143,
        0.014802072197198868,
        0.07691685855388641,
        0.003820681245997548,
        0.019346533343195915,
        -0.07313352823257446,
        -0.07901504635810852,
        0.059994179755449295,
        0.06396917253732681,
        -0.005543768405914307,
        -0.08213050663471222,
        -0.07664287090301514,
        -0.01856861636042595,
        0.082618348300457,
        -0.04573679342865944,
        0.03193126618862152,
        0.034440405666828156,
        0.07018272578716278,
        -0.03225693479180336,
        0.07579391449689865,
        0.4026590883731842,
        0.5948293805122375,
        0.034708455204963684,
        -0.005361177492886782,
        -0.2752932906150818,
        -0.4014342129230499,
        0.04703811556100845,
        0.4855922758579254,
        0.019786303862929344,
        0.05009467899799347,
        0.0856388732790947,
        -0.41882506012916565,
        0.3821345567703247,
        0.5128598809242249,
        0.12195833027362823,
        -0.04519012197852135,
        -0.38194358348846436,
        0.2837269902229309,
        0.5115330815315247,
        0.25692036747932434,
        -0.3456781804561615,
        0.062146447598934174,
        -0.4532809853553772,
        0.4155571162700653
      ],
      [
        -0.12439553439617157,
        -0.2440211921930313,
        -0.31603264808654785,
        -0.4052199721336365,
        -0.16980381309986115,
        -0.17850272357463837,
        -0.2621445655822754,
        0.02947181649506092,
        0.10831855982542038,
        -0.404287189245224,
        -0.33176490664482117,
        -0.021090861409902573,
        0.023618360981345177,
        -0.23739169538021088,
        0.004790135659277439,
        0.023296229541301727,
        -0.4934205114841461,
        0.187482550740242,
        -0.14714446663856506,
        -0.08335065841674805,
        -0.006752561777830124,
        -0.3772694766521454,
        0.013947656378149986,
        -0.45348551869392395,
        0.0632619857788086,
        -0.21503528952598572,
        -0.299903929233551,
        -0.2021384984254837,
        -0.013324389234185219,
        -0.009197770617902279,
        -0.17788517475128174,
        0.09776251018047333,
        -0.007704748306423426,
        0.08288067579269409,
        0.11342164129018784,
        -0.01927271857857704,
        0.0025122712831944227,
        -0.013210299424827099,
        -0.26784080266952515,
        0.3212764263153076,
        0.1326541006565094,
        -0.22514894604682922,
        0.2648006081581116,
        0.013366005383431911,
        -0.23071298003196716,
        -0.01199798472225666,
        0.626099169254303,
        0.33564454317092896,
        -0.26191383600234985,
        -0.08829459547996521,
        -0.054669514298439026,
        0.3649396300315857,
        -0.24401280283927917,
        0.3275110423564911,
        -0.3103834092617035,
        -0.014474545605480671,
        0.2311471551656723,
        0.36523255705833435,
        -0.22765973210334778,
        -0.3854275643825531,
        0.37777161598205566,
        -0.10843590646982193,
        -0.002632393967360258,
        -0.18613839149475098,
        0.37671419978141785,
        -0.27115705609321594,
        -0.623226523399353,
        0.6679518818855286,
        0.08018264919519424,
        0.2067563682794571,
        0.41776108741760254,
        0.3172735571861267,
        -0.4126926362514496,
        0.03221830725669861,
        0.03090878762304783,
        0.41336989402770996,
        -0.23704209923744202,
        0.43041175603866577,
        -0.43081900477409363,
        -0.051874496042728424,
        -0.05910671874880791,
        0.04000591114163399,
        -0.007723753806203604,
        0.010524686425924301,
        0.03868347033858299,
        0.049072667956352234,
        -0.02244093082845211,
        0.030926691368222237,
        -0.08642172813415527,
        0.07860259711742401,
        -0.003075747285038233,
        -0.01140364445745945,
        -0.014551001600921154,
        -0.023616213351488113,
        -0.07453034073114395,
        0.04357128217816353,
        -0.07728774845600128,
        0.023744191974401474,
        0.33507511019706726,
        -0.4188201427459717,
        -0.03787470981478691,
        0.04452184960246086,
        0.3120518922805786,
        -0.18182629346847534,
        0.35499662160873413,
        -0.3701767325401306,
        0.07543402165174484,
        0.06310532987117767,
        0.33196064829826355,
        -0.1554739773273468,
        -0.34462395310401917,
        0.2511519491672516,
        -0.13046108186244965,
        -0.070042684674263,
        -0.2471705973148346,
        0.3107174336910248,
        -0.3109232187271118,
        -0.6300506591796875,
        0.5702323317527771,
        0.013287553563714027,
        0.12990078330039978,
        0.31390881538391113
      ],
      [
        0.33124595880508423,
        0.26798704266548157,
        0.004673823248594999,
        0.2682604193687439,
        0.013060036115348339,
        0.20993883907794952,
        0.09015494585037231,
        -0.129250168800354,
        -0.10523433983325958,
        0.2197042554616928,
        0.3273247480392456,
        0.004575468599796295,
        -0.008182724006474018,
        0.016270656138658524,
        -0.037134233862161636,
        -0.03565458580851555,
        0.23874403536319733,
        0.13056766986846924,
        0.3692170977592468,
        -0.034189824014902115,
        0.03472625091671944,
        0.4011709988117218,
        -0.07588403671979904,
        0.5103533267974854,
        -0.08807860314846039,
        0.16478022933006287,
        0.013919699937105179,
        0.08524886518716812,
        0.03900785744190216,
        -0.05490686371922493,
        -0.23852775990962982,
        -0.06962256878614426,
        0.005681076552718878,
        -0.0284016914665699,
        0.011970974504947662,
        -0.05635935813188553,
        -0.030149834230542183,
        0.020097920671105385,
        -0.20360709726810455,
        0.4110177457332611,
        0.5026527047157288,
        -0.19745928049087524,
        0.4755093455314636,
        0.02031438983976841,
        -0.17328548431396484,
        0.3742879033088684,
        0.3217650055885315,
        -0.3995518386363983,
        0.3110828995704651,
        -0.08964449167251587,
        0.049217406660318375,
        -0.34756699204444885,
        0.3002386689186096,
        0.34296926856040955,
        0.2811838388442993,
        0.016993572935461998,
        -0.17463357746601105,
        0.4446556866168976,
        0.20346684753894806,
        0.2969174385070801,
        -0.41943788528442383,
        -0.05983525142073631,
        0.0492064543068409,
        0.2353028506040573,
        -0.141615629196167,
        0.23285432159900665,
        -0.3643916845321655,
        0.39655929803848267,
        -0.02558482252061367,
        0.3869708776473999,
        -0.15986382961273193,
        -0.5433949828147888,
        0.29541537165641785,
        -0.0017788746627047658,
        -0.07212067395448685,
        -0.3329131305217743,
        0.21981357038021088,
        0.4865449070930481,
        0.32561931014060974,
        -0.04766509309411049,
        -0.02764061652123928,
        -0.07737232744693756,
        0.053334444761276245,
        -0.023681897670030594,
        -0.0031449717935174704,
        0.04630493372678757,
        0.08100419491529465,
        -0.0217159204185009,
        -0.01204424537718296,
        -0.05462856590747833,
        0.07412370294332504,
        0.0032904574181884527,
        -0.0628446489572525,
        -0.07840630412101746,
        0.023498043417930603,
        -0.044758498668670654,
        0.018128663301467896,
        -0.041910577565431595,
        -0.5573105216026306,
        0.27228307723999023,
        0.01354992389678955,
        -0.0017954414943233132,
        -0.28935277462005615,
        0.28010129928588867,
        0.37903377413749695,
        0.26961931586265564,
        0.029133884236216545,
        -0.1856265813112259,
        0.32251501083374023,
        0.30061453580856323,
        0.34585821628570557,
        -0.4592163562774658,
        -0.007246170658618212,
        -0.0803694948554039,
        0.3530352711677551,
        -0.16956490278244019,
        0.2753058969974518,
        -0.35812661051750183,
        0.4232187271118164,
        0.045412786304950714,
        0.35039955377578735,
        -0.12423516809940338
      ],
      [
        0.2308902144432068,
        0.04736369103193283,
        -0.23206709325313568,
        0.043038323521614075,
        -0.09000339359045029,
        -0.05252579599618912,
        -0.20345498621463776,
        -0.04043744131922722,
        -0.07211557030677795,
        0.11356828361749649,
        0.016105836257338524,
        0.07481920719146729,
        -0.08833368867635727,
        -0.12606510519981384,
        -0.07691233605146408,
        0.03725865110754967,
        -0.1531285047531128,
        0.4279744029045105,
        0.28746315836906433,
        0.02908931113779545,
        -0.019140468910336494,
        0.03305048123002052,
        -0.04101874306797981,
        0.30876266956329346,
        0.05215797573328018,
        0.06647557765245438,
        -0.08285936713218689,
        -0.033654022961854935,
        0.030548525974154472,
        0.005114381667226553,
        0.09728013724088669,
        0.050156865268945694,
        0.0025564853567630053,
        -0.08022447675466537,
        0.08480330556631088,
        0.09231989085674286,
        -0.06552988290786743,
        -0.004582214169204235,
        0.09948237240314484,
        -0.16140006482601166,
        -0.38268932700157166,
        0.009477606043219566,
        -0.10474447906017303,
        -0.08186186850070953,
        -0.0013606712454929948,
        -0.34968310594558716,
        0.5178922414779663,
        0.24666452407836914,
        -0.4747840464115143,
        0.011853095144033432,
        -0.010126791894435883,
        0.17549720406532288,
        -0.45689454674720764,
        0.3787990212440491,
        0.014892105013132095,
        0.02611122652888298,
        0.1388571709394455,
        0.4092392325401306,
        -0.4438537061214447,
        0.11006178706884384,
        0.2219080924987793,
        0.07909246534109116,
        0.016601938754320145,
        -0.4885276257991791,
        0.35620856285095215,
        -0.5015444159507751,
        -0.4002440869808197,
        0.09262009710073471,
        -0.024040570482611656,
        0.4241090416908264,
        0.3597293198108673,
        0.1889037787914276,
        -0.4800126254558563,
        -0.08517030626535416,
        -0.04161139205098152,
        0.29152241349220276,
        -0.30829283595085144,
        0.40222281217575073,
        0.13428740203380585,
        0.08037246018648148,
        0.03377567231655121,
        -0.07789599895477295,
        0.057388272136449814,
        0.045402005314826965,
        0.08046896010637283,
        -0.0795537605881691,
        -0.026066910475492477,
        -0.011744866147637367,
        0.04785245656967163,
        0.008938299492001534,
        0.02073930948972702,
        0.0696035772562027,
        -0.013983305543661118,
        0.021041786298155785,
        -0.06024201214313507,
        0.0747172087430954,
        -0.007590712048113346,
        0.08995156735181808,
        0.2258707582950592,
        -0.5136929750442505,
        0.05106986686587334,
        0.023230697959661484,
        0.16317951679229736,
        -0.33916160464286804,
        0.36740559339523315,
        0.0531943142414093,
        -0.02607421763241291,
        0.15645092725753784,
        0.2838538587093353,
        -0.3103577792644501,
        0.13839851319789886,
        0.19453658163547516,
        0.030080536380410194,
        -0.004148369189351797,
        -0.3547535240650177,
        0.3610268831253052,
        -0.49875250458717346,
        -0.4620179831981659,
        0.07306931167840958,
        0.008026845753192902,
        0.5034934282302856,
        0.25054705142974854
      ],
      [
        0.10083307325839996,
        -0.060579266399145126,
        -0.1761789470911026,
        0.13951657712459564,
        -0.16837777197360992,
        -0.07652881741523743,
        -0.24354054033756256,
        0.036625418812036514,
        -0.029820390045642853,
        0.09572337567806244,
        -0.3513164222240448,
        -0.01857144385576248,
        -0.07240451127290726,
        -0.3370908498764038,
        -0.0021179814357310534,
        -0.0004459112824406475,
        -0.5771488547325134,
        0.38620129227638245,
        -0.04490532726049423,
        -0.06513748317956924,
        -0.08440753817558289,
        -0.40969958901405334,
        0.05122824013233185,
        -0.1833275854587555,
        -0.07722024619579315,
        -0.1114974170923233,
        -0.27372121810913086,
        -0.22212351858615875,
        -0.02887616492807865,
        -0.004123826511204243,
        0.41793498396873474,
        -0.04215950146317482,
        -0.003995140548795462,
        0.021279122680425644,
        0.05029025301337242,
        0.06238013878464699,
        -0.018701745197176933,
        -0.05693667009472847,
        0.12164223194122314,
        -0.6074090003967285,
        0.35275813937187195,
        0.36344394087791443,
        -0.510051965713501,
        0.05420086160302162,
        0.44710952043533325,
        -0.6307041645050049,
        -0.17394357919692993,
        0.30990660190582275,
        -0.44930651783943176,
        0.02881927601993084,
        0.023387396708130836,
        0.42277899384498596,
        0.18643850088119507,
        0.3036385774612427,
        -0.38561323285102844,
        0.0886569619178772,
        -0.27068203687667847,
        0.41455185413360596,
        0.30531299114227295,
        -0.4295182228088379,
        0.14418281614780426,
        -0.36411890387535095,
        -0.033974044024944305,
        0.2155900001525879,
        0.2970525324344635,
        -0.38423192501068115,
        0.47913601994514465,
        -0.035938553512096405,
        -0.061616960912942886,
        -0.46861663460731506,
        0.2671826481819153,
        0.2421024888753891,
        -0.502613365650177,
        -0.08497346937656403,
        -0.006096160504966974,
        0.5426079034805298,
        0.28415435552597046,
        0.3039575219154358,
        -0.48466697335243225,
        0.01849847473204136,
        -0.028696423396468163,
        -0.02705482207238674,
        -0.04939555376768112,
        0.007086930330842733,
        0.01871059462428093,
        -0.03483985736966133,
        0.007044774014502764,
        -0.06246592476963997,
        -0.04715658351778984,
        -0.0012660594657063484,
        -0.026644406840205193,
        0.08461473882198334,
        0.017511913552880287,
        -0.05855436995625496,
        -0.024513743817806244,
        -0.05900586023926735,
        -0.045438431203365326,
        -0.03795173764228821,
        0.2742934226989746,
        -0.35966771841049194,
        0.05523253604769707,
        -0.032077591866254807,
        0.5634360909461975,
        0.18374133110046387,
        0.30025404691696167,
        -0.45304563641548157,
        -0.028405699878931046,
        -0.20963172614574432,
        0.2690555453300476,
        0.20486176013946533,
        -0.46047618985176086,
        0.23777811229228973,
        -0.229219451546669,
        0.03546664118766785,
        0.28241467475891113,
        0.29854559898376465,
        -0.32803767919540405,
        0.4058687090873718,
        -0.11697361618280411,
        0.0026694885455071926,
        -0.5016071796417236,
        0.2910025715827942
      ],
      [
        -0.14542284607887268,
        -0.10505280643701553,
        -0.157685324549675,
        -0.38676711916923523,
        -0.03414790704846382,
        0.026654142886400223,
        -0.1265968233346939,
        0.10250388830900192,
        0.10280322283506393,
        -0.2910619378089905,
        -0.3627105951309204,
        0.010411827825009823,
        0.009891338646411896,
        -0.02904551848769188,
        0.03542153909802437,
        -0.022674106061458588,
        -0.040348123759031296,
        -0.18585586547851562,
        -0.26475682854652405,
        -0.07371292263269424,
        -0.08865568786859512,
        -0.3770778775215149,
        -0.04501936957240105,
        -0.5627467632293701,
        0.0166892409324646,
        -0.01600014418363571,
        -0.12989011406898499,
        -0.002413463080301881,
        -0.08262607455253601,
        0.012889184057712555,
        0.0121102100238204,
        0.11931872367858887,
        0.08692558109760284,
        0.04545152187347412,
        -0.0066910493187606335,
        0.0811869204044342,
        -0.013109560124576092,
        0.03576785698533058,
        -0.2388867735862732,
        0.0007141036330722272,
        0.4988947808742523,
        0.07924516499042511,
        -0.03965330868959427,
        -0.060618892312049866,
        0.11437001079320908,
        0.19502373039722443,
        -0.11107533425092697,
        0.2833474576473236,
        0.30426034331321716,
        -0.008828840218484402,
        -0.03485729545354843,
        -0.30335113406181335,
        0.3873896598815918,
        0.25466471910476685,
        -0.4830546975135803,
        0.07637969404459,
        -0.10567109286785126,
        0.2349412590265274,
        0.4403240978717804,
        -0.33843010663986206,
        0.3597758114337921,
        -0.20127446949481964,
        0.03161146864295006,
        0.3968401551246643,
        0.31945541501045227,
        0.3561696708202362,
        -0.3995685279369354,
        0.5509303212165833,
        -0.07664333283901215,
        -0.07808128744363785,
        0.3564399778842926,
        0.35484424233436584,
        0.3167722523212433,
        0.08197147399187088,
        -0.027053343132138252,
        -0.4642511010169983,
        0.45476216077804565,
        0.29739952087402344,
        -0.43761005997657776,
        -0.08322729170322418,
        0.08101312816143036,
        0.07823319733142853,
        -0.016678446903824806,
        -0.03133741021156311,
        -0.01861586794257164,
        -0.07018992304801941,
        0.020120305940508842,
        -0.05634959042072296,
        0.03718344867229462,
        0.006785307079553604,
        0.07697390764951706,
        -0.03684108331799507,
        0.0186860840767622,
        0.01677076891064644,
        0.03123749978840351,
        0.02047552540898323,
        -0.03418700397014618,
        0.0364777036011219,
        0.36634644865989685,
        0.3406681418418884,
        -0.06172262132167816,
        -0.04450509697198868,
        -0.33858489990234375,
        0.31087490916252136,
        0.2947241961956024,
        -0.4228922128677368,
        -0.03541165217757225,
        -0.11150116473436356,
        0.2687493562698364,
        0.3379260003566742,
        -0.36640962958335876,
        0.31779715418815613,
        -0.1481989622116089,
        0.011359232477843761,
        0.41446834802627563,
        0.3789648115634918,
        0.25568702816963196,
        -0.43556925654411316,
        0.48670318722724915,
        0.05671628564596176,
        -0.023885482922196388,
        0.3443130850791931
      ],
      [
        0.13310417532920837,
        -0.18999060988426208,
        0.029713550582528114,
        -0.26451820135116577,
        -0.07225307822227478,
        -0.2343769371509552,
        0.014899071305990219,
        0.08119727671146393,
        0.015708718448877335,
        -0.3193127512931824,
        0.49391165375709534,
        0.024162625893950462,
        -0.08182363957166672,
        0.22863073647022247,
        0.008995997719466686,
        0.02008194848895073,
        0.6209737658500671,
        -0.47581520676612854,
        -0.3020312190055847,
        0.08922380208969116,
        -0.08427676558494568,
        0.374714195728302,
        0.03960895538330078,
        -0.24115188419818878,
        0.08727464079856873,
        -0.23692022264003754,
        -0.08179062604904175,
        0.04782678931951523,
        -0.0008566275355406106,
        0.024181045591831207,
        -0.004126847255975008,
        0.08999952673912048,
        0.07509153336286545,
        -0.056112952530384064,
        0.06818325817584991,
        0.00444890046492219,
        0.07733496278524399,
        -0.05123981833457947,
        -0.06839004158973694,
        0.43122777342796326,
        -0.46351125836372375,
        -0.05410522222518921,
        0.28727200627326965,
        -0.01993781141936779,
        -0.0823003277182579,
        0.46966537833213806,
        -0.5117350816726685,
        0.3775434195995331,
        0.48576825857162476,
        -0.0494125597178936,
        0.0890263095498085,
        -0.5733404159545898,
        -0.2676509618759155,
        -0.48834559321403503,
        0.4567052721977234,
        -0.058618444949388504,
        0.009373043663799763,
        -0.4911249577999115,
        -0.26083213090896606,
        0.4538266658782959,
        0.3294834792613983,
        0.15940815210342407,
        0.08308270573616028,
        -0.29786452651023865,
        -0.02179901674389839,
        0.3804681599140167,
        -0.13942284882068634,
        -0.6399967670440674,
        -0.04488365352153778,
        0.019981684163212776,
        -0.02942151203751564,
        0.38481563329696655,
        0.4371330738067627,
        -0.08003398030996323,
        -0.08907361328601837,
        -0.5701068639755249,
        -0.3308577835559845,
        -0.40639904141426086,
        0.3872504234313965,
        0.05849616229534149,
        -0.08686553686857224,
        -0.027116253972053528,
        -0.05762876570224762,
        -0.055853646248579025,
        0.06314380466938019,
        -0.04827919974923134,
        0.04926976189017296,
        0.06423072516918182,
        -0.017598072066903114,
        -0.06021518260240555,
        -0.06314097344875336,
        -0.020865876227617264,
        -0.02536069042980671,
        -0.03490925207734108,
        -0.05399569123983383,
        0.025564920157194138,
        0.07332625240087509,
        -0.037381503731012344,
        0.456505686044693,
        0.46013689041137695,
        0.08943021297454834,
        0.026222962886095047,
        -0.5671428442001343,
        -0.3529082238674164,
        -0.46774330735206604,
        0.4713537096977234,
        -0.07746382057666779,
        0.16458696126937866,
        -0.45727017521858215,
        -0.2680714726448059,
        0.5251872539520264,
        0.4109500050544739,
        0.1144302561879158,
        -0.08266641199588776,
        -0.38257110118865967,
        0.12384609133005142,
        0.4786323308944702,
        -0.12738947570323944,
        -0.571641743183136,
        -0.044372834265232086,
        0.08218055963516235,
        -0.03652654215693474
      ],
      [
        0.047465257346630096,
        0.11192420870065689,
        0.1970352679491043,
        0.11971952021121979,
        0.20418982207775116,
        -0.02052861824631691,
        0.05260095372796059,
        -0.032867077738046646,
        0.013669644482433796,
        0.10399562120437622,
        0.42621833086013794,
        0.019158264622092247,
        -0.06130024790763855,
        0.0542784184217453,
        -0.04022718593478203,
        -0.06338158994913101,
        0.2810090184211731,
        -0.31508153676986694,
        -0.005319240968674421,
        -0.05832196772098541,
        0.07673995941877365,
        0.32895758748054504,
        -0.00147123949136585,
        -0.1997995376586914,
        -0.08974644541740417,
        0.09155867993831635,
        0.04658325016498566,
        0.14108438789844513,
        0.029004361480474472,
        0.03011481836438179,
        -0.10371265560388565,
        -0.054289206862449646,
        0.029429078102111816,
        -0.099660225212574,
        -0.024219591170549393,
        -0.04733089357614517,
        0.052093133330345154,
        -0.031193746253848076,
        -0.16408126056194305,
        -0.1532299667596817,
        0.4873048961162567,
        -0.08146090060472488,
        -0.06414617598056793,
        -0.07009793072938919,
        -0.09435901790857315,
        0.2881353199481964,
        -0.3748883008956909,
        -0.23337450623512268,
        0.47616827487945557,
        -0.07245301455259323,
        -0.07987917959690094,
        -0.4199541509151459,
        0.42359015345573425,
        -0.3585216999053955,
        0.4865882396697998,
        -0.07246759533882141,
        -0.22522099316120148,
        -0.3773810863494873,
        0.5346028804779053,
        0.3794911503791809,
        -0.2558542788028717,
        -0.09751565754413605,
        -0.03291523829102516,
        0.3887936770915985,
        -0.27541038393974304,
        0.5229286551475525,
        0.2988058626651764,
        -0.18543782830238342,
        0.07963620871305466,
        -0.5473984479904175,
        -0.33744481205940247,
        -0.26749253273010254,
        0.46738359332084656,
        -0.02391045354306698,
        0.04990961030125618,
        -0.42741402983665466,
        0.5143420100212097,
        -0.3662484586238861,
        0.49321407079696655,
        0.057612672448158264,
        -0.04090770706534386,
        -0.00523138465359807,
        -0.01629864238202572,
        0.03780760243535042,
        0.08869963884353638,
        -0.03218545764684677,
        -0.05842074379324913,
        0.013886429369449615,
        0.07772304117679596,
        0.025407012552022934,
        0.020128075033426285,
        -0.08710218966007233,
        0.055536653846502304,
        0.060714323073625565,
        0.0063614449463784695,
        0.034683480858802795,
        -0.003560577053576708,
        0.025833163410425186,
        -0.25396934151649475,
        0.42503902316093445,
        -0.03625120595097542,
        -0.03911103680729866,
        -0.29493001103401184,
        0.39219871163368225,
        -0.3953889310359955,
        0.449097216129303,
        0.08140165358781815,
        -0.29284146428108215,
        -0.3167319595813751,
        0.501908004283905,
        0.37503379583358765,
        -0.36291220784187317,
        -0.1543019711971283,
        -0.05632384121417999,
        0.48286110162734985,
        -0.3659028112888336,
        0.5474628806114197,
        0.3741879463195801,
        -0.11937948316335678,
        0.08977267146110535,
        -0.4994984567165375,
        -0.383139431476593
      ],
      [
        0.11196833848953247,
        -0.2016897201538086,
        -0.14014117419719696,
        -0.5426465272903442,
        -0.024280039593577385,
        -0.132772296667099,
        -0.14822274446487427,
        -0.04901992157101631,
        0.013561010360717773,
        -0.5504456162452698,
        0.15969544649124146,
        0.09036533534526825,
        0.007934125140309334,
        0.03097706101834774,
        -2.1801258753839647e-06,
        0.06496105343103409,
        0.46753358840942383,
        -0.2427932173013687,
        0.15810731053352356,
        0.005778714548796415,
        -0.008530043996870518,
        0.14356526732444763,
        -0.08285003900527954,
        -0.42671921849250793,
        -0.049213577061891556,
        -0.1343335658311844,
        -0.10302667319774628,
        0.12225420027971268,
        0.0731968954205513,
        0.15208642184734344,
        0.19108782708644867,
        0.12426162511110306,
        -0.011355197988450527,
        0.02353684976696968,
        0.12250134348869324,
        0.018969522789120674,
        -0.058615099638700485,
        -0.0561903677880764,
        0.17040833830833435,
        -0.2553519606590271,
        -0.3516071140766144,
        0.17296607792377472,
        -0.279230535030365,
        -0.08020003885030746,
        0.10120932757854462,
        -0.2149764895439148,
        -0.46837398409843445,
        0.2815658748149872,
        0.5124589204788208,
        0.07685654610395432,
        -0.0608631856739521,
        -0.5675980448722839,
        -0.39299914240837097,
        -0.10933832079172134,
        0.22136513888835907,
        -0.021758658811450005,
        0.02469407021999359,
        -0.07636510580778122,
        -0.23528502881526947,
        0.23868629336357117,
        0.2745196223258972,
        0.026647720485925674,
        0.07087668031454086,
        -0.3724239468574524,
        0.19280757009983063,
        0.4360184073448181,
        -0.45110076665878296,
        -0.39651229977607727,
        0.075489841401577,
        0.4624665081501007,
        0.17040489614009857,
        0.28429582715034485,
        0.3516015410423279,
        -0.04853472486138344,
        0.0725833997130394,
        -0.591664731502533,
        -0.2420380860567093,
        -0.15436866879463196,
        0.12609291076660156,
        -0.009562550112605095,
        -0.00628670584410429,
        0.03271742910146713,
        -0.044410619884729385,
        0.08894865959882736,
        -0.06643184274435043,
        -0.07549487054347992,
        0.051589664071798325,
        0.03512728586792946,
        -0.06516615301370621,
        -0.017873696982860565,
        0.009173709899187088,
        0.06467024981975555,
        -0.0196723323315382,
        -0.034590620547533035,
        -0.029380152001976967,
        0.07250279188156128,
        -0.01966402307152748,
        -0.07230331003665924,
        0.3150894045829773,
        0.417745977640152,
        0.05229463428258896,
        -0.0700407475233078,
        -0.5543053150177002,
        -0.3697205185890198,
        -0.09255062788724899,
        0.13990150392055511,
        0.016407625749707222,
        -0.02136666513979435,
        -0.16787748038768768,
        -0.24085088074207306,
        0.206595316529274,
        0.18327324092388153,
        -0.06826570630073547,
        0.03151584416627884,
        -0.22279809415340424,
        0.05237238109111786,
        0.41898682713508606,
        -0.580051064491272,
        -0.5205681920051575,
        0.013883601874113083,
        0.4604318141937256,
        0.21647518873214722
      ],
      [
        -0.09978963434696198,
        0.02656708098948002,
        -0.2383275181055069,
        -0.009680250659584999,
        -0.25750741362571716,
        0.05276691913604736,
        -0.158664271235466,
        0.05499681457877159,
        0.04346677288413048,
        0.02840009517967701,
        -0.31056737899780273,
        -0.058714400976896286,
        0.030039122328162193,
        -0.2826032340526581,
        -0.03850473463535309,
        0.021501339972019196,
        -0.3332384526729584,
        -0.04872327670454979,
        0.13349775969982147,
        -0.04916859418153763,
        -0.062393032014369965,
        -0.3559699058532715,
        -0.00344928284175694,
        -0.23991069197654724,
        0.016907166689634323,
        0.013081075623631477,
        -0.18430472910404205,
        -0.06259484589099884,
        0.039244454354047775,
        -0.0851767510175705,
        -0.27840304374694824,
        0.1261613517999649,
        0.12248565256595612,
        0.12304936349391937,
        0.06456968188285828,
        0.002383295213803649,
        0.07315540313720703,
        -0.0683702751994133,
        -0.4840500056743622,
        0.36983218789100647,
        0.3832794427871704,
        -0.22039049863815308,
        0.484515517950058,
        0.05615139380097389,
        -0.38188254833221436,
        0.3132322430610657,
        0.39044272899627686,
        0.0783841535449028,
        0.11685888469219208,
        -0.015090247616171837,
        0.06902531534433365,
        -0.40516558289527893,
        0.27723565697669983,
        0.42173436284065247,
        -0.20709024369716644,
        -0.0035896957851946354,
        -0.24763470888137817,
        0.42969563603401184,
        0.3851901590824127,
        -0.22680862247943878,
        0.07730566710233688,
        -0.35167595744132996,
        0.06467829644680023,
        0.24588869512081146,
        0.36315831542015076,
        0.15996797382831573,
        -0.6463844776153564,
        0.63932204246521,
        -0.0031243683770298958,
        -0.33688414096832275,
        0.3168675899505615,
        0.026232866570353508,
        0.14091108739376068,
        -0.07426765561103821,
        0.058010827749967575,
        -0.4699772894382477,
        0.2655620574951172,
        0.41980472207069397,
        -0.26259204745292664,
        -0.07865439355373383,
        -0.07538817822933197,
        -0.08820011466741562,
        0.03198516368865967,
        -0.016958193853497505,
        -0.07738589495420456,
        0.06717393547296524,
        -0.03044409677386284,
        -0.010886847041547298,
        0.07172981649637222,
        0.05976702645421028,
        0.0850168839097023,
        -0.03627362474799156,
        -0.002783017000183463,
        0.026104092597961426,
        0.04294663295149803,
        -0.08977010101079941,
        -0.06277446448802948,
        0.08294852823019028,
        0.045894473791122437,
        0.1334347426891327,
        -0.01990329660475254,
        -0.04474466294050217,
        -0.3451237976551056,
        0.25195688009262085,
        0.3553721010684967,
        -0.23760531842708588,
        0.049188267439603806,
        -0.25358742475509644,
        0.3286873400211334,
        0.3509420156478882,
        -0.3069908022880554,
        -0.004017982166260481,
        -0.2881796360015869,
        0.005907709244638681,
        0.3460548520088196,
        0.2533124089241028,
        0.15399371087551117,
        -0.6387574672698975,
        0.5611294507980347,
        -0.013500536791980267,
        -0.2952601909637451,
        0.2608795166015625
      ],
      [
        0.026729097589850426,
        0.15557508170604706,
        0.19550922513008118,
        0.2785601317882538,
        0.24013790488243103,
        0.15832547843456268,
        0.2515011131763458,
        -0.19693823158740997,
        -0.09431260824203491,
        0.27273204922676086,
        -0.45027264952659607,
        0.052854083478450775,
        -0.07007638365030289,
        0.17585308849811554,
        -0.03898540884256363,
        -0.04472273215651512,
        0.08606589585542679,
        -0.2264612317085266,
        -0.41074979305267334,
        -0.031330157071352005,
        0.019346630200743675,
        -0.3120301067829132,
        0.05684569850564003,
        0.2238672375679016,
        0.0286630317568779,
        0.14775516092777252,
        0.20385906100273132,
        -0.007160931825637817,
        -0.01598782278597355,
        -0.10013182461261749,
        -0.11608429253101349,
        -0.028911948204040527,
        -0.17437772452831268,
        -0.18294398486614227,
        -0.09940538555383682,
        -0.0686817467212677,
        0.04742342233657837,
        -0.016811607405543327,
        0.20595532655715942,
        0.4477273225784302,
        -0.31019845604896545,
        -0.28228509426116943,
        0.3001059591770172,
        -0.0030092643573880196,
        -0.25660377740859985,
        0.3779917359352112,
        0.13583116233348846,
        -0.3694953918457031,
        0.5149791240692139,
        -0.04193729907274246,
        0.04355249181389809,
        0.49673187732696533,
        0.24995926022529602,
        -0.3348660171031952,
        -0.4244636595249176,
        0.009925422258675098,
        0.36407992243766785,
        -0.32745522260665894,
        0.2518630623817444,
        -0.4663112163543701,
        -0.345885306596756,
        0.2373213917016983,
        0.040479496121406555,
        0.21009016036987305,
        -0.3134913444519043,
        0.47014907002449036,
        0.43497931957244873,
        0.3912492096424103,
        0.01316479779779911,
        -0.5280085206031799,
        -0.3340282440185547,
        -0.2962040305137634,
        0.3994068205356598,
        -0.05553057789802551,
        -0.045138511806726456,
        0.38678479194641113,
        0.29982253909111023,
        -0.3703807294368744,
        -0.39561790227890015,
        0.009986918419599533,
        0.0008622073801234365,
        -0.024941707029938698,
        -0.04899073764681816,
        -0.0485442578792572,
        -0.027363697066903114,
        0.07287286221981049,
        0.05676642805337906,
        -0.07024975121021271,
        -0.04079023003578186,
        -0.06257940828800201,
        0.04786417633295059,
        -0.06858145445585251,
        0.09029524773359299,
        -0.022904012352228165,
        -0.0731881707906723,
        -0.04737656190991402,
        -0.02091013640165329,
        0.010699215345084667,
        -0.30905774235725403,
        0.46128568053245544,
        0.007867695763707161,
        0.08737783133983612,
        0.5535296201705933,
        0.13420286774635315,
        -0.3383971154689789,
        -0.41358184814453125,
        0.052933983504772186,
        0.34151479601860046,
        -0.3812504708766937,
        0.23935341835021973,
        -0.4320444166660309,
        -0.3155252933502197,
        0.31730830669403076,
        0.03516519069671631,
        0.2167823314666748,
        -0.26446568965911865,
        0.4920203983783722,
        0.32523638010025024,
        0.5008695125579834,
        -0.00545003404840827,
        -0.47457197308540344,
        -0.3960858881473541
      ],
      [
        0.044157154858112335,
        -0.13665081560611725,
        -0.32131558656692505,
        -0.06525222212076187,
        -0.17936384677886963,
        -0.10925184935331345,
        -0.3228841722011566,
        0.03196624666452408,
        -0.001984182745218277,
        -0.14609716832637787,
        0.4627828001976013,
        -0.03903406113386154,
        0.06369110196828842,
        -0.22595056891441345,
        -0.08812502026557922,
        0.045794058591127396,
        -0.456876665353775,
        0.07682295888662338,
        0.31638190150260925,
        -0.05822714418172836,
        0.0823453813791275,
        0.4724292755126953,
        -0.011203094385564327,
        -0.4494185745716095,
        0.015904007479548454,
        -0.11715772747993469,
        -0.2853289842605591,
        -0.10596949607133865,
        -0.08345421403646469,
        -0.0028853220865130424,
        0.10774185508489609,
        -0.0372631810605526,
        -0.06019973009824753,
        0.09699945896863937,
        0.0631689801812172,
        -0.030701445415616035,
        0.010584003292024136,
        -0.05052487924695015,
        -0.31752607226371765,
        -0.23862949013710022,
        0.4218423664569855,
        0.04473915696144104,
        -0.07547712326049805,
        -0.05437314510345459,
        0.010684285312891006,
        -0.09296463429927826,
        0.3719325363636017,
        0.2562429904937744,
        -0.3628559410572052,
        -0.014639997854828835,
        0.0873936340212822,
        -0.06545578688383102,
        0.22076717019081116,
        0.39274826645851135,
        0.5385106205940247,
        -0.017392104491591454,
        -0.45397359132766724,
        0.28651145100593567,
        0.273483008146286,
        0.4428365230560303,
        0.28664615750312805,
        -0.4044840335845947,
        0.06202022731304169,
        0.2644956707954407,
        0.2755441963672638,
        -0.3389812111854553,
        0.13845883309841156,
        0.32505518198013306,
        0.008232262916862965,
        -0.4927757680416107,
        0.3502695858478546,
        0.37428104877471924,
        -0.4407897889614105,
        0.047477636486291885,
        -0.012743731029331684,
        -0.1250631958246231,
        0.33578014373779297,
        0.2676164507865906,
        0.5093948245048523,
        0.07988227158784866,
        -0.035020891577005386,
        -0.03456038981676102,
        -0.06774292886257172,
        -0.009839285165071487,
        0.014709103852510452,
        -0.045080240815877914,
        0.01452523935586214,
        0.028356874361634254,
        -0.07837019860744476,
        0.061504434794187546,
        0.08652684092521667,
        0.02339155226945877,
        -0.08244473487138748,
        0.08896281570196152,
        0.012542663142085075,
        -0.022350983694195747,
        0.007666099350899458,
        -0.04176557436585426,
        0.37364277243614197,
        -0.4072592854499817,
        0.0018390548648312688,
        -0.07399192452430725,
        0.02482869103550911,
        0.29864341020584106,
        0.2858833968639374,
        0.437764048576355,
        -0.06586670130491257,
        -0.36035776138305664,
        0.2835652232170105,
        0.2636467218399048,
        0.4896342158317566,
        0.24721011519432068,
        -0.34308508038520813,
        -0.04377920180559158,
        0.32611510157585144,
        0.2573287785053253,
        -0.37169504165649414,
        0.11258869618177414,
        0.3073877692222595,
        0.031053906306624413,
        -0.4261939823627472,
        0.39610546827316284
      ],
      [
        -0.24886974692344666,
        -0.19656775891780853,
        0.022807318717241287,
        -0.27355027198791504,
        0.02214365452528,
        -0.24701349437236786,
        -0.07539256662130356,
        0.02457028441131115,
        0.11905178427696228,
        -0.2699299156665802,
        0.4331502318382263,
        0.005866858642548323,
        -0.01387482788413763,
        0.024860821664333344,
        0.026856526732444763,
        -0.017018752172589302,
        0.4798851013183594,
        -0.0950329452753067,
        0.3964073956012726,
        0.05439804494380951,
        -0.08042490482330322,
        0.45258304476737976,
        0.07668203115463257,
        -0.2826184630393982,
        0.016308140009641647,
        -0.13299472630023956,
        -0.11795936524868011,
        0.17941679060459137,
        -0.0862279161810875,
        -0.007712792605161667,
        0.014252501539885998,
        -0.024575551971793175,
        0.017894553020596504,
        0.04566816985607147,
        -0.013820672407746315,
        0.04104331508278847,
        -0.0713154748082161,
        -0.030835451558232307,
        0.1468258798122406,
        0.0091139180585742,
        -0.5340738296508789,
        0.007436538580805063,
        -0.06727926433086395,
        -0.02530265785753727,
        0.05875018984079361,
        0.07788305729627609,
        -0.3099338412284851,
        0.32378968596458435,
        0.05389191210269928,
        -0.0734402984380722,
        0.009393136948347092,
        -0.4434659481048584,
        -0.5432320833206177,
        -0.3354550302028656,
        0.45751628279685974,
        -0.020506100729107857,
        -0.24609635770320892,
        -0.4092434048652649,
        -0.5231625437736511,
        0.45691999793052673,
        0.42014214396476746,
        0.2085588127374649,
        -0.0591740645468235,
        -0.44918885827064514,
        -0.013251816853880882,
        -0.0322255864739418,
        -0.26144441962242126,
        -0.3265521824359894,
        0.04363524913787842,
        0.6572023034095764,
        0.12489452958106995,
        0.4311777353286743,
        0.05165846645832062,
        0.05812697857618332,
        0.06521688401699066,
        -0.5420755743980408,
        -0.3793303668498993,
        -0.2982553541660309,
        0.36640241742134094,
        0.05241664499044418,
        0.050743408501148224,
        0.05948757007718086,
        -0.07682142406702042,
        -0.035045113414525986,
        -0.04997286573052406,
        -0.08269389718770981,
        0.07746894657611847,
        0.005550319794565439,
        -0.011872468516230583,
        -0.04378342255949974,
        0.05798821523785591,
        -0.0498456172645092,
        -0.060382090508937836,
        0.06558232754468918,
        -0.01654033362865448,
        0.08793258666992188,
        0.024711422622203827,
        -0.03583003208041191,
        0.37765786051750183,
        0.08249391615390778,
        -0.07481371611356735,
        0.08275972306728363,
        -0.4756636619567871,
        -0.4402328431606293,
        -0.29921236634254456,
        0.4917716681957245,
        0.028210006654262543,
        -0.1578492820262909,
        -0.29843083024024963,
        -0.38967522978782654,
        0.47654083371162415,
        0.2678004205226898,
        0.1382846236228943,
        0.01637452468276024,
        -0.3819516897201538,
        0.13515646755695343,
        -0.0008869494777172804,
        -0.22948017716407776,
        -0.3757835924625397,
        0.0008166837505996227,
        0.6485346555709839,
        0.006753383670002222
      ],
      [
        0.012402181513607502,
        -0.16766880452632904,
        -0.24569697678089142,
        -0.012660929933190346,
        -0.23056438565254211,
        -0.12722410261631012,
        -0.14641283452510834,
        -0.07019329816102982,
        -0.029632622376084328,
        -0.08069459348917007,
        -0.026852227747440338,
        0.04992198944091797,
        0.08182152360677719,
        0.03096291422843933,
        -0.08194375783205032,
        -0.05441942438483238,
        0.45106253027915955,
        -0.07387108355760574,
        0.028568843379616737,
        0.05946296453475952,
        0.07276269048452377,
        -0.0994359701871872,
        -0.03370602801442146,
        0.48010075092315674,
        -0.011963299475610256,
        -0.053810976445674896,
        -0.1832936406135559,
        0.06763279438018799,
        -0.005174690391868353,
        0.000768231984693557,
        0.05986548960208893,
        0.06979658454656601,
        0.07703609019517899,
        -0.09410169720649719,
        0.03194651007652283,
        -0.017833609133958817,
        -0.0670943558216095,
        0.06228257715702057,
        0.23721300065517426,
        0.04663822799921036,
        -0.4237954020500183,
        -0.07564271986484528,
        -0.04064066335558891,
        0.08469206094741821,
        -0.07438313215970993,
        0.11478445678949356,
        -0.49036744236946106,
        0.2810753881931305,
        0.21590180695056915,
        -0.0814412459731102,
        0.011119774542748928,
        -0.15232719480991364,
        -0.4632166922092438,
        0.13872091472148895,
        -0.05398179963231087,
        -0.03099142760038376,
        0.30460911989212036,
        0.15151084959506989,
        -0.4023873805999756,
        -0.1308930516242981,
        0.11586802452802658,
        0.41314631700515747,
        0.019520457834005356,
        -0.51157546043396,
        0.175825834274292,
        0.17672564089298248,
        0.3057192862033844,
        -0.521029531955719,
        0.03173187002539635,
        0.2936386466026306,
        0.11858999729156494,
        0.1604796051979065,
        0.2879841923713684,
        -0.03855239599943161,
        -0.011004799976944923,
        -0.13024702668190002,
        -0.4037764370441437,
        0.22782588005065918,
        -0.15613898634910583,
        -0.07057708501815796,
        0.07349582761526108,
        -0.06388476490974426,
        0.02640419453382492,
        0.08179635554552078,
        -0.06568179279565811,
        0.008749579079449177,
        -0.013888501562178135,
        0.05380632355809212,
        -0.014725162647664547,
        -0.0003937717410735786,
        -0.02128911204636097,
        0.08498400449752808,
        0.0638044998049736,
        0.01549805048853159,
        -0.08631142973899841,
        -0.05240057408809662,
        -0.0032153725624084473,
        0.04921611398458481,
        0.2477317452430725,
        0.13124790787696838,
        -0.06999743729829788,
        0.012067989446222782,
        -0.19194020330905914,
        -0.5076466202735901,
        0.19859014451503754,
        -0.1726931482553482,
        0.023437971249222755,
        0.2615847587585449,
        0.12099912762641907,
        -0.5395590662956238,
        -0.034115683287382126,
        0.15957492589950562,
        0.4235973358154297,
        0.04206319525837898,
        -0.5480106472969055,
        0.20260369777679443,
        0.22772501409053802,
        0.3661903440952301,
        -0.5540924072265625,
        0.0525691993534565,
        0.24833327531814575,
        0.17114436626434326
      ],
      [
        0.14378400146961212,
        0.17876237630844116,
        0.10791928321123123,
        0.2313002645969391,
        0.22226785123348236,
        0.14854282140731812,
        0.08561190217733383,
        0.259838730096817,
        0.26394906640052795,
        0.12260694056749344,
        0.1939937025308609,
        -0.06872419267892838,
        -0.07210750132799149,
        0.11813685297966003,
        0.030510321259498596,
        0.015934119001030922,
        0.18201391398906708,
        0.15605883300304413,
        0.14275749027729034,
        -0.011862020939588547,
        -0.08067941665649414,
        0.15999366343021393,
        -0.07219929248094559,
        0.2656645178794861,
        0.0874234288930893,
        0.2257077544927597,
        0.07734591513872147,
        0.2621385455131531,
        0.0008095281664282084,
        0.12907975912094116,
        0.25829818844795227,
        0.2629881501197815,
        0.18695184588432312,
        0.17908582091331482,
        0.17762763798236847,
        0.08894846588373184,
        0.04615851864218712,
        0.05660917982459068,
        0.10579358786344528,
        -0.1773804873228073,
        -0.2364761084318161,
        0.22808508574962616,
        -0.3327074944972992,
        -0.01670479215681553,
        0.15246795117855072,
        -0.27315831184387207,
        -0.3120632469654083,
        0.07113755494356155,
        0.13799592852592468,
        0.08859635144472122,
        0.024329684674739838,
        -0.3023020625114441,
        -0.45079606771469116,
        0.15586012601852417,
        0.21605727076530457,
        -0.09053334593772888,
        0.20546360313892365,
        0.1840110868215561,
        -0.4471542537212372,
        0.1103968694806099,
        0.011999509297311306,
        0.11573268473148346,
        -0.012012730352580547,
        -0.37820926308631897,
        0.11231566965579987,
        0.2650986313819885,
        0.27025556564331055,
        -0.30035465955734253,
        0.05112495273351669,
        0.205448716878891,
        0.07170943170785904,
        -0.036658067256212234,
        0.1957685500383377,
        -0.0714627206325531,
        -0.024497879669070244,
        -0.3087480962276459,
        -0.4137715697288513,
        0.19758136570453644,
        0.24544568359851837,
        0.0019849720411002636,
        0.04303363338112831,
        0.0439901128411293,
        0.009852312505245209,
        -0.08943520486354828,
        -0.006240447983145714,
        0.057462479919195175,
        0.08087015897035599,
        -0.0008324950467795134,
        -0.06938538700342178,
        0.08573124557733536,
        0.058320026844739914,
        0.06510026007890701,
        -0.030512025579810143,
        -0.056949958205223083,
        -0.07110551744699478,
        -0.08524119853973389,
        -0.05686816945672035,
        0.01814264990389347,
        0.018973473459482193,
        0.14606642723083496,
        -0.041697464883327484,
        0.017247796058654785,
        -0.3130524456501007,
        -0.3123089671134949,
        0.14165054261684418,
        0.15081189572811127,
        -0.0751228928565979,
        0.17150571942329407,
        0.2665114104747772,
        -0.44823020696640015,
        0.12208076566457748,
        -7.327547064051032e-05,
        0.2046249806880951,
        -0.013357608579099178,
        -0.3095778226852417,
        0.24029649794101715,
        0.2283252626657486,
        0.20532691478729248,
        -0.24292832612991333,
        0.08758854866027832,
        0.18532027304172516,
        0.13605980575084686
      ]
    ]
  },
  "schemaVersion": "temporal-student-v1",
  "sourceDataset": "perception_supervision+teacher_backed",
  "targets": {
    "eventFamily": {
      "bias": [
        0.2127847969532013,
        -0.39331576228141785,
        -0.15427348017692566,
        -0.05383744835853577,
        -0.15973690152168274
      ],
      "classes": [
        "shot_attempt",
        "turnover",
        "defensive_event",
        "transition",
        "other"
      ],
      "marginThreshold": 0.06,
      "temperature": 1.0,
      "topK": 3,
      "uncertaintyThreshold": 0.48,
      "weight": [
        [
          0.18420399725437164,
          -0.34159335494041443,
          -0.35298341512680054,
          0.21091192960739136,
          -0.2736679017543793,
          -0.4269675016403198,
          -0.35286450386047363,
          -0.11338640749454498,
          -0.37940922379493713,
          -0.011450250633060932,
          -0.42328575253486633,
          0.5858885645866394,
          -0.5942780375480652,
          -0.37417539954185486,
          0.3874492347240448,
          0.182000994682312,
          0.29335397481918335,
          -0.2089918553829193,
          -0.08808115869760513,
          0.1292775422334671,
          -0.25938141345977783,
          -0.43096816539764404,
          -0.33352550864219666,
          -0.028101293370127678,
          -0.37760457396507263,
          0.012722794897854328,
          -0.43963393568992615,
          0.5060877799987793,
          -0.6557956337928772,
          -0.0657198578119278,
          0.21777869760990143,
          0.19206218421459198,
          0.2315049171447754,
          -0.23120228946208954,
          -0.3891017436981201,
          0.3176319897174835,
          -0.1485346555709839,
          -0.3725432753562927,
          -0.28579339385032654,
          -0.08368006348609924,
          -0.2624022364616394,
          -0.2911745607852936,
          -0.5834947228431702,
          0.5169116854667664,
          -0.5566402077674866,
          -0.5479292869567871,
          0.37615475058555603,
          0.27082040905952454,
          0.0600590743124485,
          -0.24348299205303192,
          -0.4062827229499817,
          0.12746717035770416,
          0.43207499384880066,
          0.07983149588108063,
          -0.52614825963974,
          -0.44547808170318604,
          0.15366439521312714,
          -0.4111751914024353,
          -0.18190543353557587,
          0.030787505209445953,
          -0.2395486682653427,
          -0.43003419041633606,
          0.15362286567687988,
          0.18755532801151276
        ],
        [
          -0.4710586965084076,
          0.1793728917837143,
          0.3560243248939514,
          0.44821465015411377,
          0.46223142743110657,
          0.4546048939228058,
          0.3738875985145569,
          -0.5971598029136658,
          -0.44730716943740845,
          0.22207488119602203,
          0.4911811649799347,
          -0.3499490022659302,
          0.36802056431770325,
          -0.31675276160240173,
          -0.035329945385456085,
          -0.34079062938690186,
          -0.3329664170742035,
          0.16541382670402527,
          0.44747504591941833,
          0.42861923575401306,
          0.3144657015800476,
          0.2913450300693512,
          0.15605981647968292,
          -0.4956001937389374,
          -0.31763842701911926,
          0.17887406051158905,
          0.2605665326118469,
          -0.49482086300849915,
          0.3133646547794342,
          -0.24213436245918274,
          -0.20702776312828064,
          -0.13662956655025482,
          -0.46833693981170654,
          0.006486098747700453,
          0.5066186785697937,
          0.4351809024810791,
          0.4210847020149231,
          0.3508734703063965,
          0.34135282039642334,
          -0.6713016629219055,
          -0.34990155696868896,
          0.010058729909360409,
          0.419180691242218,
          -0.43529558181762695,
          0.2948334217071533,
          -0.5238092541694641,
          -0.1188320443034172,
          -0.25625577569007874,
          0.3992428481578827,
          -0.294808566570282,
          0.41300177574157715,
          -0.2241232842206955,
          -0.37600886821746826,
          0.25220584869384766,
          0.09438692033290863,
          -0.30479538440704346,
          0.19165629148483276,
          -0.3582211136817932,
          0.46274861693382263,
          0.06274072080850601,
          -0.10950950533151627,
          -0.32450607419013977,
          -0.23649609088897705,
          -0.30901584029197693
        ],
        [
          0.13321514427661896,
          -0.4059704542160034,
          -0.10359979420900345,
          0.09099683165550232,
          -0.37367257475852966,
          0.08691954612731934,
          0.3557421565055847,
          -0.2259371280670166,
          0.43435075879096985,
          -0.3606611490249634,
          0.24149245023727417,
          0.22683243453502655,
          0.3093133866786957,
          -0.43451836705207825,
          -0.39058244228363037,
          -0.1927267611026764,
          0.08703427016735077,
          -0.4272059500217438,
          -0.021015066653490067,
          0.0214243046939373,
          -0.5006563067436218,
          0.22381162643432617,
          0.42540010809898376,
          -0.3245503604412079,
          0.4284769594669342,
          -0.359087198972702,
          0.22558099031448364,
          0.1954565793275833,
          0.19583219289779663,
          -0.3559627830982208,
          -0.43098658323287964,
          -0.15522506833076477,
          0.0291712936013937,
          -0.10025904327630997,
          -0.015160481445491314,
          0.060597408562898636,
          -0.519285261631012,
          0.22320710122585297,
          0.4645446240901947,
          -0.2579338848590851,
          0.46587875485420227,
          -0.3943767249584198,
          0.1612529158592224,
          0.12562337517738342,
          0.2787182033061981,
          -0.3589378297328949,
          -0.30470040440559387,
          -0.1981259435415268,
          -0.3824179768562317,
          0.33341407775878906,
          0.05744889751076698,
          -0.5429201722145081,
          -0.4024522304534912,
          0.07063370943069458,
          0.3803751468658447,
          0.374809205532074,
          -0.15933996438980103,
          0.3262140154838562,
          0.021342137828469276,
          0.19751030206680298,
          0.1660444587469101,
          0.26241058111190796,
          0.13905198872089386,
          0.059650249779224396
        ],
        [
          -0.12859399616718292,
          0.33570462465286255,
          -0.32259997725486755,
          0.21502234041690826,
          0.09959995001554489,
          -0.1494763195514679,
          -0.4331064820289612,
          0.15978749096393585,
          0.4171546399593353,
          0.04945559427142143,
          -0.2600204348564148,
          -0.21497906744480133,
          0.5323426127433777,
          0.3729117810726166,
          0.16147156059741974,
          -0.09963531792163849,
          -0.06669700145721436,
          0.2463366985321045,
          -0.4221445322036743,
          0.08901866525411606,
          0.20293134450912476,
          -0.08857768028974533,
          -0.3969903886318207,
          0.2327498197555542,
          0.37494096159935,
          -0.04958741366863251,
          -0.1903192400932312,
          -0.4422053098678589,
          0.6271239519119263,
          0.3495452404022217,
          0.014529407024383545,
          0.045143578201532364,
          -0.164334237575531,
          0.2127855122089386,
          -0.4917190372943878,
          -0.04006973281502724,
          0.1705574244260788,
          -0.05205044895410538,
          -0.3730592727661133,
          0.2841779291629791,
          0.4680600166320801,
          0.11802276223897934,
          -0.3849882483482361,
          -0.32618406414985657,
          0.6292754411697388,
          0.5683538913726807,
          0.009464516304433346,
          -0.04247159883379936,
          0.07686135172843933,
          -0.08705846220254898,
          0.23319967091083527,
          -0.4340503215789795,
          -0.008784575387835503,
          0.02032291702926159,
          0.6590213179588318,
          0.35136833786964417,
          0.0802667886018753,
          0.21243038773536682,
          0.010073898360133171,
          0.2006046026945114,
          0.09445884078741074,
          0.25418829917907715,
          -0.19116687774658203,
          -0.26591384410858154
        ],
        [
          -0.15657788515090942,
          0.5572148561477661,
          0.4557059407234192,
          -0.4623032212257385,
          0.19372834265232086,
          0.1692298948764801,
          0.445382297039032,
          0.4591381251811981,
          -0.35475003719329834,
          0.369033545255661,
          0.13759870827198029,
          -0.3594434857368469,
          0.249156191945076,
          0.30141499638557434,
          -0.20238463580608368,
          -0.08460164070129395,
          -0.12880344688892365,
          0.48950839042663574,
          0.37834852933883667,
          -0.49668338894844055,
          0.1271321177482605,
          0.3135836720466614,
          0.3234143853187561,
          0.539760172367096,
          -0.27254921197891235,
          0.4628463685512543,
          0.34358271956443787,
          -0.3891836702823639,
          0.2568916380405426,
          0.31795111298561096,
          -0.36011582612991333,
          -0.1238304078578949,
          -0.05254986882209778,
          0.41511836647987366,
          0.46897023916244507,
          -0.40026548504829407,
          0.23565082252025604,
          0.3204975426197052,
          0.44220080971717834,
          0.6959208846092224,
          -0.3478183150291443,
          0.4966416358947754,
          0.32597410678863525,
          -0.3950468897819519,
          0.3698062598705292,
          0.46339869499206543,
          -0.17007039487361908,
          -0.11240211874246597,
          -0.05510999634861946,
          0.1926114559173584,
          0.4967142343521118,
          0.4226668179035187,
          -0.14792688190937042,
          -0.07501598447561264,
          0.42303556203842163,
          0.4886336624622345,
          -0.3092474937438965,
          0.4622148871421814,
          -0.15267938375473022,
          -0.291368693113327,
          -0.031158629804849625,
          0.3937477469444275,
          -0.32096025347709656,
          -0.19915607571601868
        ]
      ]
    },
    "outcome": {
      "bias": [
        0.24696741998195648,
        -0.12855549156665802,
        -0.138930082321167,
        0.09058133512735367
      ],
      "classes": [
        "made",
        "missed",
        "blocked",
        "uncertain"
      ],
      "marginThreshold": 0.05,
      "temperature": 1.0,
      "topK": 3,
      "uncertaintyThreshold": 0.46,
      "weight": [
        [
          0.1854408085346222,
          0.14064346253871918,
          -0.4303499162197113,
          0.20821744203567505,
          -0.18432436883449554,
          -0.4219798147678375,
          -0.4118809700012207,
          0.5155763030052185,
          0.18195372819900513,
          0.23705272376537323,
          -0.3910143971443176,
          0.27887120842933655,
          -0.42427578568458557,
          0.5705263018608093,
          0.45405080914497375,
          0.1831645667552948,
          -0.018581226468086243,
          0.26836684346199036,
          -0.3495865762233734,
          0.2948217988014221,
          -0.022824736312031746,
          -0.4539429843425751,
          -0.30755916237831116,
          0.5110148787498474,
          0.28247666358947754,
          0.28164249658584595,
          -0.48385927081108093,
          0.1788506656885147,
          -0.5344256162643433,
          0.48381307721138,
          0.2850242257118225,
          0.35415834188461304,
          0.10720915347337723,
          0.11825449764728546,
          -0.5937116146087646,
          0.3023923635482788,
          -0.054776631295681,
          -0.621993362903595,
          -0.2436477094888687,
          0.35073402523994446,
          0.1523396372795105,
          -0.08898821473121643,
          -0.4066941738128662,
          0.1687067449092865,
          -0.46408456563949585,
          0.4119393229484558,
          0.34899085760116577,
          0.37306973338127136,
          0.1493334025144577,
          -0.2746115028858185,
          -0.4330899119377136,
          0.047630079090595245,
          0.3923068940639496,
          -0.02903512865304947,
          -0.04588483273983002,
          -0.2760821282863617,
          0.21041060984134674,
          -0.22919534146785736,
          0.17477689683437347,
          -0.29672086238861084,
          0.07550841569900513,
          -0.18033261597156525,
          -0.1683317869901657,
          0.037058986723423004
        ],
        [
          0.1715928316116333,
          0.0010434496216475964,
          0.328774094581604,
          -0.21084758639335632,
          0.44257038831710815,
          0.5217004418373108,
          -0.4016454517841339,
          -0.5371530652046204,
          -0.4972805380821228,
          -0.4486534893512726,
          -0.3734118342399597,
          0.3858993947505951,
          -0.3043070435523987,
          -0.23245897889137268,
          -0.11804170906543732,
          -0.2732451260089874,
          0.1676979809999466,
          -0.21186494827270508,
          0.11832769960165024,
          -0.1573798507452011,
          0.41199368238449097,
          0.576103925704956,
          -0.44938981533050537,
          -0.5532091856002808,
          -0.4856206774711609,
          -0.38057026267051697,
          -0.3863890469074249,
          0.4626278877258301,
          -0.28986281156539917,
          -0.13350574672222137,
          -0.09329167753458023,
          -0.34733206033706665,
          0.10093609988689423,
          0.0074334400705993176,
          0.522641658782959,
          -0.2230498343706131,
          0.22817450761795044,
          0.5305991172790527,
          -0.5674493908882141,
          -0.4272816479206085,
          -0.5134273171424866,
          -0.3422042727470398,
          -0.373214989900589,
          0.47666284441947937,
          -0.4010913372039795,
          -0.15100622177124023,
          0.02638324908912182,
          -0.27224406599998474,
          -0.4077092111110687,
          0.16621309518814087,
          0.5857521295547485,
          -0.022605368867516518,
          -0.0573844350874424,
          0.11257567256689072,
          -0.648763120174408,
          -0.4513936936855316,
          -0.02734142728149891,
          -0.11026353389024734,
          -0.1517232060432434,
          0.2277376800775528,
          -0.38573703169822693,
          0.11839421093463898,
          0.031348057091236115,
          -0.029624363407492638
        ],
        [
          0.021089885383844376,
          -0.35739508271217346,
          -0.27306902408599854,
          0.12414900958538055,
          -0.18526935577392578,
          0.1991339474916458,
          0.38971659541130066,
          -0.25511372089385986,
          0.39204806089401245,
          -0.13510602712631226,
          0.07945196330547333,
          0.018026674166321754,
          0.27857550978660583,
          -0.33882102370262146,
          -0.20878374576568604,
          -0.10352931171655655,
          0.005455860402435064,
          -0.43830469250679016,
          -0.26639285683631897,
          -0.07880055159330368,
          -0.46777254343032837,
          0.43973514437675476,
          0.16460344195365906,
          -0.25140997767448425,
          0.34288477897644043,
          -0.07815904915332794,
          0.13319984078407288,
          0.08094745129346848,
          0.20499981939792633,
          -0.2917851507663727,
          -0.3006833791732788,
          -0.09782703965902328,
          0.008636469021439552,
          -0.20009039342403412,
          -0.2385263741016388,
          -0.15057311952114105,
          -0.4891374409198761,
          0.2818760573863983,
          0.19923214614391327,
          -0.1670985072851181,
          0.3749699294567108,
          -0.04672084003686905,
          0.19367732107639313,
          0.060103096067905426,
          0.174545019865036,
          -0.3609691858291626,
          -0.34527263045310974,
          -0.1974419802427292,
          -0.3826417326927185,
          0.36404725909233093,
          0.0971829816699028,
          -0.3915463089942932,
          -0.35733214020729065,
          0.19875122606754303,
          0.23030756413936615,
          0.11561240255832672,
          -0.21703556180000305,
          0.2895529866218567,
          -0.09964807331562042,
          0.14346052706241608,
          -0.06926686316728592,
          0.2947136163711548,
          0.1070607528090477,
          -0.09198509156703949
        ],
        [
          -0.3854295313358307,
          0.4378560185432434,
          0.5081179141998291,
          -0.36557161808013916,
          0.285841703414917,
          0.15760426223278046,
          0.348412424325943,
          0.03271110728383064,
          -0.4000589847564697,
          0.44181567430496216,
          0.3670573830604553,
          -0.5221418738365173,
          0.3608643114566803,
          0.21060027182102203,
          -0.007303495891392231,
          0.006539763882756233,
          -0.23712141811847687,
          0.5791157484054565,
          0.29573872685432434,
          -0.2406441569328308,
          0.356536865234375,
          0.08098728209733963,
          0.5063509941101074,
          0.00860977079719305,
          -0.39525410532951355,
          0.31440097093582153,
          0.23653993010520935,
          -0.4933989644050598,
          0.18740981817245483,
          0.2020343840122223,
          -0.013971789740025997,
          0.20096637308597565,
          -0.16928525269031525,
          0.4797475337982178,
          0.5013757944107056,
          -0.183005228638649,
          0.42940908670425415,
          0.12876082956790924,
          0.30932775139808655,
          0.2524779140949249,
          -0.4575078785419464,
          0.2481672465801239,
          0.46641218662261963,
          -0.3000142276287079,
          0.3525823950767517,
          0.19974437355995178,
          -0.13550423085689545,
          0.13069649040699005,
          0.22782421112060547,
          0.08434412628412247,
          0.3741486370563507,
          0.34278976917266846,
          0.06291495263576508,
          -0.20087803900241852,
          0.2796292006969452,
          0.35573574900627136,
          0.246861070394516,
          0.4426147937774658,
          0.2831481099128723,
          -0.2473324090242386,
          0.1273455172777176,
          -0.020594345405697823,
          -0.3139767348766327,
          -0.18884801864624023
        ]
      ]
    },
    "shotSubtype": {
      "bias": [
        0.24079255759716034,
        0.2917957603931427,
        0.17894990742206573,
        -0.230611652135849,
        0.11969394236803055,
        -0.2858073115348816
      ],
      "classes": [
        "dunk",
        "layup",
        "jumper",
        "three",
        "putback",
        "null"
      ],
      "marginThreshold": 0.05,
      "temperature": 1.0,
      "topK": 3,
      "uncertaintyThreshold": 0.46,
      "weight": [
        [
          -0.18942631781101227,
          0.4938245117664337,
          -0.3484264612197876,
          0.1970205307006836,
          -0.5228549838066101,
          -0.549259603023529,
          0.09802785515785217,
          0.5344998836517334,
          0.4874269366264343,
          0.6209033727645874,
          0.19134515523910522,
          0.5290976762771606,
          -0.2634943723678589,
          0.38883745670318604,
          0.15797270834445953,
          0.11652329564094543,
          -0.05922584980726242,
          0.4166780710220337,
          -0.3379673361778259,
          0.24639230966567993,
          -0.5991806983947754,
          -0.5944381356239319,
          0.17742964625358582,
          0.5672008395195007,
          0.5927423238754272,
          0.4238693118095398,
          0.08127240091562271,
          0.5253767967224121,
          -0.49555855989456177,
          0.1461709886789322,
          0.11719097942113876,
          0.09332016110420227,
          -0.16471198201179504,
          0.21430601179599762,
          -0.22579295933246613,
          0.1049799844622612,
          -0.5945602059364319,
          -0.4921366274356842,
          0.01141070295125246,
          0.6223718523979187,
          0.6634157299995422,
          0.5276756882667542,
          0.08324343711137772,
          0.5370977520942688,
          -0.33879274129867554,
          0.1458844095468521,
          0.2517814040184021,
          0.19370460510253906,
          0.2004234492778778,
          -0.3766379952430725,
          0.21517182886600494,
          -0.3570990264415741,
          -0.32977354526519775,
          -0.042613543570041656,
          -0.11658161133527756,
          0.04200654476881027,
          -0.24093490839004517,
          -0.28872355818748474,
          -0.1489630490541458,
          -0.24806012213230133,
          0.010133840143680573,
          -0.2721518874168396,
          -0.1674938201904297,
          0.050691746175289154
        ],
        [
          0.12905935943126678,
          -0.04998654127120972,
          -0.1474848985671997,
          -0.09923703223466873,
          0.08075755834579468,
          0.3401823043823242,
          -0.4305155575275421,
          -0.3235227167606354,
          -0.17629310488700867,
          -0.3890610337257385,
          -0.5457771420478821,
          0.3593725264072418,
          0.1243101954460144,
          -0.5537187457084656,
          0.25219041109085083,
          0.35663560032844543,
          0.2707064151763916,
          0.12132063508033752,
          -0.08170169591903687,
          -0.007989156059920788,
          0.19123680889606476,
          0.35022851824760437,
          -0.4378921687602997,
          -0.38588517904281616,
          -0.27680498361587524,
          -0.5490144491195679,
          -0.6739636063575745,
          0.483814537525177,
          -0.04699245095252991,
          -0.5575569868087769,
          0.2919113039970398,
          0.3055576682090759,
          0.26066944003105164,
          -0.01733516901731491,
          -0.37038108706474304,
          0.08481951802968979,
          0.3766586482524872,
          0.29856181144714355,
          -0.21622753143310547,
          -0.21490126848220825,
          -0.16946101188659668,
          -0.5969156622886658,
          -0.6041886210441589,
          0.3701964318752289,
          0.14810453355312347,
          -0.4410887062549591,
          0.46297991275787354,
          0.2731638550758362,
          0.3384493589401245,
          -0.3304767608642578,
          -0.26031532883644104,
          0.7760782837867737,
          0.32630082964897156,
          -0.2257279008626938,
          0.3638657331466675,
          -0.13742665946483612,
          0.38712891936302185,
          -0.18743178248405457,
          0.22258028388023376,
          -0.273845911026001,
          0.2662286162376404,
          -0.29081177711486816,
          0.22661030292510986,
          0.15793676674365997
        ],
        [
          0.13104082643985748,
          -0.23557446897029877,
          0.509905993938446,
          0.26960238814353943,
          0.43356946110725403,
          -0.5477908253669739,
          0.18987314403057098,
          -0.28895944356918335,
          -0.4492461085319519,
          -0.5483306646347046,
          0.5940549373626709,
          0.4107588529586792,
          0.2843075692653656,
          -0.46231669187545776,
          -0.045329492539167404,
          0.29036393761634827,
          0.27078038454055786,
          -0.14139674603939056,
          0.6795122027397156,
          0.3027549088001251,
          0.3991846442222595,
          -0.6490328907966614,
          0.31931960582733154,
          -0.2791207432746887,
          -0.4924074411392212,
          -0.453153133392334,
          0.5893856883049011,
          0.4175613224506378,
          0.1835053414106369,
          -0.4112662076950073,
          0.005961392540484667,
          0.3210016191005707,
          0.20381928980350494,
          -0.33672916889190674,
          0.6638809442520142,
          0.21039524674415588,
          0.28032374382019043,
          -0.649041473865509,
          0.31075814366340637,
          -0.16808180510997772,
          -0.49074479937553406,
          -0.36459997296333313,
          0.714794397354126,
          0.3564443588256836,
          0.27340662479400635,
          -0.501525342464447,
          -0.02879279851913452,
          0.15385742485523224,
          0.18568800389766693,
          -0.08386200666427612,
          -0.3646742105484009,
          -0.35181522369384766,
          0.3387075662612915,
          -0.3178667724132538,
          -0.7569394707679749,
          -0.06489471346139908,
          0.18122126162052155,
          -0.17513354122638702,
          -0.3004535734653473,
          -0.1665712147951126,
          0.27047041058540344,
          0.032715123146772385,
          0.6121371984481812,
          0.3392612040042877
        ],
        [
          -0.10999933630228043,
          -0.05299278348684311,
          -0.07488854974508286,
          -0.25024375319480896,
          0.23923909664154053,
          0.16573014855384827,
          0.04573952034115791,
          0.03928874060511589,
          -0.08542072772979736,
          0.16918674111366272,
          0.22839894890785217,
          -0.3492455780506134,
          0.14043425023555756,
          0.12609338760375977,
          -0.21491514146327972,
          -0.22376364469528198,
          -0.273345023393631,
          -0.17001645267009735,
          -0.26177242398262024,
          -0.3172928988933563,
          0.010519338771700859,
          0.24610541760921478,
          0.0031954029109328985,
          -0.16169434785842896,
          0.08312181383371353,
          0.17155052721500397,
          0.2174578756093979,
          -0.1941373497247696,
          0.234122171998024,
          -0.3867851793766022,
          -0.35080716013908386,
          -0.4384396970272064,
          -0.23178519308567047,
          0.10730975866317749,
          -0.16900183260440826,
          -0.3393910229206085,
          0.04529312625527382,
          0.3513789474964142,
          0.21383163332939148,
          -0.19035853445529938,
          -0.10059168189764023,
          0.2056899219751358,
          0.19088442623615265,
          -0.11394821852445602,
          0.16439999639987946,
          0.3496350347995758,
          -0.3166259825229645,
          -0.21582357585430145,
          -0.14132905006408691,
          0.44223693013191223,
          0.20174036920070648,
          -0.27230513095855713,
          -0.2634011209011078,
          0.13515415787696838,
          0.47835662961006165,
          0.14126980304718018,
          -0.35265085101127625,
          0.14537905156612396,
          -0.04579199478030205,
          0.07486872375011444,
          -0.2959042191505432,
          0.4599972367286682,
          -0.24925804138183594,
          -0.3124207556247711
        ],
        [
          0.13754016160964966,
          -0.35432493686676025,
          -0.1650935858488083,
          0.08368697762489319,
          0.524488091468811,
          -0.4216873347759247,
          -0.10667895525693893,
          0.011808798648416996,
          -0.392475426197052,
          0.5943708419799805,
          -0.29139086604118347,
          -0.34608563780784607,
          -0.30388975143432617,
          0.5451738834381104,
          0.3076266348361969,
          0.20814330875873566,
          0.23079724609851837,
          -0.24590112268924713,
          -0.28767096996307373,
          0.18682579696178436,
          0.3969601094722748,
          -0.4943905174732208,
          -0.2514311671257019,
          0.09967371076345444,
          -0.4097398519515991,
          0.4280601441860199,
          -0.3877795934677124,
          -0.22871321439743042,
          -0.3925502300262451,
          0.42587876319885254,
          0.26542747020721436,
          0.22188058495521545,
          0.05898907780647278,
          -0.39355796575546265,
          -0.18094058334827423,
          0.17035360634326935,
          0.4395013153553009,
          -0.29476335644721985,
          -0.017176933586597443,
          0.200389564037323,
          -0.4252162277698517,
          0.4664260745048523,
          -0.37993884086608887,
          -0.5016576647758484,
          -0.22478966414928436,
          0.4556930661201477,
          0.3185672163963318,
          0.19653598964214325,
          0.07054156064987183,
          0.007089576218277216,
          -0.15376052260398865,
          -0.33279022574424744,
          0.3932490944862366,
          -0.1924779862165451,
          -0.22144141793251038,
          -0.14561256766319275,
          0.23021696507930756,
          -0.5084585547447205,
          0.3199593126773834,
          0.03865424171090126,
          0.14675843715667725,
          -0.11318973451852798,
          -0.48732849955558777,
          -0.028994828462600708
        ],
        [
          -0.10912715643644333,
          -0.08238129317760468,
          -0.2404138445854187,
          -0.12194380164146423,
          0.20279817283153534,
          0.27308186888694763,
          0.11774469912052155,
          -0.02802272140979767,
          0.009890721179544926,
          0.1909494549036026,
          0.33277013897895813,
          -0.31212693452835083,
          0.2050914317369461,
          0.21683691442012787,
          -0.23149780929088593,
          -0.32409152388572693,
          -0.2678244113922119,
          -0.14616529643535614,
          -0.29651767015457153,
          -0.3551257848739624,
          0.07481180131435394,
          0.1552167534828186,
          0.12054532766342163,
          -0.07725170254707336,
          0.12014614790678024,
          0.05222897231578827,
          0.028456034138798714,
          -0.23372313380241394,
          0.156945139169693,
          -0.3944172263145447,
          -0.4478455185890198,
          -0.3994942903518677,
          -0.2956576347351074,
          0.19462814927101135,
          0.01916719228029251,
          -0.25075235962867737,
          -0.03427733853459358,
          0.2600972056388855,
          0.16537699103355408,
          0.007722341455519199,
          -0.029754627496004105,
          0.1117873266339302,
          0.08328858762979507,
          -0.2885168194770813,
          0.1603350043296814,
          0.34373360872268677,
          -0.44694948196411133,
          -0.23466089367866516,
          -0.24414844810962677,
          0.18999867141246796,
          0.28266045451164246,
          -0.36840566992759705,
          -0.38408786058425903,
          0.12968887388706207,
          0.5144970417022705,
          0.14167575538158417,
          -0.2008262276649475,
          0.13140520453453064,
          -0.1512138545513153,
          0.20437459647655487,
          -0.2342299520969391,
          0.4115331470966339,
          -0.22721438109874725,
          -0.23937714099884033
        ]
      ]
    }
  },
  "trainedAt": "2026-03-31T17:23:58.064431+00:00"
}