{
  "detectorFamily": "tridet",
  "endHead": {
    "bias": 0.028377261012792587,
    "weight": [
      0.6472184658050537,
      1.8162105083465576,
      -1.4551668167114258,
      0.11027856171131134,
      -2.1793572902679443,
      1.5359368324279785,
      -2.200385570526123,
      -1.4774829149246216,
      0.11417187005281448,
      2.114013195037842,
      0.07181311398744583,
      -0.762992262840271,
      -1.871186375617981,
      0.2705664336681366,
      1.61005437374115,
      1.612619400024414,
      -1.2265373468399048,
      -0.16614675521850586
    ]
  },
  "eventMarginThreshold": 0.03,
  "eventScoreThreshold": 0.24,
  "eventness": {
    "bias": -0.08330640196800232,
    "weight": [
      0.7331685423851013,
      1.338796615600586,
      -1.012171983718872,
      -0.17436231672763824,
      -0.3832414448261261,
      0.8966864347457886,
      -0.3273191452026367,
      -1.130002498626709,
      -0.07932540774345398,
      0.2620158791542053,
      0.00013040628982707858,
      -0.9098783135414124,
      0.23145020008087158,
      0.09263712912797928,
      -0.0642826184630394,
      1.0118465423583984,
      -0.16752904653549194,
      -0.24522213637828827
    ]
  },
  "eventnessTemperature": 1.2,
  "featureSchemaVersion": "temporal-event-detector-feature-v2",
  "frameFamily": {
    "bias": [
      0.07660094648599625,
      -0.12769649922847748,
      -0.1778632253408432,
      -0.3847951889038086,
      0.29281681776046753
    ],
    "weight": [
      [
        1.5954028367996216,
        1.1543241739273071,
        0.8594357967376709,
        0.1447400450706482,
        -0.6612956523895264,
        1.7997866868972778,
        0.4836488664150238,
        -1.6592094898223877,
        0.11142722517251968,
        0.03019034117460251,
        0.05356264486908913,
        -1.408124566078186,
        -0.6548755168914795,
        0.1389697641134262,
        -0.03352475166320801,
        0.8802628517150879,
        -0.5070182681083679,
        0.0009496171260252595
      ],
      [
        1.3984204530715942,
        0.7962541580200195,
        -1.2366794347763062,
        -0.33711159229278564,
        0.724911093711853,
        -1.4936413764953613,
        -1.318879246711731,
        -0.7502471804618835,
        -0.30596399307250977,
        0.5830698609352112,
        -0.27944543957710266,
        0.6200243234634399,
        -0.3547455966472626,
        -0.11402007192373276,
        0.23468254506587982,
        1.4079856872558594,
        0.19734512269496918,
        0.3213196396827698
      ],
      [
        0.8824893236160278,
        1.0608272552490234,
        0.004551099147647619,
        0.10947822034358978,
        -0.10448212921619415,
        0.49617353081703186,
        -0.6412768959999084,
        -0.674284815788269,
        -0.058816105127334595,
        -0.0400921106338501,
        0.03078913316130638,
        0.4944431483745575,
        1.1911753416061401,
        0.17700007557868958,
        0.01549717877060175,
        1.119583249092102,
        -0.06692850589752197,
        -0.043056320399045944
      ],
      [
        -1.4965790510177612,
        1.8521850109100342,
        -1.6868685483932495,
        -0.10219457000494003,
        -0.009635896421968937,
        -1.6506575345993042,
        -0.3355390131473541,
        -0.08930245041847229,
        -0.3052285611629486,
        -0.17669714987277985,
        -0.37280189990997314,
        -2.1240601539611816,
        0.23361709713935852,
        -0.07982851564884186,
        0.23555120825767517,
        1.0137429237365723,
        0.2833269536495209,
        0.34337863326072693
      ],
      [
        -0.9801652431488037,
        -1.542770266532898,
        1.1635323762893677,
        0.28294557332992554,
        0.24964593350887299,
        -1.1137361526489258,
        0.3101741671562195,
        1.270937442779541,
        0.24039329588413239,
        -0.046939507126808167,
        0.10377547144889832,
        1.1632421016693115,
        -0.263081431388855,
        0.14733535051345825,
        -0.18416808545589447,
        -1.5607293844223022,
        -0.20498177409172058,
        -0.1510400027036667
      ]
    ]
  },
  "hiddenSize": 18,
  "inputFeatureNames": [
    "ball_above_rim",
    "ball_arc_apex",
    "ball_carrier_speed",
    "ball_detection_confidence",
    "ball_near_rim",
    "ball_near_rim_offset_from_center",
    "ball_near_rim_time_seconds",
    "ball_through_hoop_likelihood",
    "ball_through_hoop_offset_from_center",
    "ball_through_hoop_time_seconds",
    "ball_track_count",
    "ball_visible",
    "basketball_confidence",
    "clip_duration_seconds",
    "defender_proximity_at_shot",
    "detection_density",
    "event_center_seconds",
    "event_center_seconds_norm",
    "event_duration_seconds",
    "event_duration_seconds_norm",
    "event_end_seconds",
    "event_localization_complete",
    "event_localization_present",
    "event_start_seconds",
    "hoop_detection_confidence",
    "hoop_visible",
    "human_verified",
    "player_to_rim_distance",
    "player_track_count",
    "possession_change_likelihood",
    "possession_change_offset_from_center",
    "possession_change_time_seconds",
    "post_roll_seconds",
    "pre_roll_seconds",
    "rim_confidence",
    "rim_track_count",
    "runtime_top_count",
    "runtime_video_mae=block",
    "runtime_video_mae=dunk",
    "runtime_video_mae=fast_break",
    "runtime_video_mae=highlight",
    "runtime_video_mae=layup",
    "runtime_video_mae=made_shot",
    "runtime_video_mae=miss",
    "runtime_video_mae=steal",
    "runtime_video_mae=three",
    "runtime_video_mae=three_pointer",
    "runtime_xclip=block",
    "runtime_xclip=dunk",
    "runtime_xclip=fast_break",
    "runtime_xclip=highlight",
    "runtime_xclip=layup",
    "runtime_xclip=made_shot",
    "runtime_xclip=miss",
    "runtime_xclip=steal",
    "runtime_xclip=three",
    "runtime_xclip=three_pointer",
    "same_play_continuity_score",
    "shot_release_candidate",
    "shot_release_offset_from_center",
    "shot_release_time_seconds",
    "source_domain=benchmark_eval",
    "source_domain=broadcast",
    "source_domain=fixed_camera",
    "source_domain=fixed_camera_indoor",
    "source_domain=fixed_camera_outdoor",
    "source_domain=hard_negative",
    "source_domain=live_runtime",
    "source_domain=live_shadow",
    "source_domain=live_staging",
    "source_domain=manual_negative",
    "source_domain=phone_casual",
    "source_domain=staging_smoke",
    "source_domain=structured_eval",
    "source_domain=teacher_pseudo",
    "source_event_count",
    "source_kind=disagreement",
    "source_kind=gold",
    "source_kind=runtime",
    "source_kind=silver",
    "source_ref_present",
    "source_set=disagreement_queue",
    "source_set=gold_set",
    "source_set=phase4_event_localization_queue",
    "source_set=phase4_in_domain",
    "source_set=phase4_pseudo_labels",
    "source_set=runtime_inference",
    "source_set=silver_set",
    "timestamp_seconds",
    "tracked_ball_confidence",
    "tracked_player_count",
    "tracking_continuity",
    "tracking_density",
    "transition_likelihood",
    "transition_speed_score",
    "transition_start_offset_from_center",
    "transition_start_time_seconds",
    "was_merged"
  ],
  "modelVersion": "temporal-event-detector-tridet-hybrid-v1",
  "notes": [
    "tridet temporal detector over structured basketball signals, perception features, and clip-runtime cues.",
    "TriDet is used as a proposal stage only; it does not emit final flat labels directly.",
    "A proposal rejector and gated hierarchy prevent confident dunk/made collapse on weak or non-event proposals."
  ],
  "projection": {
    "bias": [
      -0.0011189169017598033,
      0.04136421158909798,
      -0.0608774796128273,
      0.17599976062774658,
      -0.12214361131191254,
      -0.05094175413250923,
      -0.13585874438285828,
      -0.08267053216695786,
      0.25450268387794495,
      0.12857413291931152,
      0.2521343231201172,
      0.07614629715681076,
      -0.0650462657213211,
      0.14717811346054077,
      -0.17243720591068268,
      -0.19397637248039246,
      -0.2252950817346573,
      -0.19942191243171692
    ],
    "weight": [
      [
        -0.07090428471565247,
        -0.0027166774962097406,
        0.09811843931674957,
        -0.6008884310722351,
        1.4656004905700684,
        0.039112936705350876,
        0.01678568124771118,
        0.6244775652885437,
        0.014570971950888634,
        0.08583052456378937,
        0.16481393575668335,
        0.26847973465919495,
        0.16532905399799347,
        0.038672056049108505,
        0.053968582302331924,
        0.000490119680762291,
        -0.03420620411634445,
        0.09862767159938812,
        0.061324723064899445,
        0.05359803885221481,
        0.07493377476930618,
        0.045063916593790054,
        0.11407028883695602,
        0.01657128520309925,
        -0.104879230260849,
        -0.262454092502594,
        -0.04499194025993347,
        0.0015681295190006495,
        -0.0019476953893899918,
        1.757534146308899,
        0.07626810669898987,
        -0.06816065311431885,
        -0.005658962298184633,
        0.013406532816588879,
        -0.09573283791542053,
        -0.2590719163417816,
        0.013398290611803532,
        -0.06173668056726456,
        -0.015040861442685127,
        -0.13835076987743378,
        -0.6675169467926025,
        0.12306995689868927,
        -0.004345508757978678,
        0.6645684838294983,
        -0.05578649789094925,
        -0.04760172963142395,
        0.022727038711309433,
        -0.055275339633226395,
        0.01722801849246025,
        -0.18949054181575775,
        -0.6284783482551575,
        0.09675218164920807,
        -0.00851774588227272,
        0.6975182890892029,
        -0.0034125098027288914,
        -0.025114869698882103,
        -0.050010353326797485,
        0.0054865083657205105,
        0.06628711521625519,
        -0.0008818565984256566,
        0.06650429219007492,
        1.437958002090454,
        -0.7160201072692871,
        -0.04586958512663841,
        -0.26016685366630554,
        -0.1628047525882721,
        -1.1179211139678955,
        0.037932779639959335,
        -0.38320037722587585,
        0.7250361442565918,
        -0.8119552135467529,
        -0.9978453516960144,
        0.18828216195106506,
        0.552023708820343,
        0.008452309295535088,
        -0.014376029372215271,
        0.2758944034576416,
        -0.06126110255718231,
        0.07829738408327103,
        -0.12868395447731018,
        -0.10516784340143204,
        0.3782848119735718,
        0.1248183324933052,
        -0.1294090300798416,
        -0.9656050801277161,
        -1.0669879913330078,
        0.05215093120932579,
        0.2576098144054413,
        -0.4264431893825531,
        -0.526638388633728,
        0.007209139410406351,
        0.0011237794533371925,
        -0.04729792848229408,
        -0.7207745909690857,
        -0.0020590820349752903,
        0.09975031763315201,
        0.08304952085018158,
        -0.054943595081567764
      ],
      [
        0.06577880680561066,
        0.06571055948734283,
        0.04054884612560272,
        0.33291447162628174,
        0.47628337144851685,
        -0.012141423299908638,
        -0.05712845176458359,
        0.8298906087875366,
        0.03589630126953125,
        -0.07132206857204437,
        0.12569710612297058,
        0.07754305750131607,
        0.02386285737156868,
        -0.051458440721035004,
        -0.03886186331510544,
        0.09016994386911392,
        -0.08753281831741333,
        0.05955367535352707,
        0.05812709033489227,
        0.09893789887428284,
        -0.0003931578539777547,
        -0.0033063599839806557,
        -0.12498237192630768,
        0.039098259061574936,
        0.08198462426662445,
        0.007274135947227478,
        -0.1793728917837143,
        -0.34307268261909485,
        0.013443277217447758,
        0.4356188476085663,
        -0.00381873338483274,
        0.018961891531944275,
        0.0032633861992508173,
        0.04846709221601486,
        -0.0703890472650528,
        0.03677963837981224,
        -0.1343730092048645,
        -0.04254007712006569,
        -0.018787968903779984,
        0.10659653693437576,
        -0.8116958141326904,
        -0.6264061331748962,
        -0.005686766002327204,
        0.32648056745529175,
        0.09953446686267853,
        -0.03198379650712013,
        -0.06923040002584457,
        -0.03190093860030174,
        0.01964210532605648,
        0.15368860960006714,
        -0.7163149118423462,
        -0.5843298435211182,
        0.02253917045891285,
        0.3480567932128906,
        -0.06983879953622818,
        -0.07482579350471497,
        -0.060506027191877365,
        -0.0416157990694046,
        0.09129778295755386,
        0.04546740651130676,
        -0.006007816642522812,
        1.2386304140090942,
        -0.04394713416695595,
        0.032186850905418396,
        -0.7650460004806519,
        0.23378810286521912,
        -1.0594542026519775,
        0.00811325665563345,
        1.0352809429168701,
        -0.260424941778183,
        -0.9366815686225891,
        0.348975270986557,
        0.39105647802352905,
        0.21935322880744934,
        -0.05427831411361694,
        -0.02971632592380047,
        0.02679978497326374,
        -0.13218539953231812,
        0.09263629466295242,
        -0.15719731152057648,
        -0.2553941309452057,
        0.052885107696056366,
        -0.07588700950145721,
        0.19265657663345337,
        0.03354979306459427,
        0.3975604474544525,
        -0.017651569098234177,
        -0.24358414113521576,
        0.07563766092061996,
        0.20837411284446716,
        -0.034011416137218475,
        -0.009582086466252804,
        -0.07726539671421051,
        1.646303653717041,
        -0.06857858598232269,
        -0.010895153507590294,
        -0.003605036763474345,
        0.01580081693828106
      ],
      [
        0.0253025833517313,
        -0.05179409310221672,
        -0.031721487641334534,
        -0.15662667155265808,
        -0.14231231808662415,
        -0.011511122807860374,
        0.06239991635084152,
        0.9601163268089294,
        -0.03954501450061798,
        0.06268011778593063,
        -0.17654255032539368,
        -0.16107675433158875,
        -0.21082055568695068,
        0.07757167518138885,
        -0.019771821796894073,
        0.0574038028717041,
        -0.07280025631189346,
        0.10936237126588821,
        0.08846324682235718,
        -0.07748162001371384,
        0.09911779314279556,
        0.051746658980846405,
        0.034355636686086655,
        0.05710457265377045,
        0.09834516793489456,
        0.1985001266002655,
        -0.09972705692052841,
        0.19327419996261597,
        0.10721693933010101,
        -1.8159149885177612,
        -0.07728587090969086,
        0.021022185683250427,
        0.020290039479732513,
        0.06242700293660164,
        0.1046278178691864,
        0.2079768180847168,
        0.07473275810480118,
        0.007037488278001547,
        -0.051084280014038086,
        -0.356955885887146,
        0.446985125541687,
        0.49481669068336487,
        -0.05506632849574089,
        0.6377593874931335,
        0.0739394947886467,
        0.5848973989486694,
        -0.07126384228467941,
        -0.0027574996929615736,
        -0.03610624372959137,
        -0.5006185173988342,
        0.4616906940937042,
        0.49308454990386963,
        -0.028472857549786568,
        0.6476155519485474,
        -0.08629070967435837,
        0.5157247185707092,
        0.026146061718463898,
        0.08113830536603928,
        0.09368248283863068,
        -0.09751368314027786,
        0.024416018277406693,
        0.06685170531272888,
        0.6622658371925354,
        -0.006975556258112192,
        0.058436863124370575,
        0.7621567249298096,
        0.7377380728721619,
        0.08021237701177597,
        -0.6876146197319031,
        -0.011427689343690872,
        0.8666754364967346,
        -0.40352436900138855,
        0.7263171076774597,
        -0.3635703921318054,
        -0.04002948850393295,
        -0.05736391618847847,
        0.0418514758348465,
        -0.00010304641909897327,
        -0.09766123443841934,
        0.1339963972568512,
        0.009286428801715374,
        0.14356249570846558,
        -0.1518765091896057,
        -0.23263072967529297,
        0.49179619550704956,
        0.281724750995636,
        0.02627345360815525,
        0.12666434049606323,
        0.08542373031377792,
        -0.04227906093001366,
        -0.0067824614234268665,
        0.03905363008379936,
        0.0037392443045973778,
        -1.405635952949524,
        -0.31453603506088257,
        -0.09210638701915741,
        -0.019974499940872192,
        0.06311655789613724
      ],
      [
        0.08890066295862198,
        0.049359280616045,
        -0.08093736320734024,
        0.14098615944385529,
        0.2518310248851776,
        0.026087598875164986,
        0.050692882388830185,
        0.10753077268600464,
        -0.044788241386413574,
        -0.06946678459644318,
        0.1646818369626999,
        0.20821237564086914,
        0.19472888112068176,
        0.10407906025648117,
        0.06169643625617027,
        -0.09102485328912735,
        0.15507203340530396,
        0.11810553073883057,
        0.08079139143228531,
        0.0031440947204828262,
        0.010265117511153221,
        0.031354255974292755,
        0.17987753450870514,
        0.008301881141960621,
        0.19485391676425934,
        0.1441373974084854,
        0.07056676596403122,
        0.09250406175851822,
        0.19709473848342896,
        0.01952318288385868,
        -0.059643931686878204,
        0.01701173186302185,
        0.14325006306171417,
        0.1372012048959732,
        0.22458235919475555,
        0.1477077752351761,
        0.21122857928276062,
        0.0447273924946785,
        -0.018714187666773796,
        0.03714771196246147,
        0.1282864511013031,
        0.20152947306632996,
        -0.013394761830568314,
        0.09289411455392838,
        -0.026512451469898224,
        0.23124542832374573,
        -0.08232764154672623,
        0.008798696100711823,
        0.023038804531097412,
        0.09559150785207748,
        0.10844042897224426,
        0.2300533801317215,
        -0.0987003967165947,
        0.0995037779211998,
        -0.0042192367836833,
        0.1939949244260788,
        0.03539742901921272,
        -0.05620064213871956,
        -0.03869887441396713,
        -0.004442169331014156,
        -0.05423987656831741,
        0.22755278646945953,
        0.16520152986049652,
        -0.03978069871664047,
        0.2406807839870453,
        0.1399817168712616,
        0.09762874990701675,
        -0.011268910951912403,
        0.21568264067173004,
        0.12890253961086273,
        0.218098983168602,
        0.12149002403020859,
        0.13170383870601654,
        0.17324790358543396,
        -0.0006336477817967534,
        0.22618170082569122,
        0.23804733157157898,
        0.20116597414016724,
        -0.0946933925151825,
        0.07606648653745651,
        0.07350607961416245,
        0.2246856689453125,
        0.15211397409439087,
        0.22633112967014313,
        0.130819171667099,
        0.14800553023815155,
        0.04490703344345093,
        0.09850721061229706,
        0.16523094475269318,
        0.09798669070005417,
        0.13855651021003723,
        0.030837681144475937,
        0.019281713292002678,
        0.10082933306694031,
        0.1343713402748108,
        0.08575697243213654,
        -0.0829230323433876,
        0.09255728870630264
      ],
      [
        -0.09791475534439087,
        0.02738030254840851,
        -0.006219080649316311,
        -0.17023907601833344,
        -0.244206964969635,
        0.08193986862897873,
        -0.06041644886136055,
        -0.1668531894683838,
        0.05138133093714714,
        -0.10061737895011902,
        -0.23899735510349274,
        -0.13936945796012878,
        -0.23904640972614288,
        -0.19941885769367218,
        -0.0027691321447491646,
        0.03873781859874725,
        -0.16152913868427277,
        -0.22673320770263672,
        0.0021065357141196728,
        -0.05196049064397812,
        -0.08530887216329575,
        0.028596745803952217,
        -0.08283188194036484,
        0.08433401584625244,
        -0.16176505386829376,
        -0.13865350186824799,
        -0.24788270890712738,
        -0.13897354900836945,
        -0.2734076976776123,
        0.1547250896692276,
        0.06071736291050911,
        0.06764918565750122,
        -0.2572486400604248,
        -0.09908032417297363,
        -0.10469020158052444,
        -0.2097392976284027,
        -0.11099017411470413,
        0.04008744657039642,
        -0.07551290839910507,
        0.11128728091716766,
        -0.024707576259970665,
        -0.21850022673606873,
        0.03333524242043495,
        -0.2289782464504242,
        0.023259906098246574,
        -0.22159428894519806,
        -0.07045197486877441,
        -0.029705990105867386,
        0.01266171969473362,
        0.22075238823890686,
        -0.04726823791861534,
        -0.1943816840648651,
        0.09654206782579422,
        -0.08114267885684967,
        -0.0031436129938811064,
        -0.22502081096172333,
        -0.030321214348077774,
        0.05405552685260773,
        -0.08727271109819412,
        -0.0053229061886668205,
        0.06665115058422089,
        -0.2452513873577118,
        -0.2462492436170578,
        -0.06107403337955475,
        -0.1793701946735382,
        -0.06781216710805893,
        -0.08577334880828857,
        -0.062238357961177826,
        -0.026174766942858696,
        -0.13412338495254517,
        0.011081253178417683,
        0.22678092122077942,
        -0.16321687400341034,
        -0.14921687543392181,
        -0.08020803332328796,
        -0.1747024953365326,
        -0.2604063153266907,
        -0.2009950876235962,
        -0.039338722825050354,
        -0.16542404890060425,
        -0.2568334639072418,
        -0.13220073282718658,
        -0.0978778600692749,
        -0.24500709772109985,
        -0.2338123470544815,
        0.20581257343292236,
        -0.08041452616453171,
        -0.20238937437534332,
        -0.2609623968601227,
        -0.05699973180890083,
        -0.0776381865143776,
        -0.032999780029058456,
        0.07338950037956238,
        0.16062040627002716,
        0.16637186706066132,
        -0.08457536995410919,
        0.06728009879589081,
        0.03994777053594589
      ],
      [
        -0.08197128772735596,
        0.03078310750424862,
        0.020893817767500877,
        0.484811395406723,
        0.6160956025123596,
        -0.09023237973451614,
        0.042330849915742874,
        0.9577126502990723,
        0.025476794689893723,
        0.02692515216767788,
        0.12081844359636307,
        -0.003337797475978732,
        0.01980913244187832,
        -0.1726958155632019,
        -0.08005986362695694,
        0.008777213282883167,
        -0.03353012353181839,
        0.017291391268372536,
        0.04095032438635826,
        -0.008444109000265598,
        0.06952454149723053,
        -0.08201037347316742,
        -0.06698240339756012,
        -0.015947584062814713,
        0.08411218225955963,
        0.09202825278043747,
        -0.09036248177289963,
        0.1020662784576416,
        -0.06314411014318466,
        -1.241972804069519,
        0.07229305803775787,
        0.015204222872853279,
        -0.10317379236221313,
        -0.07896081358194351,
        0.052218496799468994,
        0.04841494560241699,
        -0.016855131834745407,
        -0.0799679160118103,
        -0.07535291463136673,
        -0.6563766598701477,
        -0.7113519310951233,
        0.3554154634475708,
        0.041264090687036514,
        0.45878151059150696,
        -0.0498034842312336,
        0.20116275548934937,
        0.03181726858019829,
        -0.07610780745744705,
        0.08680844306945801,
        -0.47443854808807373,
        -0.7399730086326599,
        0.20933425426483154,
        0.014506210573017597,
        0.49236103892326355,
        -0.022432178258895874,
        0.1963038593530655,
        0.0005737630999647081,
        -0.06959483027458191,
        0.01003347896039486,
        0.08559340983629227,
        0.09478898346424103,
        0.62795090675354,
        0.24777694046497345,
        -0.0049753873609006405,
        -0.5496401190757751,
        -0.25730249285697937,
        -1.0160521268844604,
        -0.04424949362874031,
        -0.5921444296836853,
        0.2207619696855545,
        -0.8490508198738098,
        -0.7261101007461548,
        0.48902302980422974,
        0.1289360374212265,
        -0.014938902109861374,
        0.01270185224711895,
        0.1092429831624031,
        -0.13539327681064606,
        0.01570335030555725,
        -0.16983503103256226,
        -0.17707885801792145,
        -0.18896052241325378,
        -0.1217157170176506,
        0.3579895794391632,
        0.28229525685310364,
        -0.9041659832000732,
        -0.008208303712308407,
        -0.03130173683166504,
        0.599774956703186,
        0.36166954040527344,
        -0.1377566158771515,
        0.0334739051759243,
        0.07236552238464355,
        -1.4050889015197754,
        -0.46439963579177856,
        -0.03636261448264122,
        0.034268446266651154,
        -0.08198022097349167
      ],
      [
        -0.06829909980297089,
        -0.06152701750397682,
        -0.08567667752504349,
        -0.4142042100429535,
        0.5552064180374146,
        0.027498411014676094,
        0.03923344239592552,
        1.148802399635315,
        -0.07585417479276657,
        0.02376452460885048,
        0.10754804313182831,
        0.007676181849092245,
        -0.024645712226629257,
        0.058779455721378326,
        -0.04510151222348213,
        0.05063524842262268,
        0.0277392715215683,
        -0.06441158056259155,
        -0.07182332128286362,
        -0.020765306428074837,
        0.030972419306635857,
        0.06956452876329422,
        -0.0632430762052536,
        -0.03053523600101471,
        0.1918981671333313,
        0.1664363592863083,
        -0.029788542538881302,
        -0.118604376912117,
        -0.0460541732609272,
        -0.9302664399147034,
        -0.05244387686252594,
        0.015690825879573822,
        0.010891172103583813,
        -0.074187271296978,
        0.18852339684963226,
        0.02190019004046917,
        -0.0042192223481833935,
        -0.09773276001214981,
        0.05746058002114296,
        -0.31490227580070496,
        0.16263869404792786,
        -0.3460342586040497,
        0.03653474152088165,
        0.17482265830039978,
        -0.06420612335205078,
        -0.12004457414150238,
        0.020943347364664078,
        0.03144603967666626,
        0.036243412643671036,
        -0.1810823678970337,
        0.19835592806339264,
        -0.21598510444164276,
        0.05232047289609909,
        0.2687563896179199,
        -0.0963059812784195,
        -0.133415088057518,
        -0.03498130664229393,
        -0.020693548023700714,
        0.059233348816633224,
        -0.08559960871934891,
        0.05107685178518295,
        -0.16977287828922272,
        -0.3204546570777893,
        -0.07289069890975952,
        0.233444944024086,
        0.12285364419221878,
        0.03215506672859192,
        -0.0609370581805706,
        0.4827098548412323,
        0.04770316183567047,
        0.31523510813713074,
        0.3534965515136719,
        0.7992023825645447,
        -0.5929355621337891,
        -0.06774507462978363,
        -0.07747100293636322,
        -0.11930499225854874,
        -0.08989688754081726,
        -0.07467097043991089,
        0.12926092743873596,
        0.028892600908875465,
        -0.1462153047323227,
        -0.1218717023730278,
        0.22695980966091156,
        0.21948182582855225,
        -0.46351274847984314,
        0.07149651646614075,
        0.26982948184013367,
        -0.14203494787216187,
        -0.4445725977420807,
        -0.018568463623523712,
        -0.0704008936882019,
        0.06727784872055054,
        0.5729092955589294,
        -0.24072368443012238,
        0.07794954627752304,
        -0.07062768936157227,
        -0.0753549262881279
      ],
      [
        -0.0923062190413475,
        0.00687522254884243,
        0.05426041781902313,
        -0.14282800257205963,
        -0.1847974807024002,
        0.016683662310242653,
        -0.06730622798204422,
        -0.11786387860774994,
        -0.0673413947224617,
        0.0805848017334938,
        -0.11904802173376083,
        -0.18876756727695465,
        -0.0789598599076271,
        -0.18783244490623474,
        0.037428099662065506,
        -0.0630892813205719,
        -0.20125895738601685,
        -0.12105978280305862,
        -0.08826447278261185,
        0.04287216067314148,
        0.08801489323377609,
        -0.04704775661230087,
        -0.26389387249946594,
        0.0010473130969330668,
        -0.2228783667087555,
        -0.25991228222846985,
        -0.1596629023551941,
        -0.11989295482635498,
        -0.14332067966461182,
        0.10780710726976395,
        -0.012426842004060745,
        0.02714385837316513,
        -0.24889390170574188,
        -0.2668740451335907,
        -0.1432812362909317,
        -0.09374100714921951,
        -0.0909157395362854,
        0.0672561377286911,
        -0.026401448994874954,
        0.15170106291770935,
        0.0811460018157959,
        -0.15795913338661194,
        0.05947494879364967,
        -0.161268413066864,
        -0.04035244137048721,
        -0.03845701739192009,
        -0.04871371388435364,
        0.032576803117990494,
        0.03296462818980217,
        0.22523730993270874,
        0.11075913161039352,
        -0.1901831179857254,
        0.09669394791126251,
        -0.18054020404815674,
        0.05038397014141083,
        0.021818187087774277,
        -0.036245230585336685,
        0.06457022577524185,
        -0.01971081644296646,
        0.037721067667007446,
        -0.054013390094041824,
        -0.1540706604719162,
        0.023893719539046288,
        -0.053644292056560516,
        -0.21142250299453735,
        -0.09192121028900146,
        -0.02583911456167698,
        -0.01357262209057808,
        0.17602673172950745,
        -0.09935244917869568,
        0.025968139991164207,
        0.22557027637958527,
        -0.16560563445091248,
        -0.21293282508850098,
        0.07066028565168381,
        -0.09692944586277008,
        -0.2086205780506134,
        -0.24781553447246552,
        -0.05697200447320938,
        -0.19082701206207275,
        -0.11196619272232056,
        -0.1736239194869995,
        -0.20027382671833038,
        -0.11204171180725098,
        -0.24558663368225098,
        0.20844776928424835,
        -0.00388076133094728,
        -0.20468299090862274,
        -0.2619393765926361,
        -0.09635034948587418,
        -0.2736413776874542,
        -0.05809339880943298,
        0.02686159498989582,
        0.06322897225618362,
        0.1436188817024231,
        -0.09683704376220703,
        0.030320273712277412,
        0.0473349466919899
      ],
      [
        0.08728606253862381,
        0.04487387090921402,
        -0.09682789444923401,
        0.054092925041913986,
        0.082256980240345,
        0.009418749250471592,
        -0.050861794501543045,
        0.048343487083911896,
        0.07711552083492279,
        -0.06538476794958115,
        0.13610844314098358,
        0.1670362651348114,
        0.16388362646102905,
        0.2459309697151184,
        -0.010794843547046185,
        0.07017922401428223,
        0.14626704156398773,
        0.16727066040039062,
        0.06460438668727875,
        -0.0682956799864769,
        -0.09840027242898941,
        -0.016674811020493507,
        0.07377532124519348,
        -0.014465930871665478,
        0.061785899102687836,
        0.15280814468860626,
        0.2307562232017517,
        0.08523114025592804,
        0.10110144317150116,
        0.05654327571392059,
        -0.05913661792874336,
        0.018146686255931854,
        0.2198028564453125,
        0.07784420996904373,
        0.06120401248335838,
        0.06799136847257614,
        0.218594491481781,
        0.026150457561016083,
        0.029606765136122704,
        -0.12644648551940918,
        0.23674435913562775,
        0.18335571885108948,
        -0.04961537942290306,
        0.020550241693854332,
        -0.003074167063459754,
        0.20217610895633698,
        -0.014690693467855453,
        0.0770057961344719,
        0.017205366864800453,
        -0.27951884269714355,
        0.219756618142128,
        0.14364397525787354,
        -0.005178234074264765,
        0.12716370820999146,
        0.09962988644838333,
        0.20636674761772156,
        0.0419512502849102,
        -0.05866512656211853,
        0.033366601914167404,
        0.022796785458922386,
        0.07997441291809082,
        0.014567063190042973,
        0.1325995773077011,
        -0.055411774665117264,
        0.10740179568529129,
        0.2303939312696457,
        0.22219134867191315,
        0.002852835925295949,
        0.1499941200017929,
        0.2119506597518921,
        0.13521341979503632,
        0.18529342114925385,
        0.07602181285619736,
        0.19210177659988403,
        -0.009185219183564186,
        0.22063110768795013,
        0.19151583313941956,
        0.12554292380809784,
        0.05024892836809158,
        0.08400458097457886,
        0.18248263001441956,
        0.05253598093986511,
        0.06273775547742844,
        0.1940239667892456,
        0.1676553636789322,
        0.227633997797966,
        -0.021519843488931656,
        0.08298683166503906,
        0.09340721368789673,
        0.14665259420871735,
        0.19333600997924805,
        -0.015241372399032116,
        0.009066762402653694,
        0.19448579847812653,
        -0.2095181792974472,
        -0.005937166512012482,
        0.03561362996697426,
        -0.025806225836277008
      ],
      [
        0.025157539173960686,
        0.08981070667505264,
        0.09132940322160721,
        0.08842308819293976,
        0.20483267307281494,
        0.011160220950841904,
        -0.010103345848619938,
        0.18021629750728607,
        0.010172105394303799,
        0.017136679962277412,
        0.14567118883132935,
        0.23761844635009766,
        0.1049707755446434,
        0.21081100404262543,
        0.044653236865997314,
        0.07635136693716049,
        0.14541040360927582,
        0.08709339052438736,
        -0.018625836819410324,
        -0.09238415956497192,
        0.011144759133458138,
        -0.09840436279773712,
        0.21324950456619263,
        0.020935483276844025,
        0.11289423704147339,
        0.09117474406957626,
        0.23399482667446136,
        0.24278125166893005,
        0.16931815445423126,
        0.10495194047689438,
        -0.07448164373636246,
        0.08983808010816574,
        0.20537851750850677,
        0.10730092227458954,
        0.24210160970687866,
        0.19444304704666138,
        0.23755651712417603,
        -0.02308209426701069,
        -0.02248983457684517,
        -0.023865288123488426,
        0.0967223197221756,
        0.06977950781583786,
        -0.010871839709579945,
        0.24474698305130005,
        0.028028424829244614,
        0.14510507881641388,
        -0.08162545412778854,
        -0.08413993567228317,
        0.047855447977781296,
        -0.16194075345993042,
        0.16364815831184387,
        0.04551590979099274,
        0.03381899371743202,
        0.21204805374145508,
        0.0034159538336098194,
        0.2650115489959717,
        0.04882729426026344,
        0.0028037528973072767,
        -0.07663409411907196,
        -0.011720159091055393,
        -0.06246152147650719,
        0.053716447204351425,
        0.14593955874443054,
        0.014984180219471455,
        0.0957249104976654,
        0.25874900817871094,
        0.12443102151155472,
        -0.07888760417699814,
        0.1560349464416504,
        0.07305536419153214,
        0.2032688707113266,
        0.19692684710025787,
        -0.1065683513879776,
        0.19227901101112366,
        0.01050636637955904,
        0.07265907526016235,
        0.12240298092365265,
        0.26446250081062317,
        -0.0952489897608757,
        0.08278099447488785,
        0.2581821084022522,
        0.2764206528663635,
        0.18909603357315063,
        0.11632470041513443,
        0.03997467830777168,
        0.20165596902370453,
        0.060945019125938416,
        0.13978686928749084,
        0.13183075189590454,
        0.12745827436447144,
        0.1790892332792282,
        -0.05620713531970978,
        0.04011222720146179,
        0.07135685533285141,
        0.06035829335451126,
        0.09244406968355179,
        0.06666762381792068,
        -0.002980227814987302
      ],
      [
        0.0323198176920414,
        0.041397031396627426,
        0.03664171323180199,
        0.21924909949302673,
        0.09159696102142334,
        0.0478704497218132,
        0.05687512457370758,
        0.12824319303035736,
        -0.05930713191628456,
        -0.060643136501312256,
        0.12071794271469116,
        0.20556031167507172,
        0.12841829657554626,
        0.2135343998670578,
        -0.05066178739070892,
        0.07927411794662476,
        0.20252393186092377,
        0.14097824692726135,
        0.058193549513816833,
        0.08553116768598557,
        -0.03885084390640259,
        0.01148370373994112,
        0.21873944997787476,
        0.07312438637018204,
        0.203036367893219,
        0.09436412900686264,
        0.19643379747867584,
        0.10087664425373077,
        0.1298278570175171,
        0.18114787340164185,
        -0.013973727822303772,
        0.07748422026634216,
        0.11813028901815414,
        0.0773424580693245,
        0.13463909924030304,
        0.20980864763259888,
        0.18845926225185394,
        -0.023742366582155228,
        0.01240985095500946,
        -0.3075610101222992,
        0.1667989045381546,
        0.16302013397216797,
        0.027806419879198074,
        0.08262129127979279,
        0.08448793739080429,
        0.11817668378353119,
        -0.03177007660269737,
        -0.042950890958309174,
        0.050222329795360565,
        -0.17194610834121704,
        0.2167561799287796,
        0.1943095326423645,
        0.01840304769575596,
        0.1214480996131897,
        0.07964121550321579,
        0.027775650843977928,
        -0.07285861670970917,
        -0.08546574413776398,
        -0.08016323298215866,
        -0.023297658190131187,
        -0.06598557531833649,
        0.10379251092672348,
        0.06475909054279327,
        0.04251016676425934,
        0.1617521047592163,
        0.13013723492622375,
        0.1041007861495018,
        0.08109299093484879,
        0.2411097288131714,
        0.22878557443618774,
        0.16265122592449188,
        0.13037697970867157,
        0.21531681716442108,
        0.1338438093662262,
        -0.051781583577394485,
        0.12305189669132233,
        0.2221677601337433,
        0.06622488051652908,
        -0.06861501932144165,
        0.18761464953422546,
        0.1344316601753235,
        0.11445874720811844,
        0.22557273507118225,
        0.2763768136501312,
        0.14454306662082672,
        0.15355567634105682,
        -0.07334894686937332,
        0.07032518833875656,
        0.09996628761291504,
        0.2330046147108078,
        0.21347008645534515,
        -0.09769049286842346,
        0.07399635761976242,
        0.1389487236738205,
        -0.021276993677020073,
        0.013385044410824776,
        -0.039516717195510864,
        -0.06943376362323761
      ],
      [
        -0.043775174766778946,
        0.09057211130857468,
        -0.02753434330224991,
        0.17826329171657562,
        -0.5289322137832642,
        0.08500704914331436,
        -0.0748492032289505,
        -1.207413911819458,
        0.011689500883221626,
        -0.038204144686460495,
        -0.1302291303873062,
        -0.17123430967330933,
        -0.16611036658287048,
        0.02348090335726738,
        0.07632725685834885,
        0.00023443280952051282,
        0.02510284259915352,
        0.048637259751558304,
        0.007020316086709499,
        -0.02275627665221691,
        0.01849115826189518,
        -0.08738090842962265,
        0.021366694942116737,
        0.038140080869197845,
        -0.04119151830673218,
        -0.14312238991260529,
        0.18275174498558044,
        0.3925356864929199,
        0.07086590677499771,
        -0.29999974370002747,
        -0.05310870334506035,
        0.045220401138067245,
        0.035200148820877075,
        0.01955767348408699,
        -0.1252778321504593,
        -0.059713877737522125,
        0.13647188246250153,
        -0.034752219915390015,
        0.007511507719755173,
        -0.14892782270908356,
        0.7446587681770325,
        -0.28369075059890747,
        -0.04579466953873634,
        0.5706411600112915,
        0.0743940994143486,
        -0.032063085585832596,
        0.01040989812463522,
        -0.07526949048042297,
        -0.030691105872392654,
        0.02726615220308304,
        0.6992592215538025,
        -0.31660327315330505,
        -0.03664744272828102,
        0.5771244764328003,
        0.02632310427725315,
        -0.16583247482776642,
        0.03518226370215416,
        0.08967237919569016,
        0.0044559333473443985,
        0.07828465104103088,
        -0.08555731922388077,
        -0.7562032341957092,
        -0.5230112075805664,
        0.05396394431591034,
        -0.4475075304508209,
        -0.37920933961868286,
        0.9869077205657959,
        0.017236147075891495,
        -0.26595816016197205,
        0.08907587081193924,
        0.9206869602203369,
        -0.05406242609024048,
        -0.45455726981163025,
        0.07107239961624146,
        0.027580367401242256,
        -0.10564417392015457,
        -0.2245219349861145,
        0.18415716290473938,
        0.08117662370204926,
        0.22369040548801422,
        0.05466928333044052,
        -0.044990964233875275,
        -0.12209828197956085,
        -0.4432368576526642,
        1.1450315713882446,
        0.7410914897918701,
        0.06296800822019577,
        0.061471663415431976,
        0.2805870473384857,
        0.17587044835090637,
        0.02810429222881794,
        -0.08019696176052094,
        -0.09279235452413559,
        -1.7108705043792725,
        -0.1017475575208664,
        0.01328421663492918,
        0.007745265960693359,
        0.06194755807518959
      ],
      [
        -0.027987590059638023,
        -0.04990566149353981,
        0.02462676540017128,
        -0.1515764445066452,
        0.16912049055099487,
        -0.05855480954051018,
        -0.0050329240038990974,
        0.8360631465911865,
        0.0008455741335637867,
        0.09559037536382675,
        0.250908762216568,
        0.2359389066696167,
        0.2678278088569641,
        0.0359979048371315,
        -0.054349035024642944,
        0.07247406244277954,
        -0.08703897893428802,
        0.04900820553302765,
        -0.041556794196367264,
        0.006681323051452637,
        0.06680429726839066,
        -0.01436671707779169,
        -0.07315747439861298,
        -0.031557440757751465,
        0.15648657083511353,
        0.1837882250547409,
        -0.05906965956091881,
        0.4724377989768982,
        -0.04060165584087372,
        -0.1048116385936737,
        0.08840993046760559,
        0.014339453540742397,
        -0.005739658139646053,
        0.07681398093700409,
        0.29067733883857727,
        0.1376069039106369,
        0.0219398345798254,
        0.069005087018013,
        -0.05743754655122757,
        0.18450693786144257,
        -0.6865745186805725,
        0.2180662751197815,
        -0.01305993553251028,
        0.3589484691619873,
        0.07826154679059982,
        0.6875371336936951,
        0.07977622747421265,
        -0.033065080642700195,
        0.07094139605760574,
        0.09493189305067062,
        -0.6094385385513306,
        0.1430428922176361,
        -0.055333103984594345,
        0.46471506357192993,
        0.03967185318470001,
        0.8387400507926941,
        0.057556409388780594,
        -0.009646004997193813,
        0.06958586722612381,
        -0.0136006074026227,
        0.10023899376392365,
        0.9535322189331055,
        0.808510959148407,
        -0.021251849830150604,
        -0.8799208402633667,
        0.7358933687210083,
        -0.8434385657310486,
        -0.04816340655088425,
        -0.2883947789669037,
        -0.3806895911693573,
        -0.7831395268440247,
        0.4320250153541565,
        -0.9585760235786438,
        0.8926532864570618,
        -0.05867777019739151,
        0.004312256816774607,
        0.07619987428188324,
        -0.05367041751742363,
        -0.08983910083770752,
        -0.22031287848949432,
        -0.1457783579826355,
        0.26544108986854553,
        0.1736975610256195,
        -0.21030764281749725,
        -1.0604227781295776,
        -0.7375384569168091,
        0.02277553081512451,
        -0.1784135103225708,
        -0.45092377066612244,
        -0.22606703639030457,
        -0.11393241584300995,
        0.04352801293134689,
        -0.09000005573034286,
        0.4339755177497864,
        0.18445585668087006,
        -0.09632498770952225,
        0.02302006632089615,
        0.013892215676605701
      ],
      [
        -0.060413822531700134,
        0.08177922666072845,
        -0.05902637168765068,
        0.134273499250412,
        0.18869595229625702,
        0.07597192376852036,
        -0.059887733310461044,
        0.017944322898983955,
        0.03327608108520508,
        -0.07967951893806458,
        0.1991129368543625,
        0.02138153277337551,
        0.14396800100803375,
        0.14963050186634064,
        -0.013706780970096588,
        0.09107229858636856,
        0.1066715195775032,
        0.04172942414879799,
        -0.06333784013986588,
        0.037820570170879364,
        0.06789495050907135,
        0.0849711075425148,
        0.19585566222667694,
        -0.004593320190906525,
        0.09834467619657516,
        0.07938387989997864,
        0.05498917028307915,
        0.03763152286410332,
        0.1539633423089981,
        0.040235694497823715,
        -0.03356315940618515,
        -0.02183670364320278,
        0.10592568665742874,
        0.16924765706062317,
        0.18344365060329437,
        0.08390946686267853,
        0.06209893152117729,
        0.03900623321533203,
        0.017331579700112343,
        -0.02586558647453785,
        0.18089668452739716,
        0.09408589452505112,
        -0.08872497081756592,
        0.10389295965433121,
        -0.07941780984401703,
        -0.17085665464401245,
        -0.08841896057128906,
        0.054556604474782944,
        -0.07091497629880905,
        -0.07206229120492935,
        0.1749039590358734,
        0.14100408554077148,
        0.05635795742273331,
        0.05661840736865997,
        -0.018558606505393982,
        -0.07235363870859146,
        -0.025377364829182625,
        0.08153355121612549,
        0.0238700732588768,
        0.025393681600689888,
        -0.049460988491773605,
        0.1770956665277481,
        0.07272488623857498,
        0.02799127623438835,
        0.040637075901031494,
        0.2247881144285202,
        0.23262347280979156,
        -0.010255412198603153,
        0.14705896377563477,
        0.10157018899917603,
        0.1604078710079193,
        0.19043377041816711,
        0.1276528537273407,
        0.07654979079961777,
        -0.0477503202855587,
        0.06290025264024734,
        0.09067948162555695,
        0.13352879881858826,
        0.03599178418517113,
        0.04966418072581291,
        0.11566124111413956,
        0.09846100956201553,
        0.18166300654411316,
        0.22780463099479675,
        0.16595785319805145,
        0.11585287004709244,
        -0.04086046665906906,
        0.17190547287464142,
        0.21968449652194977,
        0.11220120638608932,
        0.17770032584667206,
        -0.0867764875292778,
        -0.07110759615898132,
        0.09484583139419556,
        -0.012352995574474335,
        0.08319126814603806,
        -0.01716405153274536,
        0.01125679723918438
      ],
      [
        0.027533957734704018,
        -0.09193011373281479,
        -0.04905250295996666,
        -0.08246051520109177,
        -0.20428627729415894,
        0.03218219056725502,
        -0.05927833914756775,
        -0.18819960951805115,
        0.0021164221689105034,
        0.08483928442001343,
        -0.18284663558006287,
        -0.15002860128879547,
        -0.1292201429605484,
        -0.13422098755836487,
        0.08709575235843658,
        0.04364733770489693,
        -0.18662665784358978,
        -0.16057370603084564,
        0.01181270182132721,
        0.007298316806554794,
        0.0010009515099227428,
        0.017109885811805725,
        -0.2364927977323532,
        -0.07685550302267075,
        -0.233895942568779,
        -0.06428061425685883,
        -0.18434534966945648,
        -0.16734729707241058,
        -0.07049147039651871,
        -0.17216338217258453,
        -0.013590431772172451,
        0.09517885744571686,
        -0.2150934487581253,
        -0.21957488358020782,
        -0.2344154268503189,
        -0.05172581598162651,
        -0.10085111111402512,
        -0.06090512126684189,
        -0.09937823563814163,
        -0.03495458886027336,
        -0.07077130675315857,
        -0.23418158292770386,
        0.08916880935430527,
        -0.08506190776824951,
        0.022166220471262932,
        0.037710826843976974,
        0.010387440212070942,
        0.018929919227957726,
        0.015500358305871487,
        0.027982063591480255,
        -0.1520591676235199,
        -0.09698797017335892,
        0.0771750956773758,
        -0.06459643691778183,
        0.08289399743080139,
        0.07421983033418655,
        -0.023794881999492645,
        0.07996858656406403,
        0.08433584123849869,
        0.033127374947071075,
        -0.06586563587188721,
        -0.08796347677707672,
        -0.0778781920671463,
        -0.00911626685410738,
        -0.20386724174022675,
        -0.2234218567609787,
        -0.2400595247745514,
        -0.07099384069442749,
        -0.2078769952058792,
        -0.08628858625888824,
        -0.08801086246967316,
        -0.15278857946395874,
        -0.20193485915660858,
        0.0657995343208313,
        -0.08207935094833374,
        -0.2000122219324112,
        -0.12336067855358124,
        -0.12998169660568237,
        -0.07632654905319214,
        -0.11039820313453674,
        -0.0712723508477211,
        -0.22961144149303436,
        -0.13708211481571198,
        -0.20576629042625427,
        -0.1501583307981491,
        -0.06640952825546265,
        -0.0005038956878706813,
        -0.10802877694368362,
        -0.05496901273727417,
        -0.030707919970154762,
        -0.1645353138446808,
        -0.06286042183637619,
        0.10044210404157639,
        -0.06714679300785065,
        0.006582539528608322,
        0.0720297321677208,
        0.050997842103242874,
        0.03570576384663582
      ],
      [
        0.011953894048929214,
        -0.09423788636922836,
        0.01095506176352501,
        -0.16477681696414948,
        -0.04116909205913544,
        0.04743289574980736,
        -0.03466515615582466,
        0.2224503755569458,
        -0.004760342184454203,
        0.09129968285560608,
        -0.18174320459365845,
        -0.12029865384101868,
        -0.08321055769920349,
        -0.18864697217941284,
        -0.039424873888492584,
        -0.033622901886701584,
        -0.20172001421451569,
        -0.18212634325027466,
        0.07180926948785782,
        -0.09812760353088379,
        -0.0759461298584938,
        -0.008111727423965931,
        -0.19098344445228577,
        -0.053548797965049744,
        -0.1712249517440796,
        -0.1974029839038849,
        -0.15338294208049774,
        -0.113526351749897,
        -0.25396662950515747,
        -0.03166613727807999,
        0.059021808207035065,
        -0.09116729348897934,
        -0.1532437801361084,
        -0.08196456730365753,
        -0.17648865282535553,
        -0.06642898172140121,
        -0.19699902832508087,
        -0.0512385256588459,
        0.003906808327883482,
        -0.045360784977674484,
        -0.11596428602933884,
        -0.19419939815998077,
        0.0019362021703273058,
        -0.05263860896229744,
        -0.040296733379364014,
        0.1994999796152115,
        0.03075336292386055,
        0.05333763360977173,
        -0.07263031601905823,
        -0.09343645721673965,
        -0.10769154876470566,
        -0.15295684337615967,
        -0.0501280277967453,
        -0.1602330356836319,
        0.008952761068940163,
        0.19713258743286133,
        0.09611238539218903,
        0.037019047886133194,
        0.017818905413150787,
        -0.07761890441179276,
        0.07589573413133621,
        -0.006008943077176809,
        0.23714026808738708,
        0.07818406820297241,
        -0.10370586812496185,
        -0.12270060926675797,
        -0.20868980884552002,
        -0.041745804250240326,
        -0.22229929268360138,
        -0.2788633704185486,
        -0.2631280720233917,
        -0.0894339457154274,
        -0.12517589330673218,
        0.021121002733707428,
        -0.021775169298052788,
        -0.19137300550937653,
        -0.15033601224422455,
        -0.16547822952270508,
        -0.09512665122747421,
        -0.14005069434642792,
        -0.22302815318107605,
        -0.2224375158548355,
        -0.2104455977678299,
        -0.15993599593639374,
        -0.29493534564971924,
        -0.10883628576993942,
        -0.09757037460803986,
        -0.10531538724899292,
        -0.0856543704867363,
        -0.03800167515873909,
        -0.16741226613521576,
        -0.029795341193675995,
        0.033667925745248795,
        -0.05100680887699127,
        0.04144870862364769,
        0.047271326184272766,
        -0.06347601115703583,
        -0.017496325075626373
      ],
      [
        -0.0010619440581649542,
        0.08403889834880829,
        -0.09371370822191238,
        -0.21300391852855682,
        -0.20323827862739563,
        0.06003221496939659,
        -0.08220293372869492,
        -0.13377171754837036,
        0.0694497600197792,
        0.03946075960993767,
        -0.19293458759784698,
        -0.219911590218544,
        -0.17301827669143677,
        -0.14050333201885223,
        0.023217398673295975,
        -0.013545828871428967,
        -0.22003966569900513,
        -0.14677967131137848,
        -0.031965505331754684,
        0.0406019501388073,
        -0.07379142194986343,
        0.08135786652565002,
        -0.2264121174812317,
        -0.09291684627532959,
        -0.10388655215501785,
        -0.16572518646717072,
        -0.07118961960077286,
        -0.11629090458154678,
        -0.24919140338897705,
        -0.11893445998430252,
        -0.019891362637281418,
        -0.021687492728233337,
        -0.22166483104228973,
        -0.09328439086675644,
        -0.21451780200004578,
        -0.0539092980325222,
        -0.1977112740278244,
        0.020060105249285698,
        0.036465391516685486,
        -0.11983729898929596,
        -0.18713006377220154,
        -0.15459869801998138,
        -0.03159373626112938,
        -0.1231638640165329,
        -0.07843350619077682,
        -0.11628254503011703,
        0.032585762441158295,
        -0.0889449268579483,
        -0.08143223077058792,
        -0.05838771164417267,
        -0.2258467972278595,
        -0.23068396747112274,
        0.060168445110321045,
        -0.07948590815067291,
        0.060593657195568085,
        -0.21936728060245514,
        -0.0009070603991858661,
        0.03544105589389801,
        0.08898971974849701,
        0.08577553182840347,
        0.08551862090826035,
        -0.02667979523539543,
        -0.08324585109949112,
        0.026894157752394676,
        -0.07879425585269928,
        -0.18461842834949493,
        -0.1809518188238144,
        -0.0447130985558033,
        -0.2390047013759613,
        -0.18766187131404877,
        -0.10483841598033905,
        -0.14462293684482574,
        -0.21126358211040497,
        -0.19433870911598206,
        0.06094317510724068,
        -0.07718724012374878,
        -0.10806610435247421,
        -0.20244599878787994,
        0.08379551023244858,
        -0.08230282366275787,
        -0.24729153513908386,
        -0.04878649115562439,
        -0.11294369399547577,
        -0.08773592859506607,
        -0.06638015806674957,
        -0.12070596218109131,
        -0.059783753007650375,
        -0.14839127659797668,
        -0.08260135352611542,
        -0.2061375230550766,
        -0.25080424547195435,
        -0.029333628714084625,
        -0.0015837822575122118,
        -0.14112547039985657,
        -0.12909609079360962,
        0.060555774718523026,
        0.04179099574685097,
        0.09166661649942398
      ],
      [
        0.04699253290891647,
        0.053395744413137436,
        -0.0009444747702218592,
        -0.18281276524066925,
        -0.1951117366552353,
        0.03702168166637421,
        -0.06320949643850327,
        -0.05328214168548584,
        -0.100691057741642,
        0.01091916486620903,
        -0.18373189866542816,
        -0.1086263507604599,
        -0.11977039277553558,
        -0.15938323736190796,
        0.08286502957344055,
        -0.017832476645708084,
        -0.24128848314285278,
        -0.14578582346439362,
        0.07504426687955856,
        -0.07755476236343384,
        0.08424012362957001,
        -0.058528438210487366,
        -0.19444896280765533,
        0.0942659080028534,
        -0.21242278814315796,
        -0.10050968825817108,
        -0.10984320938587189,
        -0.16676707565784454,
        -0.22985702753067017,
        -0.0743924230337143,
        -0.03813399747014046,
        0.01777932234108448,
        -0.1019740104675293,
        -0.2321455180644989,
        -0.08217038214206696,
        -0.052952270954847336,
        -0.12116646766662598,
        0.0788019523024559,
        0.0858674943447113,
        0.20618534088134766,
        -0.15052530169487,
        -0.20722690224647522,
        0.08367324620485306,
        -0.04613848403096199,
        -0.03729592636227608,
        -0.10043875873088837,
        -0.011914866045117378,
        -0.005097011104226112,
        0.05095842853188515,
        0.16921505331993103,
        -0.10138251632452011,
        -0.17961817979812622,
        0.02645345777273178,
        -0.13947144150733948,
        -0.0012100239982828498,
        -0.21414142847061157,
        0.018405649811029434,
        -0.0664764940738678,
        0.0856085792183876,
        0.08071514219045639,
        0.07902485877275467,
        -0.08492833375930786,
        -0.115910105407238,
        -0.04261758178472519,
        -0.1276387721300125,
        -0.15278305113315582,
        -0.17476633191108704,
        -0.08853048086166382,
        -0.12313184142112732,
        -0.18380577862262726,
        -0.06246078386902809,
        -0.09310860931873322,
        -0.1914530247449875,
        -0.03800104185938835,
        0.06741313636302948,
        -0.20558126270771027,
        -0.14440743625164032,
        -0.06654129177331924,
        -0.06954190135002136,
        -0.09445194154977798,
        -0.16636300086975098,
        -0.19956474006175995,
        -0.1325979381799698,
        -0.1841408908367157,
        -0.15191815793514252,
        -0.2213173806667328,
        0.0009714848711155355,
        -0.10072685033082962,
        -0.07413122802972794,
        -0.05511556938290596,
        -0.19774344563484192,
        0.05386502295732498,
        0.054561372846364975,
        0.04751540720462799,
        0.09531126171350479,
        0.06810331344604492,
        0.03158658370375633,
        0.02291225455701351
      ]
    ]
  },
  "proposalRejector": {
    "featureNames": [
      "proposal_center_ratio",
      "proposal_duration_ratio",
      "proposal_embedding_0",
      "proposal_embedding_1",
      "proposal_embedding_10",
      "proposal_embedding_11",
      "proposal_embedding_12",
      "proposal_embedding_13",
      "proposal_embedding_14",
      "proposal_embedding_15",
      "proposal_embedding_16",
      "proposal_embedding_17",
      "proposal_embedding_18",
      "proposal_embedding_19",
      "proposal_embedding_2",
      "proposal_embedding_20",
      "proposal_embedding_21",
      "proposal_embedding_22",
      "proposal_embedding_23",
      "proposal_embedding_24",
      "proposal_embedding_25",
      "proposal_embedding_26",
      "proposal_embedding_27",
      "proposal_embedding_28",
      "proposal_embedding_29",
      "proposal_embedding_3",
      "proposal_embedding_30",
      "proposal_embedding_31",
      "proposal_embedding_32",
      "proposal_embedding_33",
      "proposal_embedding_34",
      "proposal_embedding_35",
      "proposal_embedding_36",
      "proposal_embedding_37",
      "proposal_embedding_38",
      "proposal_embedding_39",
      "proposal_embedding_4",
      "proposal_embedding_40",
      "proposal_embedding_41",
      "proposal_embedding_42",
      "proposal_embedding_43",
      "proposal_embedding_44",
      "proposal_embedding_45",
      "proposal_embedding_46",
      "proposal_embedding_47",
      "proposal_embedding_48",
      "proposal_embedding_49",
      "proposal_embedding_5",
      "proposal_embedding_50",
      "proposal_embedding_51",
      "proposal_embedding_52",
      "proposal_embedding_53",
      "proposal_embedding_54",
      "proposal_embedding_55",
      "proposal_embedding_56",
      "proposal_embedding_57",
      "proposal_embedding_58",
      "proposal_embedding_59",
      "proposal_embedding_6",
      "proposal_embedding_60",
      "proposal_embedding_61",
      "proposal_embedding_62",
      "proposal_embedding_63",
      "proposal_embedding_64",
      "proposal_embedding_65",
      "proposal_embedding_66",
      "proposal_embedding_67",
      "proposal_embedding_68",
      "proposal_embedding_69",
      "proposal_embedding_7",
      "proposal_embedding_70",
      "proposal_embedding_71",
      "proposal_embedding_8",
      "proposal_embedding_9",
      "proposal_end_ratio",
      "proposal_event_margin",
      "proposal_event_score",
      "proposal_eventness_center",
      "proposal_eventness_max",
      "proposal_eventness_mean",
      "proposal_family_defensive_event",
      "proposal_family_other",
      "proposal_family_shot_attempt",
      "proposal_family_transition",
      "proposal_family_turnover",
      "proposal_frame_count",
      "proposal_segment_attention_entropy",
      "proposal_segment_attention_peak",
      "proposal_start_ratio",
      "segment_max_ball_above_rim",
      "segment_max_ball_arc_apex",
      "segment_max_ball_carrier_speed",
      "segment_max_ball_detection_confidence",
      "segment_max_ball_near_rim",
      "segment_max_ball_through_hoop_likelihood",
      "segment_max_ball_visible",
      "segment_max_basketball_confidence",
      "segment_max_defender_proximity_at_shot",
      "segment_max_detection_density",
      "segment_max_event_duration_seconds_norm",
      "segment_max_event_localization_complete",
      "segment_max_event_localization_present",
      "segment_max_hoop_detection_confidence",
      "segment_max_hoop_visible",
      "segment_max_player_to_rim_distance",
      "segment_max_player_track_count",
      "segment_max_possession_change_likelihood",
      "segment_max_rim_confidence",
      "segment_max_same_play_continuity_score",
      "segment_max_shot_release_candidate",
      "segment_max_tracked_ball_confidence",
      "segment_max_tracked_player_count",
      "segment_max_tracking_density",
      "segment_max_transition_likelihood",
      "segment_max_transition_speed_score",
      "segment_mean_ball_above_rim",
      "segment_mean_ball_arc_apex",
      "segment_mean_ball_carrier_speed",
      "segment_mean_ball_detection_confidence",
      "segment_mean_ball_near_rim",
      "segment_mean_ball_through_hoop_likelihood",
      "segment_mean_ball_visible",
      "segment_mean_basketball_confidence",
      "segment_mean_defender_proximity_at_shot",
      "segment_mean_detection_density",
      "segment_mean_event_duration_seconds_norm",
      "segment_mean_event_localization_complete",
      "segment_mean_event_localization_present",
      "segment_mean_hoop_detection_confidence",
      "segment_mean_hoop_visible",
      "segment_mean_player_to_rim_distance",
      "segment_mean_player_track_count",
      "segment_mean_possession_change_likelihood",
      "segment_mean_rim_confidence",
      "segment_mean_same_play_continuity_score",
      "segment_mean_shot_release_candidate",
      "segment_mean_tracked_ball_confidence",
      "segment_mean_tracked_player_count",
      "segment_mean_tracking_density",
      "segment_mean_transition_likelihood",
      "segment_mean_transition_speed_score"
    ],
    "target": {
      "bias": [
        0.05272812396287918,
        -0.016814006492495537,
        -0.07537790387868881,
        0.0011796257458627224,
        0.06904791295528412,
        -0.1218361109495163
      ],
      "classes": [
        "real_event",
        "non_event",
        "setup",
        "dead_ball",
        "replay_or_reaction",
        "ambiguous"
      ],
      "marginThreshold": 0.08,
      "temperature": 1.0,
      "topK": 3,
      "uncertaintyThreshold": 0.5,
      "weight": [
        [
          0.07873670011758804,
          -0.15366019308567047,
          0.6344324946403503,
          0.31739747524261475,
          0.14844080805778503,
          -0.32065367698669434,
          -0.02860722318291664,
          0.09021051228046417,
          -0.0933561697602272,
          0.069170743227005,
          -0.11713214963674545,
          -0.08453644812107086,
          0.702264130115509,
          0.5270033478736877,
          -0.5176870822906494,
          -0.5308212041854858,
          -0.016028469428420067,
          -0.12152382731437683,
          0.41683077812194824,
          0.04796213284134865,
          -0.41628941893577576,
          0.11510971933603287,
          0.12882962822914124,
          0.008411571383476257,
          -0.15035338699817657,
          0.04530797153711319,
          -0.04029793292284012,
          -0.00023273826809599996,
          -0.14111672341823578,
          0.17116941511631012,
          -0.10149027407169342,
          -0.14955328404903412,
          0.44498756527900696,
          0.2962951064109802,
          -0.49678099155426025,
          0.10432671755552292,
          -0.1395762711763382,
          0.01830417290329933,
          0.2443639039993286,
          -0.09246856719255447,
          -0.26525771617889404,
          0.005177248734980822,
          0.12239906191825867,
          0.1218201145529747,
          -0.31637710332870483,
          -0.07889838516712189,
          0.12440736591815948,
          0.29977402091026306,
          -0.06206395849585533,
          0.05767549201846123,
          -0.13057638704776764,
          -0.12952019274234772,
          -0.6413726210594177,
          -1.0364032983779907,
          0.44429296255111694,
          -0.2370821088552475,
          0.4059363603591919,
          0.24085821211338043,
          -0.047103676944971085,
          -0.016789516434073448,
          1.0972599983215332,
          -0.3516291081905365,
          0.2850625813007355,
          -0.5623270869255066,
          0.047912705689668655,
          0.24716976284980774,
          -0.4031175673007965,
          0.1677713394165039,
          -0.28436532616615295,
          -0.4043883979320526,
          -0.3058377206325531,
          -0.2048565298318863,
          0.0223854873329401,
          -0.005138123873621225,
          0.08639218658208847,
          0.06197458505630493,
          0.023347102105617523,
          0.23175349831581116,
          0.5776855945587158,
          0.44689539074897766,
          0.25988370180130005,
          -0.1239895448088646,
          0.30694296956062317,
          0.2125624120235443,
          0.3551614284515381,
          -0.1353980153799057,
          -0.029805714264512062,
          0.38556942343711853,
          0.6141529083251953,
          -0.05936358496546745,
          -0.008898897096514702,
          -0.01099699642509222,
          0.20007100701332092,
          0.5690842866897583,
          0.3292391896247864,
          0.14487126469612122,
          0.06894879043102264,
          -0.0058853598311543465,
          -0.05898119881749153,
          0.022424835711717606,
          -0.04374173283576965,
          0.09600192308425903,
          -0.08847175538539886,
          -0.17222321033477783,
          0.12250693887472153,
          0.01929633319377899,
          0.7767361998558044,
          -0.08421707153320312,
          -0.0771336480975151,
          -0.041571520268917084,
          0.152110755443573,
          0.13465499877929688,
          0.007833764888346195,
          0.7429406046867371,
          0.22217397391796112,
          0.08058924227952957,
          0.05788157135248184,
          0.05469691753387451,
          0.1893651783466339,
          0.5569559335708618,
          0.2864725887775421,
          0.22479240596294403,
          0.08650147914886475,
          -0.07201667129993439,
          -0.0461377277970314,
          0.0701872929930687,
          0.015519239008426666,
          0.06265176087617874,
          -0.04464234411716461,
          -0.15013809502124786,
          0.12503568828105927,
          0.1503804326057434,
          0.6360982060432434,
          -0.16197650134563446,
          -0.07175403833389282,
          0.0034218125510960817,
          0.25281062722206116,
          0.11797131597995758,
          0.01685059256851673,
          0.8766090273857117,
          0.27602627873420715
        ],
        [
          0.24566683173179626,
          0.06317595392465591,
          -0.4570910334587097,
          -0.03621894121170044,
          -0.026850491762161255,
          -0.06629262119531631,
          -0.15360808372497559,
          0.060802605003118515,
          -0.027289442718029022,
          -0.27772271633148193,
          -0.07492835819721222,
          0.036744020879268646,
          -0.736802339553833,
          -0.0919032022356987,
          0.07180465757846832,
          -0.010247454047203064,
          0.043690275400877,
          -0.16414469480514526,
          -0.4746548533439636,
          0.31862232089042664,
          0.4245915710926056,
          -0.0067825112491846085,
          -0.033281635493040085,
          0.025887692347168922,
          -0.0813136175274849,
          0.006368654780089855,
          -0.13448214530944824,
          0.009699378162622452,
          0.031390268355607986,
          -0.601111114025116,
          0.03449051082134247,
          0.06576903909444809,
          -0.31510645151138306,
          -0.16597715020179749,
          0.08038503676652908,
          0.002982892096042633,
          -0.07018084824085236,
          -0.13691464066505432,
          -0.38524994254112244,
          0.07659292221069336,
          0.5820772051811218,
          -0.05430986359715462,
          -0.021646015346050262,
          -0.037187062203884125,
          -0.1318330019712448,
          -0.054146576672792435,
          -0.024897517636418343,
          -0.3144769072532654,
          0.05100821331143379,
          -0.04741412401199341,
          -0.07330457866191864,
          -0.07117696106433868,
          0.7223427891731262,
          -0.4889028072357178,
          -0.3338565230369568,
          -2.222557783126831,
          1.7101093530654907,
          -0.7767934799194336,
          0.1742841899394989,
          -0.519501805305481,
          -0.6904998421669006,
          -2.2944064140319824,
          0.1905718743801117,
          -2.4431238174438477,
          -0.2681908905506134,
          0.6055245995521545,
          -1.4544923305511475,
          0.5611336827278137,
          1.0549631118774414,
          0.7336106300354004,
          0.47039419412612915,
          1.2523349523544312,
          -0.05365840345621109,
          -0.006245812866836786,
          -0.17953276634216309,
          -0.021705470979213715,
          0.08983362466096878,
          -0.17918112874031067,
          -0.30645039677619934,
          -0.3287489414215088,
          -0.28231382369995117,
          0.11320183426141739,
          -0.2529420256614685,
          -0.19406946003437042,
          -0.25237786769866943,
          0.05626849830150604,
          -0.00730179762467742,
          -0.05745502933859825,
          -0.8045611381530762,
          0.003406422445550561,
          0.014546377584338188,
          -0.056621335446834564,
          0.40407100319862366,
          -0.5404397249221802,
          -0.23615267872810364,
          0.2721973955631256,
          0.36141541600227356,
          0.011835603974759579,
          0.06547525525093079,
          -0.0038605169393122196,
          -0.07382731884717941,
          -0.0463348887860775,
          -0.6821602582931519,
          -0.7080147862434387,
          -0.48682573437690735,
          0.013771730475127697,
          -0.7005788087844849,
          -0.7245743274688721,
          0.0026055925991386175,
          0.0012435297248885036,
          0.34862223267555237,
          0.014666697941720486,
          -0.0029248001519590616,
          1.9318714141845703,
          -0.16808220744132996,
          0.05362343043088913,
          0.07981613278388977,
          0.04486994072794914,
          0.012477690353989601,
          -0.5170482397079468,
          -0.257413774728775,
          0.3877142667770386,
          0.3754064440727234,
          0.036846086382865906,
          0.03440695255994797,
          0.0777830258011818,
          0.01818745769560337,
          0.01394131500273943,
          -0.7096213102340698,
          -0.6806408762931824,
          -0.47152289748191833,
          -0.042563546448946,
          -0.7976868748664856,
          -0.7253726124763489,
          -0.032362353056669235,
          -0.021504279226064682,
          -0.006339657586067915,
          0.05067569762468338,
          0.07378805428743362,
          1.8246948719024658,
          -0.22959913313388824
        ],
        [
          0.8760939836502075,
          0.27236074209213257,
          0.08158514648675919,
          -0.24004673957824707,
          -0.08765319734811783,
          0.6445935368537903,
          0.2433854192495346,
          -0.09988594800233841,
          0.060902081429958344,
          0.10930272191762924,
          0.008461632765829563,
          0.05058421567082405,
          0.2702215313911438,
          -0.09503109008073807,
          0.7777479887008667,
          0.4497499167919159,
          -0.006561312824487686,
          0.08758172392845154,
          0.08567290008068085,
          -0.7504169344902039,
          -0.6080609560012817,
          -0.0953674167394638,
          0.06913848221302032,
          -0.02506459876894951,
          0.44959378242492676,
          0.03626103326678276,
          0.5619853138923645,
          -0.07216180860996246,
          -0.02413681149482727,
          0.34480443596839905,
          -0.024440867826342583,
          0.02324873022735119,
          0.09648333489894867,
          -0.1443319022655487,
          0.4398084282875061,
          -0.0070535531267523766,
          0.06954319030046463,
          0.10596328228712082,
          0.32523274421691895,
          -0.2511216104030609,
          -0.24557027220726013,
          -0.08171308785676956,
          -0.018304895609617233,
          0.05109664797782898,
          0.44320669770240784,
          0.15125909447669983,
          -0.04257287085056305,
          0.24168306589126587,
          0.006260436959564686,
          0.04964499920606613,
          -0.046018488705158234,
          -0.0195663683116436,
          -0.9298027157783508,
          0.44111308455467224,
          -0.8400876522064209,
          2.9129230976104736,
          0.034316934645175934,
          -0.36298349499702454,
          -0.5085312128067017,
          1.1277543306350708,
          1.494838833808899,
          2.1512043476104736,
          -0.3914063274860382,
          2.4008231163024902,
          -0.7649127244949341,
          -1.3680081367492676,
          1.2791224718093872,
          -1.678085207939148,
          -0.3057420253753662,
          -0.5996096134185791,
          0.275425523519516,
          -1.011102318763733,
          0.05050629377365112,
          -0.04326003044843674,
          0.2612459063529968,
          0.04986169561743736,
          -0.011086704209446907,
          -0.21036535501480103,
          0.09780117869377136,
          0.05735655128955841,
          -0.10959085822105408,
          0.08526583015918732,
          -0.3049904704093933,
          -0.28251615166664124,
          -0.3340892791748047,
          0.09352195262908936,
          0.10250114649534225,
          -0.29294756054878235,
          0.1787896454334259,
          -0.08336145430803299,
          0.05130068212747574,
          -0.013988537713885307,
          -0.07682754844427109,
          -1.0844221115112305,
          -0.5934388041496277,
          -0.16047857701778412,
          -0.11417342722415924,
          0.04723148047924042,
          0.041436344385147095,
          -0.06667501479387283,
          0.024491291493177414,
          0.0219259113073349,
          0.19394321739673615,
          0.19408339262008667,
          -0.7803331613540649,
          -0.030082693323493004,
          -0.3975897431373596,
          0.14862938225269318,
          0.034840960055589676,
          -0.06641186773777008,
          -0.15048564970493317,
          -0.027599921450018883,
          0.0551193468272686,
          -1.9226616621017456,
          -0.3249964714050293,
          -0.012390803545713425,
          0.024745846167206764,
          -0.04910517483949661,
          1.1536084413528442,
          -1.1235322952270508,
          -0.6179235577583313,
          -0.048506177961826324,
          -0.12499932944774628,
          0.04800943285226822,
          -0.07428315281867981,
          -0.03852245584130287,
          -0.005875863134860992,
          -0.03204718232154846,
          0.09539483487606049,
          0.19897758960723877,
          -0.7526589632034302,
          0.01805889420211315,
          -0.3719819188117981,
          0.07997731119394302,
          0.051680076867341995,
          0.033539824187755585,
          1.1691887378692627,
          -0.02281610108911991,
          -0.008107232861220837,
          -1.866458535194397,
          -0.17148186266422272
        ],
        [
          0.009419944137334824,
          0.32083767652511597,
          0.016837721690535545,
          -0.12061217427253723,
          -0.025950036942958832,
          -0.049550652503967285,
          -0.048710357397794724,
          0.041797954589128494,
          0.03972077742218971,
          0.03760012984275818,
          -0.03481262922286987,
          -0.00040865637129172683,
          0.10199584811925888,
          -0.21469390392303467,
          -0.02432813122868538,
          0.07697807252407074,
          -0.06803996115922928,
          0.013249237090349197,
          -0.30439892411231995,
          0.24296166002750397,
          0.560070812702179,
          0.031505830585956573,
          -0.08776561915874481,
          -0.0963754802942276,
          -0.07658186554908752,
          -0.05904562771320343,
          -0.045172855257987976,
          0.053309325128793716,
          -0.025173885747790337,
          0.085477814078331,
          -0.031099148094654083,
          0.08006259799003601,
          -0.10598071664571762,
          -0.10708204656839371,
          0.01911388896405697,
          0.009114927612245083,
          -0.0025624502450227737,
          -0.02990025468170643,
          -0.14775417745113373,
          0.03611777722835541,
          0.40230873227119446,
          0.05662231147289276,
          -0.09111525863409042,
          -0.07819748669862747,
          0.006429221481084824,
          -0.01719881221652031,
          -0.00414909515529871,
          -0.23960255086421967,
          0.061014894396066666,
          -0.08521918952465057,
          0.048469509929418564,
          -0.04742127284407616,
          -0.6427786350250244,
          0.7966314554214478,
          0.988248348236084,
          0.05973787233233452,
          -1.3318047523498535,
          0.6354501843452454,
          0.0526767261326313,
          -0.33879315853118896,
          -1.4376485347747803,
          0.7252487540245056,
          -0.38169047236442566,
          0.3901798129081726,
          0.7908528447151184,
          0.5339066386222839,
          0.6604295969009399,
          0.5407984256744385,
          -0.20285910367965698,
          0.524043619632721,
          0.2828652858734131,
          -0.25337544083595276,
          0.049763523042201996,
          -0.07479789853096008,
          0.07135113328695297,
          -0.007793424651026726,
          -0.04919327050447464,
          -0.4319869875907898,
          -0.6390511393547058,
          -0.5551689863204956,
          -0.3808135390281677,
          0.03366236016154289,
          -0.2360154092311859,
          -0.345278799533844,
          -0.42659640312194824,
          0.15535275638103485,
          0.2141539752483368,
          -0.144613578915596,
          -1.2414743900299072,
          0.08057118207216263,
          -0.027079537510871887,
          -0.017747899517416954,
          -0.41931307315826416,
          -1.0838178396224976,
          -0.3468441367149353,
          -0.4065750241279602,
          -0.36719170212745667,
          -0.022736936807632446,
          0.058075468987226486,
          -0.03720597177743912,
          -0.08217126876115799,
          0.0341026708483696,
          0.7066842317581177,
          0.6561930775642395,
          -1.3437999486923218,
          0.003466246649622917,
          -0.3635479211807251,
          0.5940061807632446,
          -0.06988196074962616,
          -0.06074586510658264,
          -0.35138192772865295,
          -0.07332725822925568,
          0.0338582769036293,
          -0.9555649757385254,
          -0.32149025797843933,
          -0.07342112809419632,
          0.04360723868012428,
          -0.029316257685422897,
          -0.0587465763092041,
          -1.029579520225525,
          -0.27032649517059326,
          -0.39425456523895264,
          -0.41862255334854126,
          0.07526883482933044,
          -0.002302197040989995,
          -0.008526681922376156,
          -0.048282478004693985,
          0.05902857705950737,
          0.5982499122619629,
          0.6294963955879211,
          -1.245907187461853,
          0.004888099152594805,
          -0.27773618698120117,
          0.621431291103363,
          -0.07396001368761063,
          0.03228619322180748,
          -0.060400985181331635,
          0.05498049780726433,
          0.07219468057155609,
          -0.8631643652915955,
          -0.31940197944641113
        ],
        [
          -0.5969656705856323,
          -0.23356273770332336,
          -0.31920957565307617,
          -0.1931070238351822,
          -0.01761643774807453,
          0.3490954637527466,
          -0.025466114282608032,
          0.056882891803979874,
          -0.12489380687475204,
          -0.1347011774778366,
          -0.07313810288906097,
          -0.10933156311511993,
          -0.5568830966949463,
          -0.3352316915988922,
          0.47714248299598694,
          0.46420910954475403,
          -0.019491253420710564,
          0.1666564792394638,
          0.17261366546154022,
          -0.4871551990509033,
          -0.1296280175447464,
          0.11936531215906143,
          0.007129802834242582,
          0.12315890938043594,
          0.31292200088500977,
          0.10696587711572647,
          -0.013548427261412144,
          -0.015695825219154358,
          -0.10726935416460037,
          -0.06041598320007324,
          -0.07868338376283646,
          0.02788177691400051,
          -0.1490398645401001,
          -0.17901502549648285,
          0.44899559020996094,
          -0.02708716318011284,
          0.04203512892127037,
          0.08258216083049774,
          0.006599002052098513,
          -0.05629953742027283,
          -0.2421579360961914,
          -0.010987045243382454,
          -0.0006934384582564235,
          0.0830896869301796,
          0.3513340651988983,
          -0.06930422782897949,
          0.07357968389987946,
          0.06640920788049698,
          -0.12025182694196701,
          -0.016994347795844078,
          -0.039001837372779846,
          -0.04059037193655968,
          1.1227881908416748,
          1.7183923721313477,
          -0.9539550542831421,
          1.5566914081573486,
          -2.147399425506592,
          -0.1854245513677597,
          -0.08257158100605011,
          0.5992197394371033,
          -1.466522216796875,
          1.7005428075790405,
          -0.3563852310180664,
          1.906112790107727,
          -0.36077478528022766,
          -0.7832857966423035,
          0.848425567150116,
          0.34666112065315247,
          -0.49393436312675476,
          -0.007871286012232304,
          0.2953093945980072,
          -0.4581219553947449,
          -0.01372432615607977,
          0.07733632624149323,
          -0.2024545669555664,
          0.04689709097146988,
          0.06881512701511383,
          -0.21620357036590576,
          -0.41287028789520264,
          -0.30798596143722534,
          -0.1621871143579483,
          0.07065516710281372,
          -0.1540888547897339,
          -0.14820502698421478,
          -0.23834289610385895,
          -0.14621545374393463,
          -0.16537092626094818,
          -0.011772424913942814,
          1.389141321182251,
          0.04837691783905029,
          0.07396569848060608,
          0.06278745085000992,
          0.01577499322593212,
          0.5951375365257263,
          -0.31624361872673035,
          0.09869879484176636,
          0.11480792611837387,
          -0.03146392107009888,
          -0.033015262335538864,
          -0.07029803842306137,
          -0.03839506953954697,
          0.08862124383449554,
          0.06984739750623703,
          0.0029667243361473083,
          1.1141265630722046,
          0.057862114161252975,
          -0.8375505805015564,
          -0.025602545589208603,
          0.006008712109178305,
          0.06109794229269028,
          0.06222059950232506,
          0.05873702093958855,
          0.013821644708514214,
          -1.9375431537628174,
          -0.05303654447197914,
          -0.06338384747505188,
          0.05526522547006607,
          -0.04696199670433998,
          -0.5425017476081848,
          0.6670276522636414,
          -0.17968259751796722,
          0.13574586808681488,
          0.10618694871664047,
          0.010369584895670414,
          -0.05748516321182251,
          -0.007328780833631754,
          -0.04614488407969475,
          -0.018353071063756943,
          -0.08756444603204727,
          -0.023766037076711655,
          1.0710891485214233,
          0.06502360105514526,
          -0.809978723526001,
          -0.02885400503873825,
          -0.03879034146666527,
          0.013393150642514229,
          -0.5972967743873596,
          0.09330976754426956,
          0.011613154783844948,
          -1.8174481391906738,
          -0.034980449825525284
        ],
        [
          -0.1419357806444168,
          -0.12926633656024933,
          0.12071846425533295,
          0.225476935505867,
          -0.17748408019542694,
          -0.2021457552909851,
          0.15903915464878082,
          -0.2659718990325928,
          0.22253313660621643,
          0.1915818601846695,
          0.16320501267910004,
          0.24958211183547974,
          0.2397635281085968,
          0.11871456354856491,
          -0.1679716408252716,
          -0.2714754343032837,
          -0.16665160655975342,
          0.20130206644535065,
          0.16249790787696838,
          0.16603972017765045,
          0.13810797035694122,
          -0.13763095438480377,
          -0.1337464302778244,
          -0.2668238878250122,
          -0.18899254500865936,
          -0.2198675572872162,
          0.20355738699436188,
          -0.26516687870025635,
          0.1714242845773697,
          0.1724673956632614,
          0.15855936706066132,
          0.17214076220989227,
          0.2691536247730255,
          0.13638898730278015,
          -0.25881677865982056,
          -0.17696815729141235,
          0.19309741258621216,
          0.21391834318637848,
          0.2719857692718506,
          0.20899060368537903,
          0.23816479742527008,
          -0.2676337659358978,
          -0.23001301288604736,
          -0.22994400560855865,
          -0.11860969662666321,
          0.11549456417560577,
          -0.17307238280773163,
          0.18453241884708405,
          0.25748059153556824,
          0.1381828337907791,
          0.2582164406776428,
          0.20043540000915527,
          0.14770077168941498,
          0.1852019876241684,
          -0.20798766613006592,
          -0.1377830058336258,
          -0.18129298090934753,
          -0.12756600975990295,
          0.19793018698692322,
          0.25998690724372864,
          -0.2661224603652954,
          -0.17493905127048492,
          -0.1608467847108841,
          -0.19170399010181427,
          -0.2053065150976181,
          0.23971351981163025,
          -0.2523462474346161,
          0.12387190014123917,
          0.27258601784706116,
          0.1494910567998886,
          0.10549138486385345,
          0.25003257393836975,
          -0.20483465492725372,
          -0.2517514228820801,
          -0.1582394242286682,
          -0.26227518916130066,
          -0.1633238047361374,
          -0.2394365668296814,
          -0.15047509968280792,
          -0.15875642001628876,
          -0.14591680467128754,
          -0.235650435090065,
          -0.24414238333702087,
          -0.21418924629688263,
          -0.26885154843330383,
          -0.2448687106370926,
          -0.18617264926433563,
          -0.23656868934631348,
          -0.141970694065094,
          0.05226710066199303,
          0.07389333844184875,
          0.07016866654157639,
          -0.15462593734264374,
          -0.14039669930934906,
          -0.13142575323581696,
          -0.14114920794963837,
          -0.10301124304533005,
          0.06996335834264755,
          -0.02385827898979187,
          -0.04494267702102661,
          0.06994163990020752,
          -0.1503448337316513,
          -0.22011129558086395,
          -0.22968044877052307,
          -0.22415849566459656,
          -0.21920031309127808,
          -0.1742061823606491,
          -0.20274031162261963,
          -0.036367807537317276,
          -0.08071229606866837,
          -0.26898714900016785,
          -0.18311858177185059,
          0.029940005391836166,
          -0.1647629290819168,
          -0.20842653512954712,
          0.026603717356920242,
          -0.05038272589445114,
          0.08245618641376495,
          -0.18495342135429382,
          -0.1653059720993042,
          -0.20589318871498108,
          -0.14314423501491547,
          -0.16166891157627106,
          0.048127591609954834,
          0.014931803569197655,
          -0.03664042055606842,
          0.022502269595861435,
          -0.1830945461988449,
          -0.18913502991199493,
          -0.238135427236557,
          -0.24749630689620972,
          -0.23751387000083923,
          -0.11126703023910522,
          -0.1231614500284195,
          -0.052433259785175323,
          -0.05468783155083656,
          -0.12711447477340698,
          -0.26862919330596924,
          0.04988947883248329,
          -0.15735992789268494,
          -0.1774607002735138
        ]
      ]
    }
  },
  "schemaVersion": "temporal-event-detector-v2",
  "segmentAttention": {
    "bias": -0.1260024607181549,
    "weight": [
      -1.053869605064392,
      0.5822330117225647,
      0.7374063730239868,
      -0.20608024299144745,
      -0.6547989249229431,
      -0.43421897292137146,
      -0.223942369222641,
      0.6423318386077881,
      -0.05894726514816284,
      0.9226787686347961,
      -0.031823620200157166,
      0.8952681422233582,
      -0.33687663078308105,
      0.36411619186401367,
      0.4279915392398834,
      -0.0524517223238945,
      -0.39667487144470215,
      0.07041259855031967
    ]
  },
  "sourceDataset": "perception_supervision+phase4_event_localization_queue+teacher_backed",
  "startHead": {
    "bias": 0.1257619708776474,
    "weight": [
      1.7848926782608032,
      1.1878701448440552,
      -1.3905311822891235,
      0.025798102840781212,
      1.3722699880599976,
      1.237579584121704,
      1.8024945259094238,
      -1.3843756914138794,
      0.26032090187072754,
      -1.3290106058120728,
      0.0642651617527008,
      -1.5208104848861694,
      1.3217651844024658,
      0.29207831621170044,
      -1.1996246576309204,
      0.9121687412261963,
      1.3596585988998413,
      -0.38734257221221924
    ]
  },
  "targets": {
    "eventFamily": {
      "bias": [
        0.1397932469844818,
        -0.006886281538754702,
        -0.20419307053089142,
        -0.22032177448272705,
        -0.00269290991127491
      ],
      "classes": [
        "shot_attempt",
        "turnover",
        "defensive_event",
        "transition",
        "other"
      ],
      "marginThreshold": 0.06,
      "temperature": 1.0,
      "topK": 3,
      "uncertaintyThreshold": 0.48,
      "weight": [
        [
          -0.015088316053152084,
          -0.18326523900032043,
          0.7327019572257996,
          0.08574796468019485,
          -0.10150180757045746,
          0.8757907152175903,
          0.13780897855758667,
          -0.5134874582290649,
          0.09357274323701859,
          0.09196371585130692,
          0.181080624461174,
          -0.1330907940864563,
          -0.03910880163311958,
          0.12021917849779129,
          -0.04101921617984772,
          -0.30386412143707275,
          -0.304774671792984,
          -0.03386297449469566,
          0.06982354074716568,
          -0.24510902166366577,
          0.5040514469146729,
          0.12252554297447205,
          -0.011626490391790867,
          1.0156033039093018,
          0.1591181606054306,
          -0.3936316967010498,
          0.21918371319770813,
          0.16574394702911377,
          0.1922236979007721,
          -0.2933140993118286,
          -0.4943717420101166,
          0.1079331710934639,
          -0.03963211923837662,
          -0.1422540545463562,
          -0.31725627183914185,
          -0.06436528265476227,
          0.07043112814426422,
          -0.2822921574115753,
          0.5771074295043945,
          0.27438631653785706,
          -0.13241340219974518,
          1.07252836227417,
          0.11192990094423294,
          -0.31378835439682007,
          0.1371319741010666,
          0.10137150436639786,
          0.24380767345428467,
          -0.1962781846523285,
          -0.24124257266521454,
          0.01626509055495262,
          -0.11632916331291199,
          -0.13462576270103455,
          -0.2934776544570923,
          -0.14730681478977203,
          -0.10320618748664856,
          -0.13468240201473236,
          -0.1357063353061676,
          0.056449681520462036,
          -0.25940704345703125,
          0.3375667333602905,
          -1.0191903114318848,
          0.03502756729722023,
          -0.11343975365161896,
          0.3927840292453766,
          0.16643467545509338,
          -0.07668186724185944,
          0.7767915725708008,
          0.11810030788183212,
          0.20617981255054474,
          -0.20624308288097382,
          0.23191286623477936,
          0.25241872668266296
        ],
        [
          0.4087117910385132,
          -0.2443086951971054,
          -0.4797998070716858,
          -0.03828496113419533,
          0.1024625226855278,
          -0.8158575296401978,
          -0.49174344539642334,
          0.02001824788749218,
          0.0841313973069191,
          0.28755608201026917,
          -0.045623112469911575,
          0.5841245651245117,
          -0.2661842405796051,
          0.18206940591335297,
          -0.12353412061929703,
          0.09317532181739807,
          -0.03271680325269699,
          -0.08860687911510468,
          0.00800921767950058,
          0.16403263807296753,
          0.16125094890594482,
          0.16869592666625977,
          0.16242624819278717,
          0.1259685605764389,
          0.19956469535827637,
          0.02578030526638031,
          0.01687273569405079,
          0.016196630895137787,
          0.19454678893089294,
          0.0026296034920960665,
          0.13727927207946777,
          0.09667660295963287,
          0.05988319590687752,
          0.0042091249488294125,
          0.21891210973262787,
          0.028799906373023987,
          0.5269936919212341,
          -0.061722494661808014,
          -0.7155539989471436,
          -0.03273188695311546,
          0.2512722313404083,
          -0.7608159780502319,
          -0.30665960907936096,
          0.12939998507499695,
          0.05107143521308899,
          0.07483737915754318,
          -0.10322365909814835,
          0.7495896816253662,
          -0.24425972998142242,
          0.1384982019662857,
          -0.01739414408802986,
          0.22517699003219604,
          0.03561069071292877,
          -0.07149927318096161,
          -0.2791803479194641,
          0.0863151028752327,
          -0.464005708694458,
          -0.1854885220527649,
          1.1482666730880737,
          -0.6593020558357239,
          1.819370150566101,
          0.5211864709854126,
          0.2660744786262512,
          -1.1285780668258667,
          -0.1818227916955948,
          0.43016859889030457,
          -0.7120794653892517,
          -0.13004247844219208,
          0.2335442453622818,
          0.3014448881149292,
          -0.2057991921901703,
          -0.17200179398059845
        ],
        [
          0.25645214319229126,
          0.6302493214607239,
          0.3882184624671936,
          -0.08154477179050446,
          -0.1422252506017685,
          -0.30181363224983215,
          -0.09091226756572723,
          0.04886471852660179,
          -0.0776870846748352,
          -0.02969011291861534,
          -0.12315359711647034,
          0.26248177886009216,
          0.09839228540658951,
          -0.01345229521393776,
          0.053867366164922714,
          0.21071527898311615,
          0.17448100447654724,
          0.20811034739017487,
          0.2278425097465515,
          0.6450164318084717,
          0.6390562057495117,
          -0.12010358273983002,
          0.08781515806913376,
          -0.3829634487628937,
          -0.13445645570755005,
          0.19070810079574585,
          -0.03224858269095421,
          -0.04696604236960411,
          -0.20676946640014648,
          0.7030657529830933,
          0.6825672388076782,
