{
  "attention": {
    "bias": 0.013837488368153572,
    "weight": [
      -0.42162224650382996,
      0.3910924792289734,
      0.35418063402175903,
      0.003652377286925912,
      0.44604188203811646,
      -0.052344441413879395,
      0.020660698413848877,
      -0.18896663188934326,
      -0.4327148199081421,
      0.11555148661136627,
      -0.053559187799692154,
      0.1544460654258728,
      0.15192486345767975,
      0.053223203867673874,
      -0.11374276876449585,
      0.1597491204738617
    ]
  },
  "featureSchemaVersion": "temporal-student-feature-v3",
  "hiddenSize": 16,
  "inputFeatureNames": [
    "ball_above_rim",
    "ball_arc_apex",
    "ball_carrier_speed",
    "ball_detection_confidence",
    "ball_near_rim",
    "ball_near_rim_offset_from_center",
    "ball_near_rim_time_seconds",
    "ball_through_hoop_likelihood",
    "ball_through_hoop_offset_from_center",
    "ball_through_hoop_time_seconds",
    "ball_track_count",
    "ball_visible",
    "basketball_confidence",
    "clip_duration_seconds",
    "defender_proximity_at_shot",
    "detection_density",
    "event_center_seconds",
    "event_center_seconds_norm",
    "event_duration_seconds",
    "event_duration_seconds_norm",
    "event_end_seconds",
    "event_localization_complete",
    "event_localization_present",
    "event_start_seconds",
    "hoop_detection_confidence",
    "hoop_visible",
    "human_verified",
    "player_to_rim_distance",
    "player_track_count",
    "possession_change_likelihood",
    "possession_change_offset_from_center",
    "possession_change_time_seconds",
    "post_roll_seconds",
    "pre_roll_seconds",
    "rim_confidence",
    "rim_track_count",
    "runtime_confidence",
    "runtime_display_label=block",
    "runtime_display_label=dunk",
    "runtime_display_label=fast_break",
    "runtime_display_label=highlight",
    "runtime_display_label=jumper",
    "runtime_display_label=layup",
    "runtime_display_label=made_shot",
    "runtime_display_label=miss",
    "runtime_display_label=putback",
    "runtime_display_label=steal",
    "runtime_display_label=three",
    "runtime_display_label=three_pointer",
    "runtime_event_family=defensive_event",
    "runtime_event_family=other",
    "runtime_event_family=shot_attempt",
    "runtime_event_family=transition",
    "runtime_event_family=turnover",
    "runtime_event_family_defensive_event",
    "runtime_event_family_other",
    "runtime_event_family_shot_attempt",
    "runtime_event_family_transition",
    "runtime_event_family_turnover",
    "runtime_label=block",
    "runtime_label=dunk",
    "runtime_label=fast_break",
    "runtime_label=highlight",
    "runtime_label=jumper",
    "runtime_label=layup",
    "runtime_label=made_shot",
    "runtime_label=miss",
    "runtime_label=putback",
    "runtime_label=steal",
    "runtime_label=three",
    "runtime_label=three_pointer",
    "runtime_label_block",
    "runtime_label_dunk",
    "runtime_label_fast_break",
    "runtime_label_highlight",
    "runtime_label_layup",
    "runtime_label_make_shot",
    "runtime_label_miss",
    "runtime_label_steal",
    "runtime_label_three_pointer",
    "runtime_outcome=blocked",
    "runtime_outcome=made",
    "runtime_outcome=missed",
    "runtime_outcome=uncertain",
    "runtime_outcome_blocked",
    "runtime_outcome_made",
    "runtime_outcome_missed",
    "runtime_outcome_uncertain",
    "runtime_shot_subtype=dunk",
    "runtime_shot_subtype=jumper",
    "runtime_shot_subtype=layup",
    "runtime_shot_subtype=null",
    "runtime_shot_subtype=putback",
    "runtime_shot_subtype=three",
    "runtime_shot_subtype=unknown",
    "runtime_shot_subtype_dunk",
    "runtime_shot_subtype_jumper",
    "runtime_shot_subtype_layup",
    "runtime_shot_subtype_null",
    "runtime_shot_subtype_putback",
    "runtime_shot_subtype_three",
    "runtime_top_count",
    "runtime_video_mae=block",
    "runtime_video_mae=dunk",
    "runtime_video_mae=fast_break",
    "runtime_video_mae=highlight",
    "runtime_video_mae=layup",
    "runtime_video_mae=made_shot",
    "runtime_video_mae=miss",
    "runtime_video_mae=steal",
    "runtime_video_mae=three",
    "runtime_video_mae=three_pointer",
    "runtime_xclip=block",
    "runtime_xclip=dunk",
    "runtime_xclip=fast_break",
    "runtime_xclip=highlight",
    "runtime_xclip=layup",
    "runtime_xclip=made_shot",
    "runtime_xclip=miss",
    "runtime_xclip=steal",
    "runtime_xclip=three",
    "runtime_xclip=three_pointer",
    "same_play_continuity_score",
    "shot_release_candidate",
    "shot_release_offset_from_center",
    "shot_release_time_seconds",
    "source_domain=benchmark_eval",
    "source_domain=broadcast",
    "source_domain=fixed_camera",
    "source_domain=fixed_camera_indoor",
    "source_domain=fixed_camera_outdoor",
    "source_domain=hard_negative",
    "source_domain=live_runtime",
    "source_domain=live_shadow",
    "source_domain=live_staging",
    "source_domain=manual_negative",
    "source_domain=phone_casual",
    "source_domain=staging_smoke",
    "source_domain=structured_eval",
    "source_domain=teacher_pseudo",
    "source_event_count",
    "source_kind=disagreement",
    "source_kind=gold",
    "source_kind=runtime",
    "source_kind=silver",
    "source_ref_present",
    "source_set=disagreement_queue",
    "source_set=gold_set",
    "source_set=phase4_event_localization_queue",
    "source_set=phase4_in_domain",
    "source_set=phase4_pseudo_labels",
    "source_set=runtime_inference",
    "source_set=silver_set",
    "timestamp_seconds",
    "tracked_ball_confidence",
    "tracked_player_count",
    "tracking_continuity",
    "tracking_density",
    "transition_likelihood",
    "transition_speed_score",
    "transition_start_offset_from_center",
    "transition_start_time_seconds",
    "was_merged"
  ],
  "modelVersion": "temporal-student-gated-v2",
  "notes": [
    "Perception-first temporal student trained on structured basketball signals and event-spotting supervision.",
    "A first-stage event spotter gates outcome and subtype inference on likely basketball events.",
    "Phase4 event-localization queue is included as disagreement-weighted in-domain supervision."
  ],
  "projection": {
    "bias": [
      0.012779820710420609,
      -0.03184432536363602,
      0.0975436121225357,
      -0.00803747121244669,
      -0.0446171872317791,
      -0.1168643906712532,
      -0.112151138484478,
      0.04052890092134476,
      0.08412552624940872,
      -0.03472280129790306,
      -0.0010242295684292912,
      0.03360897675156593,
      -0.013735439628362656,
      0.02205434814095497,
      -0.01867186836898327,
      0.023245256394147873
    ],
    "weight": [
      [
        0.005470688920468092,
        -0.04718311131000519,
        0.024940844625234604,
        0.0727708712220192,
        0.18683858215808868,
        -0.01173928752541542,
        -0.045885585248470306,
        0.32247769832611084,
        -0.021098505705595016,
        0.05502692237496376,
        0.0788520947098732,
        0.03122858703136444,
        -0.010142580606043339,
        -0.05552121251821518,
        -0.008601739071309566,
        -0.022043149918317795,
        0.025007501244544983,
        -0.07639782130718231,
        0.07361388951539993,
        -0.06144106015563011,
        0.05997857451438904,
        -0.013601674698293209,
        0.030774526298046112,
        0.0305232722312212,
        0.002444610232487321,
        0.013770734891295433,
        0.04103298485279083,
        -0.19654244184494019,
        0.03204011172056198,
        -0.10884344577789307,
        0.05575920268893242,
        0.026957407593727112,
        0.010324512608349323,
        0.0013048291439190507,
        0.03734707832336426,
        0.07110311090946198,
        -0.034076981246471405,
        -0.455133855342865,
        0.4412519037723541,
        -0.4597301185131073,
        0.35563206672668457,
        -0.39871564507484436,
        0.3369227647781372,
        0.39031654596328735,
        -0.43321311473846436,
        -0.03265297785401344,
        0.1597384810447693,
        0.16372904181480408,
        0.03710499405860901,
        -0.4846370816230774,
        -0.40116026997566223,
        0.31079888343811035,
        -0.3460521697998047,
        0.16864711046218872,
        -0.47338736057281494,
        -0.3350086212158203,
        0.21179287135601044,
        -0.42352941632270813,
        0.211639404296875,
        -0.37682491540908813,
        0.4517734944820404,
        -0.4033682942390442,
        0.33926883339881897,
        -0.42139753699302673,
        0.3521696925163269,
        0.32580143213272095,
        -0.549580991268158,
        -0.07586929202079773,
        0.19960960745811462,
        0.2189185917377472,
        0.0010974842589348555,
        -0.4419654607772827,
        0.5038434267044067,
        -0.4549277424812317,
        0.2995685636997223,
        0.45261579751968384,
        0.3371601998806,
        -0.49936845898628235,
        0.1997065246105194,
        0.1547396034002304,
        -0.34448370337486267,
        0.15617884695529938,
        -0.47501057386398315,
        0.018506554886698723,
        -0.44372689723968506,
        0.2006770372390747,
        -0.4049220383167267,
        0.07502362877130508,
        0.40805643796920776,
        -0.4232935607433319,
        0.24959789216518402,
        -0.4020828306674957,
        -0.2608747184276581,
        0.16962970793247223,
        -0.3847256898880005,
        0.3494870364665985,
        -0.5392126441001892,
        0.36538422107696533,
        -0.3199059069156647,
        -0.23567010462284088,
        0.11552657186985016,
        -0.09359337389469147,
        -0.051363952457904816,
        0.008379438892006874,
        -0.3084377944469452,
        -0.2872300446033478,
        0.41600900888442993,
        -0.025259019806981087,
        -0.4285775125026703,
        0.03618033975362778,
        0.16503341495990753,
        0.04993392154574394,
        0.018666887655854225,
        0.001932378625497222,
        -0.2765250504016876,
        -0.2967265844345093,
        0.3170807957649231,
        -0.036812711507081985,
        -0.4275957942008972,
        0.013889092020690441,
        0.2017856389284134,
        -0.03254403546452522,
        0.05106014758348465,
        -0.043580375611782074,
        0.01581330969929695,
        -0.022365685552358627,
        -0.281341016292572,
        0.06996123492717743,
        0.03199448809027672,
        0.36949655413627625,
        -0.5266867280006409,
        -0.37845006585121155,
        -0.07322276383638382,
        -0.41621434688568115,
        0.4956842064857483,
        -0.31758013367652893,
        -0.4040152132511139,
        0.43056780099868774,
        -0.28403720259666443,
        -0.016024349257349968,
        -0.022355113178491592,
        -0.055631015449762344,
        -0.00837195385247469,
        -0.025887664407491684,
        0.013369889929890633,
        -0.05731860175728798,
        -0.25857308506965637,
        -0.19809678196907043,
        0.2642367482185364,
        0.36316633224487305,
        -0.009358210489153862,
        -0.07653191685676575,
        0.013422945514321327,
        0.056148819625377655,
        0.11795886605978012,
        -0.010704010725021362,
        -0.07000793516635895,
        0.027808839455246925,
        -0.28625354170799255,
        -0.3132890462875366,
        -0.02062201127409935,
        0.006587510462850332,
        -0.04466874524950981
      ],
      [
        -0.0726272463798523,
        0.03428940102458,
        -0.06427275389432907,
        0.10776565223932266,
        0.02747979760169983,
        0.058904293924570084,
        0.015123282559216022,
        -0.3168981671333313,
        -0.053039975464344025,
        0.06600610911846161,
        0.075428307056427,
        0.025007152929902077,
        0.06332555413246155,
        -0.04196366295218468,
        -0.0036154729314148426,
        0.04373795911669731,
        -0.02171541005373001,
        0.07970215380191803,
        0.023914959281682968,
        -0.013705943711102009,
        0.02446737512946129,
        -0.014429631642997265,
        -0.004708923399448395,
        -0.05138781666755676,
        -0.06260637193918228,
        -0.06122690066695213,
        -0.0892828181385994,
        0.025995640084147453,
        0.0917467251420021,
        0.5818274021148682,
        -0.07558758556842804,
        0.017859967425465584,
        0.00678912503644824,
        0.04009166359901428,
        -0.12343589216470718,
        -0.08638395369052887,
        0.017073245719075203,
        -0.4311458468437195,
        -0.4890025556087494,
        0.4497424066066742,
        -0.2850368916988373,
        -0.6144583821296692,
        0.28998810052871704,
        0.3731274902820587,
        0.2702382504940033,
        -0.17812711000442505,
        0.4493234157562256,
        -0.4296293258666992,
        0.022352369502186775,
        -0.5085726380348206,
        -0.11401073634624481,
        0.0758766382932663,
        0.38223811984062195,
        0.4418140649795532,
        -0.4392191171646118,
        -0.17761506140232086,
        0.022697491571307182,
        0.402949720621109,
        0.39592573046684265,
        -0.5127073526382446,
        -0.5631323456764221,
        0.4809326231479645,
        -0.26912763714790344,
        -0.5353569984436035,
        0.27901530265808105,
        0.3091479539871216,
        0.21459411084651947,
        -0.2501184344291687,
        0.4084528982639313,
        -0.3675074279308319,
        0.07120838761329651,
        -0.39014652371406555,
        -0.5334025025367737,
        0.5021377205848694,
        -0.2360917180776596,
        0.3697645366191864,
        0.34436675906181335,
        0.24021847546100616,
        0.3642580807209015,
        -0.4679255485534668,
        -0.5273112654685974,
        -0.00391724519431591,
        0.5384775400161743,
        -0.3232405483722687,
        -0.5380538105964661,
        -0.005846332758665085,
        0.546147882938385,
        -0.26532962918281555,
        -0.5598761439323425,
        -0.18199658393859863,
        0.5172073841094971,
        -0.08097410947084427,
        0.4705561399459839,
        -0.39415255188941956,
        0.4608699381351471,
        -0.6003227829933167,
        -0.18528780341148376,
        0.4155168831348419,
        0.07029148191213608,
        0.4160592555999756,
        -0.49010688066482544,
        0.013731937855482101,
        0.015101909637451172,
        0.010718032717704773,
        0.2852029800415039,
        -0.35843589901924133,
        0.3561638593673706,
        -0.05899074673652649,
        0.11260952800512314,
        -0.014355671592056751,
        -0.3635050356388092,
        -0.06603208184242249,
        -0.044830381870269775,
        -0.041974060237407684,
        0.2979411482810974,
        -0.23714590072631836,
        0.3331361711025238,
        0.035531193017959595,
        0.19142968952655792,
        -0.052092354744672775,
        -0.4085480272769928,
        -0.06338560581207275,
        -0.0001533447066321969,
        -0.06694412231445312,
        -0.07544095069169998,
        0.04933551326394081,
        0.24864216148853302,
        -0.43083691596984863,
        -0.02308725379407406,
        -0.11431211978197098,
        0.036611806601285934,
        -0.3574255704879761,
        0.06258458644151688,
        -0.05926855280995369,
        0.6817809343338013,
        -0.3705689609050751,
        0.25249189138412476,
        0.2365196794271469,
        -0.06477334350347519,
        -0.02690059132874012,
        0.07143469899892807,
        0.15434958040714264,
        -0.14963361620903015,
        -0.02730538696050644,
        0.3527890741825104,
        -0.037538837641477585,
        -0.20428800582885742,
        -0.08978725969791412,
        0.3013720214366913,
        0.04805660992860794,
        0.6697514653205872,
        0.048455189913511276,
        -0.011538871563971043,
        -0.0080322390422225,
        0.19176903367042542,
        0.06837788969278336,
        -0.051383279263973236,
        0.032655175775289536,
        0.3860916197299957,
        0.29123565554618835,
        -0.06934025883674622,
        -0.04497286677360535,
        -0.049656737595796585
      ],
      [
        -0.015274862758815289,
        -0.0028494123835116625,
        -0.0016854845453053713,
        -0.25186529755592346,
        0.03239703178405762,
        0.03978912904858589,
        -0.06870923936367035,
        0.4447128176689148,
        -0.01683099940419197,
        0.02178850583732128,
        -0.05373547971248627,
        -0.001291093067266047,
        0.010367076843976974,
        -0.03397568315267563,
        0.0733465850353241,
        0.05672808364033699,
        0.08569937944412231,
        -0.006065615452826023,
        -0.05598069727420807,
        0.009617523290216923,
        0.04581335559487343,
        0.038316644728183746,
        -0.02494070492684841,
        0.06148893013596535,
        -0.03606393188238144,
        -0.01262430939823389,
        -0.11131798475980759,
        0.18518325686454773,
        -0.04720716550946236,
        0.0357339084148407,
        -0.009477670304477215,
        0.053915947675704956,
        0.0070146117359399796,
        0.07501719892024994,
        0.07279852032661438,
        0.004012486897408962,
        0.025788359344005585,
        0.4170987010002136,
        0.5179564952850342,
        0.34004220366477966,
        -0.2331448197364807,
        -0.1249740868806839,
        -0.1072186529636383,
        -0.5285040140151978,
        -0.26718592643737793,
        0.5397989749908447,
        -0.22744299471378326,
        0.4108814001083374,
        0.048433568328619,
        0.3980647921562195,
        -0.22893445193767548,
        0.023240718990564346,
        0.4258638024330139,
        -0.22868913412094116,
        0.39480140805244446,
        -0.21447721123695374,
        -0.03521834313869476,
        0.38822925090789795,
        -0.2745150625705719,
        0.4496423900127411,
        0.48374059796333313,
        0.4011490046977997,
        -0.1195121705532074,
        -0.12697455286979675,
        -0.0789489895105362,
        -0.5381843447685242,
        -0.3562288284301758,
        0.4818531572818756,
        -0.21826885640621185,
        0.42274948954582214,
        -0.010518842376768589,
        0.3861073851585388,
        0.48419198393821716,
        0.4095171093940735,
        -0.15665262937545776,
        -0.036718547344207764,
        -0.42886796593666077,
        -0.3833898603916168,
        -0.2571171224117279,
        0.5049597024917603,
        0.37697330117225647,
        0.12313538789749146,
        -0.42399051785469055,
        0.4630383551120758,
        0.4355340600013733,
        0.05156310275197029,
        -0.48425859212875366,
        0.48851630091667175,
        0.5381091833114624,
        -0.515958845615387,
        -0.4861321747303009,
        -0.17105069756507874,
        0.6633068323135376,
        0.43575355410575867,
        -0.2771773338317871,
        0.5541748404502869,
        -0.43487289547920227,
        -0.3873066008090973,
        -0.07092875242233276,
        0.6032584309577942,
        0.5005058646202087,
        0.0402279868721962,
        -0.05562480166554451,
        0.07260075956583023,
        0.1922568678855896,
        -0.3155689537525177,
        -0.11921239644289017,
        0.02297133207321167,
        -0.3193415105342865,
        0.00039426295552402735,
        0.43313658237457275,
        -0.026109395548701286,
        -0.057074569165706635,
        -0.007615423295646906,
        0.2970864772796631,
        -0.29447224736213684,
        -0.20097605884075165,
        -0.0477118119597435,
        -0.375113844871521,
        0.07468757033348083,
        0.3845660388469696,
        -0.06314074993133545,
        -0.035065703094005585,
        0.039751239120960236,
        -0.02465076744556427,
        -0.010572288185358047,
        0.4018765389919281,
        0.4309232532978058,
        0.04795018211007118,
        0.0481373555958271,
        -0.46816545724868774,
        -0.4367203116416931,
        -0.05876607447862625,
        0.24086956679821014,
        -0.3418976366519928,
        -0.2198975384235382,
        0.2842790484428406,
        0.19295354187488556,
        0.08184009045362473,
        -0.002524412702769041,
        -0.006406848318874836,
        0.22871485352516174,
        -0.04506440833210945,
        0.043620701879262924,
        0.2383410930633545,
        -0.09399738907814026,
        0.2279675155878067,
        -0.08433237671852112,
        0.06726866215467453,
        0.0712319016456604,
        0.43162041902542114,
        0.023652397096157074,
        0.0574311763048172,
        -0.1273755431175232,
        -0.15733347833156586,
        0.03331194445490837,
        0.05341029912233353,
        -0.0750764012336731,
        0.3020358681678772,
        0.22655533254146576,
        0.0595204196870327,
        0.0342605859041214,
        -0.010501419194042683
      ],
      [
        -0.07267321646213531,
        -0.009234380908310413,
        0.0634976476430893,
        0.1400381326675415,
        0.09103164821863174,
        -0.07243315130472183,
        0.062011610716581345,
        0.18201844394207,
        -0.06293442100286484,
        -0.05556267127394676,
        0.012199622578918934,
        -0.036414194852113724,
        -0.05568522959947586,
        0.06315244734287262,
        -0.020301418378949165,
        0.02714966982603073,
        0.06969555467367172,
        0.10831989347934723,
        0.04653658717870712,
        -0.0736304223537445,
        -0.06312233209609985,
        0.06277695298194885,
        -0.02797880955040455,
        0.04787413775920868,
        0.04083821550011635,
        0.15142475068569183,
        0.13423819839954376,
        -0.29550376534461975,
        -0.02618514373898506,
        -0.3385387361049652,
        -0.035808265209198,
        -0.044452980160713196,
        0.0937674418091774,
        0.05780826136469841,
        0.07874460518360138,
        0.08325577527284622,
        0.03903563320636749,
        0.25044509768486023,
        0.14115603268146515,
        -0.17103132605552673,
        0.23788028955459595,
        -0.029559820890426636,
        0.20544259250164032,
        0.08243964612483978,
        -0.25821423530578613,
        0.3079310357570648,
        -0.25577986240386963,
        0.15167036652565002,
        -0.06682609766721725,
        0.2989619970321655,
        0.19975613057613373,
        0.030796634033322334,
        -0.2917502224445343,
        -0.33990225195884705,
        0.31525424122810364,
        0.23303386569023132,
        0.03749265521764755,
        -0.15782850980758667,
        -0.23213675618171692,
        0.281353235244751,
        0.14387467503547668,
        -0.16717912256717682,
        0.16610999405384064,
        -0.0677308440208435,
        0.18881316483020782,
        0.06664405763149261,
        -0.14160041511058807,
        0.22128136456012726,
        -0.27038905024528503,
        0.08134852349758148,
        -0.05218825861811638,
        0.24639354646205902,
        0.21259644627571106,
        -0.30061131715774536,
        0.16299913823604584,
        0.1878209263086319,
        0.08530294895172119,
        -0.2690282166004181,
        -0.3001299500465393,
        0.11146054416894913,
        0.2610672116279602,
        0.13150301575660706,
        -0.09075447171926498,
        -0.015838809311389923,
        0.28873294591903687,
        0.03179590031504631,
        -0.02899511344730854,
        0.05576597526669502,
        0.1669691652059555,
        -0.27403900027275085,
        0.16182203590869904,
        -0.3615494668483734,
        0.4354386627674103,
        0.10250052809715271,
        -0.33202436566352844,
        0.13674627244472504,
        -0.27355238795280457,
        0.05753942206501961,
        -0.3332778513431549,
        0.4470621347427368,
        0.12105073779821396,
        0.03444872051477432,
        -0.04863232001662254,
        -0.05670352652668953,
        -0.23090779781341553,
        0.2049081027507782,
        0.18099379539489746,
        0.07608438283205032,
        -0.28373587131500244,
        -0.02405400760471821,
        0.16895292699337006,
        -0.05286765098571777,
        -0.008680582046508789,
        -0.039719369262456894,
        -0.17473246157169342,
        0.21667376160621643,
        0.15940172970294952,
        0.046576790511608124,
        -0.28537052869796753,
        -0.042305007576942444,
        0.20060893893241882,
        0.03112078830599785,
        -0.007015872746706009,
        0.07809332013130188,
        0.06866069883108139,
        -0.03387453034520149,
        -0.09463467448949814,
        0.20056389272212982,
        -0.04884110763669014,
        0.09453386813402176,
        -0.10976438969373703,
        0.17894120514392853,
        0.04952588677406311,
        -0.23468391597270966,
        -0.10053138434886932,
        0.2247614711523056,
        -0.14258702099323273,
        0.08637785166501999,
        -0.2984556257724762,
        0.033668793737888336,
        -0.016759125515818596,
        -0.09882280230522156,
        0.13425229489803314,
        -0.009973353706300259,
        -0.3086909055709839,
        0.0364411324262619,
        0.12808695435523987,
        0.047947242856025696,
        -0.22474893927574158,
        0.08305568993091583,
        -0.3212772607803345,
        0.06050136312842369,
        0.018261423334479332,
        0.07126302272081375,
        0.13433478772640228,
        0.08481164276599884,
        -0.06065544858574867,
        0.0036865381989628077,
        -0.2183605581521988,
        -0.3055955767631531,
        0.029795251786708832,
        -0.07572773098945618,
        -0.07325141131877899
      ],
      [
        0.0017226559575647116,
        -0.07078156620264053,
        -0.036110732704401016,
        0.20101423561573029,
        -0.15349045395851135,
        -0.05238841101527214,
        0.06392357498407364,
        -0.25003889203071594,
        0.01599631831049919,
        -0.05125521123409271,
        -0.1476578414440155,
        -0.09768974781036377,
        -0.026895346119999886,
        -0.12091556936502457,
        -0.07780735939741135,
        0.016888218000531197,
        -0.13130055367946625,
        -0.1524503231048584,
        0.03094550035893917,
        0.030933987349271774,
        -0.03876020759344101,
        0.005118387285619974,
        -0.0887645035982132,
        0.005786566063761711,
        -0.12461570650339127,
        -0.1577829271554947,
        -0.05757860466837883,
        -0.029350802302360535,
        -0.03677808865904808,
        0.0907711386680603,
        -0.0037956340238451958,
        0.006277936045080423,
        -0.1312711387872696,
        -0.11869557946920395,
        -0.09243646264076233,
        -0.10626579076051712,
        -0.1412624716758728,
        0.3920271396636963,
        -0.17824846506118774,
        0.20447713136672974,
        -0.08136257529258728,
        -0.0922953188419342,
        -0.14287406206130981,
        -0.16517992317676544,
        -0.10412782430648804,
        0.18028391897678375,
        0.05060821399092674,
        -0.05395687744021416,
        0.016536597162485123,
        0.4413135051727295,
        -0.09902001917362213,
        -0.24261286854743958,
        0.1011107936501503,
        0.046087998896837234,
        0.520224392414093,
        -0.08638505637645721,
        -0.25069695711135864,
        0.07800896465778351,
        0.06905414164066315,
        0.4806094765663147,
        -0.25642573833465576,
        0.11433834582567215,
        -0.09331145882606506,
        -0.20645254850387573,
        -0.14194256067276,
        -0.19538062810897827,
        -0.1937415450811386,
        0.27604806423187256,
        -0.012979213148355484,
        -0.014949759468436241,
        0.06491890549659729,
        0.47498819231987,
        -0.16352295875549316,
        0.16373200714588165,
        -0.0883817970752716,
        -0.17046904563903809,
        -0.27623307704925537,
        -0.1899741142988205,
        0.049929771572351456,
        -0.03052324615418911,
        0.42537954449653625,
        -0.14070923626422882,
        -0.1414618045091629,
        -0.12437966465950012,
        0.3835274875164032,
        -0.09409928321838379,
        -0.2091362476348877,
        -0.11878853291273117,
        -0.22464293241500854,
        0.02484261244535446,
        -0.013519695028662682,
        -0.00659654987975955,
        0.20872780680656433,
        -0.06821953505277634,
        -0.0947830006480217,
        -0.1283261775970459,
        0.0468619130551815,
        -0.010336215607821941,
        -0.0033012491185218096,
        0.1647527664899826,
        -0.14124846458435059,
        -0.1681704819202423,
        0.0457470528781414,
        0.07590309530496597,
        0.18740102648735046,
        -0.1513160765171051,
        -0.22546736896038055,
        -0.04535133019089699,
        -0.08963955193758011,
        -0.07529962062835693,
        -0.17625097930431366,
        0.032532982528209686,
        0.0074141137301921844,
        -0.040349386632442474,
        0.09265701472759247,
        -0.19504792988300323,
        -0.15121519565582275,
        -0.03827628120779991,
        -0.18517343699932098,
        0.04107941687107086,
        -0.16292749345302582,
        0.0770193412899971,
        -0.025546306744217873,
        0.049980439245700836,
        -0.01284272875636816,
        0.05549745261669159,
        0.004451381973922253,
        -0.11741318553686142,
        -0.03881387785077095,
        -0.10401327908039093,
        -0.22516018152236938,
        -0.024022094905376434,
        7.25406498531811e-05,
        0.05178913101553917,
        -0.19102557003498077,
        -0.10781947523355484,
        0.01304502971470356,
        -0.22539399564266205,
        0.2624721825122833,
        0.008170145563781261,
        -0.06213545799255371,
        -0.07705208659172058,
        -0.04407365992665291,
        -0.01287673506885767,
        -0.04931636154651642,
        -0.07680928707122803,
        -0.049525726586580276,
        -0.007606241852045059,
        -0.1501087248325348,
        -0.1297619789838791,
        0.04189838841557503,
        -0.005072896834462881,
        -0.21680541336536407,
        0.02205701917409897,
        0.12636280059814453,
        -0.14848588407039642,
        -0.04918713495135307,
        0.06045708805322647,
        0.10073476284742355,
        0.11444205045700073,
        0.014116938225924969,
        0.02477976866066456,
        0.00749913789331913
      ],
      [
        -0.07572318613529205,
        -0.008861509151756763,
        0.04981758072972298,
        -0.04866449534893036,
        -0.13736999034881592,
        0.0481439083814621,
        0.045993395149707794,
        0.13727204501628876,
        0.063759945333004,
        -0.029133552685379982,
        -0.02209864743053913,
        0.04321768134832382,
        -0.06368332356214523,
        0.020478881895542145,
        -0.0377022959291935,
        -0.0399346686899662,
        0.0031899099703878164,
        -0.001088963821530342,
        -0.05518006160855293,
        0.03702595457434654,
        0.005648571997880936,
        -0.06009182706475258,
        -0.0799870491027832,
        0.006787905469536781,
        0.0050325957126915455,
        0.07234126329421997,
        0.09505659341812134,
        0.4254578948020935,
        -0.0013361573219299316,
        -0.22768566012382507,
        0.03716801106929779,
        0.016627419739961624,
        -0.06156162545084953,
        -0.11680786311626434,
        0.09972532093524933,
        0.1494114249944687,
        -0.13267451524734497,
        -0.3874381184577942,
        -0.34162813425064087,
        0.4616372883319855,
        -0.020450325682759285,
        0.4762260317802429,
        0.4460653066635132,
        -0.35427021980285645,
        -0.4870041608810425,
        -0.31158509850502014,
        -0.11303450912237167,
        0.4127022922039032,
        0.006583318114280701,
        -0.3189076781272888,
        0.31462979316711426,
        -0.19151699542999268,
        0.3962786793708801,
        -0.1171950176358223,
        -0.413418710231781,
        0.3194220960140228,
        -0.12506797909736633,
        0.4258304834365845,
        -0.21672844886779785,
        -0.4274834096431732,
        -0.45952263474464417,
        0.48699936270713806,
        -0.1508302241563797,
        0.4429363012313843,
        0.5633837580680847,
        -0.2923109531402588,
        -0.4038948714733124,
        -0.3356964886188507,
        -0.1802287995815277,
        0.3656662404537201,
        0.02942804805934429,
        -0.43202418088912964,
        -0.4229186773300171,
        0.48069360852241516,
        -0.07304029911756516,
        0.4519759714603424,
        -0.28365835547447205,
        -0.45378756523132324,
        -0.23714232444763184,
        0.4778454601764679,
        -0.4459628760814667,
        0.38816460967063904,
        -0.37995821237564087,
        -0.04477290064096451,
        -0.4036797881126404,
        0.43471869826316833,
        -0.3651163578033447,
        -0.04412959888577461,
        -0.41144371032714844,
        -0.34590956568717957,
        0.025523491203784943,
        0.36390241980552673,
        -0.35583072900772095,
        0.42618951201438904,
        -8.874449122231454e-05,
        -0.3841839134693146,
        -0.26381462812423706,
        -0.08206292241811752,
        0.3755883276462555,
        -0.41387176513671875,
        0.32926851511001587,
        -0.025414861738681793,
        0.03888753801584244,
        0.03495326638221741,
        0.31364700198173523,
        0.16976450383663177,
        0.4841018617153168,
        0.07580390572547913,
        -0.3010232746601105,
        -0.032559022307395935,
        0.29950493574142456,
        0.05059971287846565,
        0.03976760804653168,
        0.0612940639257431,
        0.3539533019065857,
        0.29448452591896057,
        0.39634081721305847,
        -0.06357870995998383,
        -0.3669605851173401,
        0.06683417409658432,
        0.31838029623031616,
        0.04075838625431061,
        -0.032920073717832565,
        -0.048418302088975906,
        -0.02161926031112671,
        0.07707991451025009,
        -0.36634233593940735,
        0.4524480104446411,
        0.07518792152404785,
        0.4581853151321411,
        -0.25607872009277344,
        0.5116332173347473,
        -0.032594840973615646,
        0.7395026683807373,
        -0.5740594267845154,
        0.2868103086948395,
        0.5319254398345947,
        -0.298573762178421,
        0.0922127366065979,
        0.0040010614320635796,
        -0.1084616482257843,
        -0.2399788349866867,
        0.1080409437417984,
        0.0645427256822586,
        -0.12161092460155487,
        0.09199216216802597,
        -0.28229469060897827,
        0.2653580904006958,
        -0.31047582626342773,
        -0.4913020133972168,
        -0.434845894575119,
        0.07458478212356567,
        0.16725538671016693,
        0.17374378442764282,
        0.025995085015892982,
        0.008585882373154163,
        0.017017854377627373,
        -0.02475656569004059,
        0.35009893774986267,
        0.36268603801727295,
        -0.051915012300014496,
        0.0290974173694849,
        0.037283286452293396
      ],
      [
        -0.016325820237398148,
        0.0696641281247139,
        0.026566216722130775,
        -0.014897841028869152,
        0.08645257353782654,
        -0.01464330404996872,
        -0.06413637846708298,
        -0.019546959549188614,
        0.07549012452363968,
        -0.04754697158932686,
        -0.008037849329411983,
        0.03705267608165741,
        -0.038894105702638626,
        -0.007073078770190477,
        -0.05259796231985092,
        0.015550542622804642,
        -0.016202589496970177,
        -0.11747324466705322,
        -0.02863714098930359,
        -0.03959299251437187,
        -0.014485607855021954,
        0.07521654665470123,
        0.017132652923464775,
        0.04022160917520523,
        -0.07051100581884384,
        -0.04850827157497406,
        -0.038596585392951965,
        -0.01397840864956379,
        -0.1176074743270874,
        0.12291385233402252,
        -0.06688006222248077,
        0.029174476861953735,
        -0.06235777959227562,
        -0.08717680722475052,
        -0.10533076524734497,
        -0.05952223390340805,
        -0.03811994194984436,
        0.5148128867149353,
        -0.09075582772493362,
        0.003233672585338354,
        -0.0905793085694313,
        -0.21169857680797577,
        -0.224174365401268,
        -0.24878104031085968,
        -0.19729189574718475,
        0.174505352973938,
        0.02103572152554989,
        0.3001039922237396,
        0.04416123032569885,
        0.5568100214004517,
        -0.129802405834198,
        -0.14027494192123413,
        0.018664779141545296,
        0.07645995914936066,
        0.5578523874282837,
        -0.12377278506755829,
        -0.20863571763038635,
        -0.05667910724878311,
        -0.0031559618655592203,
        0.45445677638053894,
        0.05003304034471512,
        -0.03469115495681763,
        -0.1801549792289734,
        -0.07666896283626556,
        -0.1298971027135849,
        -0.22860895097255707,
        -0.14800047874450684,
        0.04877401888370514,
        -0.0036412111949175596,
        0.2952900230884552,
        -0.05722799897193909,
        0.5644440650939941,
        -0.03159281238913536,
        0.00029646026086993515,
        -0.2070479691028595,
        -0.22255443036556244,
        -0.23103924095630646,
        -0.1392192393541336,
        -0.0017621179576963186,
        0.37286683917045593,
        0.5171370506286621,
        -0.07794592529535294,
        -0.20366764068603516,
        -0.1817617118358612,
        0.5660013556480408,
        -0.14207887649536133,
        -0.22918036580085754,
        -0.19144068658351898,
        -0.06008699908852577,
        0.0021468696650117636,
        0.05919225513935089,
        -0.22321660816669464,
        0.22284193336963654,
        0.32619521021842957,
        -0.16990798711776733,
        -0.09030333161354065,
        0.09229608625173569,
        0.0917029157280922,
        -0.09411409497261047,
        0.173203706741333,
        0.4158121645450592,
        -0.04218136891722679,
        0.053357113152742386,
        -0.026793858036398888,
        -0.05901382118463516,
        -0.22685298323631287,
        -0.15634748339653015,
        -0.03404737263917923,
        -0.10444788634777069,
        -0.0406782366335392,
        0.40538620948791504,
        -0.0403798371553421,
        0.042793773114681244,
        0.0027799622621387243,
        -0.0665525570511818,
        -0.16681964695453644,
        -0.22515948116779327,
        -0.00729883648455143,
        -0.21290571987628937,
        -0.0708317756652832,
        0.43464192748069763,
        0.04665891081094742,
        0.0188455730676651,
        0.04620319977402687,
        -0.06286343932151794,
        -0.04112562537193298,
        0.09297938644886017,
        0.3069239854812622,
        -0.016179673373699188,
        -0.11143672466278076,
        -0.2198602706193924,
        -0.19102996587753296,
        0.03412486985325813,
        -0.15938395261764526,
        -0.12057194858789444,
        -0.1984826624393463,
        -0.13387972116470337,
        -0.08181846141815186,
        0.46617668867111206,
        -0.05047597363591194,
        -0.1021396815776825,
        0.014861149713397026,
        -0.0688890889286995,
        0.07453450560569763,
        -0.1671009212732315,
        -0.09610957652330399,
        0.08071223646402359,
        -0.0173701923340559,
        -0.17383722960948944,
        -0.15797322988510132,
        0.22386126220226288,
        -0.07045751810073853,
        -0.11459667235612869,
        -0.06400500982999802,
        -0.0914180725812912,
        -0.11663882434368134,
        -0.023411141708493233,
        0.028768282383680344,
        0.05578409507870674,
        0.12793943285942078,
        -0.024444209411740303,
        -0.01802472211420536,
        0.04466075450181961
      ],
      [
        0.008511429652571678,
        0.045058004558086395,
        -0.05331992357969284,
        0.16406689584255219,
        0.2624688446521759,
        0.0007359855226241052,
        0.03920275345444679,
        0.37054523825645447,
        -0.029128314927220345,
        0.04551811143755913,
        -0.000916622462682426,
        0.0422443188726902,
        -0.016915030777454376,
        0.0035471750888973475,
        -0.025904901325702667,
        0.045567963272333145,
        0.058020804077386856,
        0.016597937792539597,
        0.06919926404953003,
        0.026191141456365585,
        -0.06622316688299179,
        -0.04530290886759758,
        -0.007335687521845102,
        -0.06292284280061722,
        0.03903570771217346,
        0.08038254082202911,
        -0.15577912330627441,
        0.0927421897649765,
        -0.06778396666049957,
        -0.062098946422338486,
        0.0023556614760309458,
        0.055042218416929245,
        -0.032219745218753815,
        -0.06967305392026901,
        0.07926097512245178,
        0.08618570864200592,
        0.06872701644897461,
        -0.4262006878852844,
        0.3886217474937439,
        -0.11816926300525665,
        -0.16195113956928253,
        0.47157400846481323,
        0.3638061285018921,
        0.22483815252780914,
        -0.34102296829223633,
        0.6074926853179932,
        -0.23989661037921906,
        0.28692618012428284,
        -0.0189294945448637,
        -0.3956332802772522,
        -0.31966644525527954,
        0.49374333024024963,
        -0.2811833620071411,
        -0.21516285836696625,
        -0.32680076360702515,
        -0.39046618342399597,
        0.49906137585639954,
        -0.35711511969566345,
        -0.307861328125,
        -0.33017534017562866,
        0.39894968271255493,
        -0.05702318623661995,
        -0.09386478364467621,
        0.35913360118865967,
        0.25894695520401,
        0.2583339214324951,
        -0.1973811388015747,
        0.6171379685401917,
        -0.33845433592796326,
        0.32411372661590576,
        0.017708759754896164,
        -0.35459476709365845,
        0.34240594506263733,
        -0.03585837036371231,
        -0.08171482384204865,
        0.38779503107070923,
        0.24874378740787506,
        -0.22533535957336426,
        -0.26798444986343384,
        0.27714887261390686,
        -0.3696369528770447,
        0.36399218440055847,
        -0.18369197845458984,
        -0.08751935511827469,
        -0.37415188550949097,
        0.2616811990737915,
        -0.16473117470741272,
        -0.12506690621376038,
        0.5715752243995667,
        0.3517244756221771,
        0.1205732673406601,
        -0.43662574887275696,
        0.05853722617030144,
        0.28343504667282104,
        -0.2940880358219147,
        0.43290743231773376,
        0.2729049324989319,
        0.20005224645137787,
        -0.39145609736442566,
        -0.0038372469134628773,
        0.26873791217803955,
        -0.0573885552585125,
        -0.009448585100471973,
        0.040893904864788055,
        0.03553688898682594,
        -0.30394697189331055,
        0.2657390832901001,
        0.019093288108706474,
        0.14414775371551514,
        -0.03765473887324333,
        0.2554982900619507,
        0.07482662796974182,
        0.02864215523004532,
        -0.06982051581144333,
        0.0756935253739357,
        -0.29229703545570374,
        0.2429959774017334,
        -0.05207342654466629,
        0.13691562414169312,
        0.053654804825782776,
        0.2642512917518616,
        -0.008516620844602585,
        0.013722068630158901,
        -0.0016368378419429064,
        -0.07232251018285751,
        0.054371338337659836,
        0.187176913022995,
        -0.16610656678676605,
        0.01786532625555992,
        0.14312534034252167,
        -0.4425753355026245,
        -0.32260003685951233,
        -0.06991112232208252,
        0.04566685110330582,
        0.07461810111999512,
        -0.3327125012874603,
        -0.1955685317516327,
        0.55049729347229,
        -0.14246459305286407,
        -0.017466440796852112,
        -0.05822864547371864,
        0.1625184863805771,
        -0.04344330355525017,
        0.04283537715673447,
        0.05918295681476593,
        -0.06097548082470894,
        -0.13757042586803436,
        -0.18668881058692932,
        0.27826040983200073,
        0.3931642472743988,
        0.03583768010139465,
        -0.0035603928845375776,
        -0.007544117979705334,
        -0.00020578601106535643,
        0.05127691105008125,
        0.0019428780069574714,
        0.054499782621860504,
        0.04995798319578171,
        -0.24943523108959198,
        0.21315841376781464,
        0.0324438102543354,
        -0.07468339055776596,
        -0.008972220122814178
      ],
      [
        -0.050600774586200714,
        0.008963181637227535,
        -0.0700499415397644,
        0.037469860166311264,
        0.2106267511844635,
        -0.012731560505926609,
        0.015217363834381104,
        -0.3382737934589386,
        0.054727647453546524,
        0.06065409258008003,
        0.0766628310084343,
        0.07934150099754333,
        0.14779101312160492,
        -0.04701220616698265,
        0.03475470095872879,
        -0.054142456501722336,
        -0.004106953740119934,
        -0.04557597264647484,
        0.01873590797185898,
        0.06611136347055435,
        -0.014901747927069664,
        0.03275148198008537,
        0.018803631886839867,
        -0.06713351607322693,
        -0.07125677913427353,
        -0.0051942202262580395,
        0.010399766266345978,
        -0.09763749688863754,
        -0.0006812397623434663,
        0.18937094509601593,
        0.06898243725299835,
        -0.062054652720689774,
        -0.04768548533320427,
        -0.048023294657468796,
        0.041451595723629,
        -0.06736526638269424,
        0.041390348225831985,
        0.43714430928230286,
        -0.28834980726242065,
        0.12972642481327057,
        -0.13673001527786255,
        -0.398666113615036,
        -0.12547509372234344,
        0.44767215847969055,
        0.11337742209434509,
        -0.6754294037818909,
        -0.1211821660399437,
        -0.44194296002388,
        0.04022732377052307,
        0.46752122044563293,
        -0.14824706315994263,
        0.018684731796383858,
        -0.0045417603105306625,
        -0.034411557018756866,
        0.4764464795589447,
        -0.13348183035850525,
        0.04375637322664261,
        0.006482142489403486,
        -0.04415434971451759,
        0.38132742047309875,
        -0.3525908589363098,
        0.16978362202644348,
        -0.07247105985879898,
        -0.4678727686405182,
        -0.1745263785123825,
        0.48317816853523254,
        0.13336461782455444,
        -0.5725623965263367,
        -0.010610589757561684,
        -0.4179350435733795,
        -0.07325412333011627,
        0.39563998579978943,
        -0.3705006241798401,
        0.14577768743038177,
        -0.09313672035932541,
        -0.12426479160785675,
        0.4921773374080658,
        0.13954059779644012,
        -0.11650636047124863,
        -0.3581809103488922,
        0.34816017746925354,
        -0.23056761920452118,
        0.4895135462284088,
        -0.3479250371456146,
        0.3630637228488922,
        -0.17854098975658417,
        0.5053738951683044,
        -0.20406895875930786,
        -0.4222562909126282,
        -0.15680493414402008,
        0.5475678443908691,
        -0.16873487830162048,
        -0.13368874788284302,
        -0.3922246992588043,
        -0.2243102490901947,
        -0.28394436836242676,
        -0.14129868149757385,
        0.4577573239803314,
        -0.10291443765163422,
        -0.12456665188074112,
        -0.37748315930366516,
        0.0518428273499012,
        -0.056739989668130875,
        0.06242118403315544,
        -0.01108244713395834,
        -0.16482529044151306,
        -0.04001601040363312,
        -0.06265968829393387,
        0.054880641400814056,
        -0.013666465878486633,
        -0.3353324234485626,
        0.018228627741336823,
        -0.06755661964416504,
        -0.04166669026017189,
        -0.01941947266459465,
        -0.1879197061061859,
        -0.0699535608291626,
        0.06600460410118103,
        0.04789270833134651,
        0.07038319855928421,
        -0.3186509907245636,
        0.03518535941839218,
        -0.021581482142210007,
        0.03377346694469452,
        -0.03690611943602562,
        0.00455602677538991,
        0.1823090761899948,
        -0.37163668870925903,
        -0.007905632257461548,
        -0.36905255913734436,
        -0.04995159059762955,
        -0.3732669949531555,
        -0.012097285129129887,
        -0.0767182856798172,
        0.6072765588760376,
        -0.24777552485466003,
        -0.03441885486245155,
        0.1646854728460312,
        -0.0005914835492148995,
        -0.007631175220012665,
        0.06426005065441132,
        0.19053328037261963,
        -0.07441052049398422,
        -0.037182874977588654,
        0.21110107004642487,
        0.08778151869773865,
        -0.09738895297050476,
        -0.13864834606647491,
        0.2878284752368927,
        0.14347290992736816,
        0.3672918975353241,
        0.028886424377560616,
        -0.09558805078268051,
        -0.0024135070852935314,
        0.05246259644627571,
        -0.013994886539876461,
        -0.053526390343904495,
        -0.0069464510306715965,
        0.1393066644668579,
        -0.0006286721327342093,
        0.0067901089787483215,
        0.02970242127776146,
        -0.07031304389238358
      ],
      [
        0.041582681238651276,
        0.01772729493677616,
        -0.04579407349228859,
        -0.2337535321712494,
        -0.34799566864967346,
        0.02371813915669918,
        0.023580284789204597,
        -0.23866915702819824,
        -0.01548768486827612,
        0.03433193266391754,
        -0.0834687352180481,
        0.006303603760898113,
        -0.07335059344768524,
        -0.016594789922237396,
        -0.05768752843141556,
        0.022453436627984047,
        -0.017921024933457375,
        0.0717213824391365,
        0.0420374795794487,
        -0.0021088796202093363,
        0.04502343758940697,
        0.04561442509293556,
        0.05388893187046051,
        -0.06040258705615997,
        -0.11597532778978348,
        -0.11353058367967606,
        0.0992622822523117,
        -0.11833631247282028,
        0.040693093091249466,
        0.4436342418193817,
        0.05162401124835014,
        0.07488018274307251,
        0.006475706584751606,
        -0.03777315840125084,
        -0.1648769974708557,
        -0.11750628799200058,
        -0.10719507932662964,
        0.006241450086236,
        0.21573232114315033,
        0.3740532100200653,
        0.13413919508457184,
        -0.3935318887233734,
        -0.3345848321914673,
        -0.3681175410747528,
        -0.3988540768623352,
        0.17987060546875,
        0.4291576147079468,
        -0.3140594959259033,
        0.03348618000745773,
        0.015350477769970894,
        0.3195279836654663,
        -0.3475641906261444,
        0.5381723642349243,
        0.5362294912338257,
        -0.011900895275175571,
        0.2718381881713867,
        -0.34706029295921326,
        0.5188192129135132,
        0.4777568578720093,
        0.09752590954303741,
        0.31992411613464355,
        0.4327469766139984,
        0.23071132600307465,
        -0.29338276386260986,
        -0.3805500268936157,
        -0.4185287058353424,
        -0.3588058352470398,
        0.16863669455051422,
        0.41682207584381104,
        -0.3688296973705292,
        0.050203047692775726,
        -0.010735834948718548,
        0.2369924783706665,
        0.47727277874946594,
        0.18533827364444733,
        -0.3223520517349243,
        -0.3847178518772125,
        -0.33700716495513916,
        0.5183480978012085,
        -0.36469539999961853,
        0.006505484692752361,
        -0.20113317668437958,
        -0.3101009130477905,
        0.40092673897743225,
        0.07494576275348663,
        -0.23512493073940277,
        -0.3736652731895447,
        0.33651041984558105,
        0.022670738399028778,
        -0.4357519745826721,
        -0.39632686972618103,
        0.4191681146621704,
        0.31195661425590515,
        -0.3810545802116394,
        0.4993950426578522,
        0.1412326544523239,
        -0.3659250736236572,
        -0.4365827441215515,
        0.46716994047164917,
        0.25454723834991455,
        -0.3545898497104645,
        0.03779486566781998,
        -0.04316772520542145,
        -0.04224557429552078,
        0.29900550842285156,
        0.3091515302658081,
        -0.27705591917037964,
        0.07826598733663559,
        -0.28842082619667053,
        -0.04143678769469261,
        -0.24552708864212036,
        -0.018471160903573036,
        0.044796328991651535,
        -0.03678972274065018,
        0.35183030366897583,
        0.2654849886894226,
        -0.2911355495452881,
        0.06805945932865143,
        -0.36884406208992004,
        0.031145717948675156,
        -0.28962522745132446,
        -0.027555258944630623,
        0.0015989288222044706,
        0.06499089300632477,
        0.017804065719246864,
        0.05738232284784317,
        -0.2370082288980484,
        -0.004313569515943527,
        -0.03347830846905708,
        -0.2640525698661804,
        -0.2547157406806946,
        0.2614588737487793,
        0.04026317968964577,
        0.3879302740097046,
        -0.22193491458892822,
        0.32308462262153625,
        0.3470778465270996,
        -0.31825026869773865,
        0.15351030230522156,
        0.0518437884747982,
        0.05396846681833267,
        -0.2705637514591217,
        0.10576121509075165,
        -0.00983524788171053,
        0.3339664340019226,
        0.06308948993682861,
        -0.15284979343414307,
        0.14457635581493378,
        -0.2813951373100281,
        -0.13265317678451538,
        0.4565586447715759,
        0.037056758999824524,
        0.09772047400474548,
        0.0017499359091743827,
        -0.20113997161388397,
        0.040842775255441666,
        -0.060310520231723785,
        -0.04687543958425522,
        0.5440260171890259,
        0.29134273529052734,
        0.03084057755768299,
        -0.007822391577064991,
        -0.07598237693309784
      ],
      [
        -0.02244795486330986,
        -0.028624769300222397,
        -0.028326978906989098,
        -0.01531981211155653,
        -0.011763297952711582,
        -0.042891643941402435,
        -0.016787664964795113,
        -0.09060321748256683,
        -0.012909219600260258,
        -0.0014623256865888834,
        0.014111995697021484,
        -0.010777710936963558,
        -0.0022046640515327454,
        0.019398337230086327,
        0.043787360191345215,
        0.01820712350308895,
        -0.09644096344709396,
        -0.09170161932706833,
        0.035740457475185394,
        -0.0006316330400295556,
        -0.004036711063235998,
        -0.02493062987923622,
        -0.09697473049163818,
        -0.04325750470161438,
        0.07117950916290283,
        0.08604752272367477,
        0.025317516177892685,
        -0.040819089859724045,
        -0.04416833817958832,
        0.0020373747684061527,
        -0.047150347381830215,
        -0.05589013546705246,
        -0.018448606133461,
        -0.11607678979635239,
        0.08312880247831345,
        0.08918412774801254,
        -0.07676871120929718,
        -0.3940810561180115,
        0.4349665641784668,
        0.5367084741592407,
        -0.08855010569095612,
        0.5980709195137024,
        -0.2579287588596344,
        0.08874943107366562,
        0.4687310457229614,
        -0.44191956520080566,
        -0.01539243571460247,
        -0.4118505120277405,
        -0.04035523161292076,
        -0.3430030941963196,
        -0.16353628039360046,
        0.13987885415554047,
        0.41332942247390747,
        -0.08787493407726288,
        -0.3899115324020386,
        -0.25648966431617737,
        0.1962348222732544,
        0.446194589138031,
        -0.09378307312726974,
        -0.38158920407295227,
        0.4144743084907532,
        0.4403570294380188,
        -0.018696200102567673,
        0.5259389877319336,
        -0.3371373414993286,
        0.036271095275878906,
        0.4137950539588928,
        -0.5040327310562134,
        -0.11977460980415344,
        -0.47946321964263916,
        0.05770313739776611,
        -0.4562796354293823,
        0.358053594827652,
        0.42329591512680054,
        -0.08770526200532913,
        -0.3061029314994812,
        0.04988924786448479,
        0.3616844415664673,
        -0.10206665843725204,
        -0.4050024151802063,
        -0.41390669345855713,
        -0.0711529329419136,
        0.3610522150993347,
        0.15936779975891113,
        -0.347809761762619,
        -0.12288698554039001,
        0.2928141951560974,
        0.20875540375709534,
        0.26147136092185974,
        0.5117335319519043,
        -0.3370058238506317,
        0.01142929494380951,
        -0.6172240376472473,
        -0.440346360206604,
        0.22417329251766205,
        0.3382737636566162,
        0.5759768486022949,
        -0.39115312695503235,
        -0.0204935185611248,
        -0.698993444442749,
        -0.449063777923584,
        0.014651143923401833,
        0.010220061056315899,
        -0.004299935884773731,
        0.23564374446868896,
        -0.13055148720741272,
        -0.19455024600028992,
        0.06755479425191879,
        0.29327186942100525,
        -0.060980428010225296,
        -0.4687337875366211,
        -0.0029425788670778275,
        0.019334664568305016,
        -0.043505266308784485,
        0.27678629755973816,
        -0.21039985120296478,
        -0.21761924028396606,
        -0.0018267376581206918,
        0.3915700614452362,
        0.05480503290891647,
        -0.4000486135482788,
        -0.03836958482861519,
        -0.021883539855480194,
        0.07012318074703217,
        -0.015978597104549408,
        -0.003630954073742032,
        -0.4435178339481354,
        -0.4683758318424225,
        -0.004581835120916367,
        -0.26850390434265137,
        0.38179445266723633,
        -0.09396429359912872,
        0.07130657881498337,
        0.5486263632774353,
        -0.33188289403915405,
        -0.06544838100671768,
        0.44871482253074646,
        0.25943610072135925,
        0.07449765503406525,
        0.013957543298602104,
        -0.07231983542442322,
        -0.0926201194524765,
        0.004276844207197428,
        0.01601751521229744,
        0.034100908786058426,
        -0.02631998434662819,
        -0.36635252833366394,
        -0.14685991406440735,
        0.17903833091259003,
        0.2518436908721924,
        0.1259232461452484,
        -0.039949942380189896,
        -0.0651143416762352,
        -0.04065415635704994,
        -0.061437416821718216,
        -0.018427086994051933,
        0.030329572036862373,
        0.06955478340387344,
        0.3031439781188965,
        0.18578508496284485,
        -0.05712110549211502,
        0.01032339595258236,
        0.0033863848075270653
      ],
      [
        0.0752011388540268,
        0.04009651765227318,
        -0.04095428064465523,
        -0.01565873995423317,
        0.09925689548254013,
        -0.061122287064790726,
        -0.045209743082523346,
        -0.30670365691185,
        0.06434807181358337,
        0.06549052894115448,
        0.02758805640041828,
        0.12493038922548294,
        0.16118083894252777,
        0.015159905888140202,
        0.0540442019701004,
        0.06037859991192818,
        0.06440147757530212,
        -0.01078111119568348,
        0.06596799939870834,
        0.020244283601641655,
        0.037650592625141144,
        -0.07023782283067703,
        0.05173356831073761,
        0.04724977910518646,
        -0.19648274779319763,
        -0.19732414186000824,
        -0.1417464017868042,
        -0.28455331921577454,
        -0.007629436440765858,
        0.493987113237381,
        -0.07775959372520447,
        -0.022702524438500404,
        -0.005894342437386513,
        -0.05295555666089058,
        -0.11023055762052536,
        -0.13548283278942108,
        -0.009939279407262802,
        0.38579151034355164,
        -0.36561211943626404,
        0.3812880218029022,
        -0.14672930538654327,
        -0.48559677600860596,
        -0.3002401888370514,
        0.4302617907524109,
        -0.13066315650939941,
        0.3299295902252197,
        0.3406732678413391,
        -0.21410596370697021,
        0.0017604249296709895,
        0.276635080575943,
        -0.20883040130138397,
        -0.06330741196870804,
        0.4088709056377411,
        0.32691529393196106,
        0.4050293266773224,
        -0.2965637147426605,
        -0.1811639964580536,
        0.39784330129623413,
        0.3981592059135437,
        0.36210957169532776,
        -0.38733866810798645,
        0.4555308520793915,
        -0.12722676992416382,
        -0.49774640798568726,
        -0.30074095726013184,
        0.4609454870223999,
        -0.16793198883533478,
        0.31638407707214355,
        0.40205466747283936,
        -0.2800969183444977,
        -0.07539183646440506,
        0.3352484405040741,
        -0.4581893980503082,
        0.3546472489833832,
        -0.05633789673447609,
        -0.23277784883975983,
        0.482856810092926,
        -0.12344009429216385,
        0.4507381319999695,
        -0.32912972569465637,
        0.41368862986564636,
        -0.21676050126552582,
        0.3400754928588867,
        -0.1538666933774948,
        0.3964322507381439,
        -0.16794444620609283,
        0.38303664326667786,
        -0.07654128223657608,
        -0.3636697828769684,
        -0.4768965542316437,
        0.3953605890274048,
        -0.004800442606210709,
        0.5804189443588257,
        -0.3272521197795868,
        0.40577876567840576,
        -0.3883402943611145,
        -0.45709848403930664,
        0.5157520174980164,
        0.008268310688436031,
        0.6642875075340271,
        -0.24458381533622742,
        -0.08785988390445709,
        -0.07017926126718521,
        0.07393785566091537,
        0.3338156044483185,
        -0.4589921534061432,
        -0.16832523047924042,
        -0.0009033546666614711,
        -0.22239133715629578,
        0.007884997874498367,
        -0.2652814984321594,
        0.05676113814115524,
        0.030087029561400414,
        -0.06413090974092484,
        0.3938238024711609,
        -0.4501567780971527,
        -0.19530315697193146,
        -0.066014364361763,
        -0.28046396374702454,
        -0.008289195597171783,
        -0.28547579050064087,
        0.04347139969468117,
        -0.05650261044502258,
        -0.06689188629388809,
        0.04821513220667839,
        -0.05344867706298828,
        0.23221616446971893,
        -0.4316007196903229,
        -0.02384001761674881,
        -0.4111228883266449,
        -0.3259608745574951,
        -0.5900964736938477,
        0.06902826577425003,
        -0.27592772245407104,
        0.647323489189148,
        -0.44695255160331726,
        0.042799726128578186,
        0.4307851195335388,
        -0.04939599707722664,
        0.0305626280605793,
        0.06602853536605835,
        0.201010599732399,
        -0.1519232541322708,
        0.0060820975340902805,
        0.43086138367652893,
        -0.04641543701291084,
        -0.07823728024959564,
        -0.11204171925783157,
        0.3075487017631531,
        0.27943795919418335,
        0.6332413554191589,
        0.059915222227573395,
        -0.15361009538173676,
        -0.0751570612192154,
        0.01518260221928358,
        -0.045517973601818085,
        -0.004795609973371029,
        -0.006365537643432617,
        0.4162929356098175,
        0.1873268038034439,
        -0.03463602438569069,
        -0.046709660440683365,
        0.010458925738930702
      ],
      [
        0.05142239108681679,
        -0.04540983960032463,
        0.07000333070755005,
        0.07360886037349701,
        0.07464201748371124,
        0.05340661108493805,
        -0.017494797706604004,
        0.21678920090198517,
        -0.07141470164060593,
        -0.026102980598807335,
        0.0038966804277151823,
        0.061961580067873,
        -0.040064290165901184,
        0.029089689254760742,
        -0.00179586885496974,
        0.01604360342025757,
        -0.062361303716897964,
        -0.06633004546165466,
        -0.052558138966560364,
        -0.0018665700918063521,
        0.052766211330890656,
        0.020760929211974144,
        -0.017311325296759605,
        -0.0571344755589962,
        0.1298336386680603,
        0.06883182376623154,
        -0.06706303358078003,
        0.26177239418029785,
        -0.10128778964281082,
        -0.07213990390300751,
        0.07167870551347733,
        -0.03582032769918442,
        -0.06929025053977966,
        0.01745694689452648,
        0.06446966528892517,
        0.12455519288778305,
        0.2519650459289551,
        0.4741175174713135,
        -0.34476515650749207,
        0.037622448056936264,
        -0.347046434879303,
        -0.2756250500679016,
        -0.10865294933319092,
        -0.402683824300766,
        -0.4051068127155304,
        0.27783501148223877,
        -0.16818882524967194,
        0.4009791314601898,
        0.0350993387401104,
        0.3581891655921936,
        -0.29329898953437805,
        -0.054764457046985626,
        -0.04362296313047409,
        -0.14424708485603333,
        0.4031042158603668,
        -0.30560311675071716,
        0.046360649168491364,
        -0.10939977318048477,
        -0.16195206344127655,
        0.3788178265094757,
        -0.386309415102005,
        -0.0210479237139225,
        -0.4129430651664734,
        -0.22016139328479767,
        -0.0707407146692276,
        -0.404843270778656,
        -0.3230864703655243,
        0.24870090186595917,
        -0.15314902365207672,
        0.390031099319458,
        -0.04165463522076607,
        0.42376643419265747,
        -0.4299575686454773,
        -0.05222480744123459,
        -0.3658316731452942,
        -0.05803427845239639,
        -0.4477410316467285,
        -0.4384869933128357,
        -0.2558334171772003,
        0.36604729294776917,
        0.36301130056381226,
        0.21510587632656097,
        -0.40617987513542175,
        -0.322955459356308,
        0.48337113857269287,
        0.265928715467453,
        -0.4261053502559662,
        -0.3758523464202881,
        -0.3803856670856476,
        -0.21685633063316345,
        0.08525249361991882,
        -0.2884206473827362,
        0.1384521722793579,
        0.48424604535102844,
        -0.2151583731174469,
        -0.42575588822364807,
        -0.2753992974758148,
        0.08846542239189148,
        -0.20519186556339264,
        0.18060962855815887,
        0.41464611887931824,
        -0.025061622262001038,
        -0.03318789228796959,
        -0.044870324432849884,
        0.10777267068624496,
        -0.4017447233200073,
        -0.10167612880468369,
        0.034430552273988724,
        -0.4307284951210022,
        0.0330490842461586,
        0.3980908989906311,
        0.020063655450940132,
        0.0728137344121933,
        -0.03615489602088928,
        -0.03720315545797348,
        -0.3865976631641388,
        -0.18733878433704376,
        0.02541922777891159,
        -0.3443976640701294,
        -0.03582676127552986,
        0.33215978741645813,
        0.04537034034729004,
        0.00016059970948845148,
        0.06549017876386642,
        -0.029994675889611244,
        0.010645566508173943,
        0.15214656293392181,
        0.36695724725723267,
        0.0586414709687233,
        -0.08576004207134247,
        -0.3441566824913025,
        -0.38223952054977417,
        0.019436346367001534,
        0.09811168164014816,
        -0.47221121191978455,
        -0.26613539457321167,
        -0.02054169774055481,
        -0.28019067645072937,
        0.2918420433998108,
        0.04278974607586861,
        -0.04652361199259758,
        -0.01669388636946678,
        0.015659185126423836,
        -0.05314032360911369,
        -0.008631987497210503,
        0.048912033438682556,
        -0.0014099517138674855,
        0.07114327698945999,
        -0.05291159078478813,
        -0.32194048166275024,
        0.0895254984498024,
        -0.05769103020429611,
        -0.09299905598163605,
        -0.028235461562871933,
        0.09556712955236435,
        -0.11453113704919815,
        -0.05205364152789116,
        -0.007605853024870157,
        -0.010380464605987072,
        0.16625018417835236,
        0.07590506225824356,
        0.05961313471198082,
        0.0761638954281807
      ],
      [
        -0.07452276349067688,
        0.06980638951063156,
        -0.06081651523709297,
        -0.10794244706630707,
        -0.04679320007562637,
        -0.018913911655545235,
        -0.03474576398730278,
        0.05035419017076492,
        0.07453673332929611,
        -0.006375873927026987,
        -0.1698037087917328,
        -0.11225069314241409,
        -0.15889722108840942,
        0.0038063866086304188,
        0.05803629010915756,
        0.06438196450471878,
        0.015275399200618267,
        -0.050428230315446854,
        -0.04436985403299332,
        0.04235575348138809,
        0.03241266310214996,
        -0.04302622005343437,
        0.021421385928988457,
        -0.027821069583296776,
        -0.04279951751232147,
        0.08992038667201996,
        0.09503467381000519,
        -0.13752080500125885,
        0.046033188700675964,
        -0.4251621663570404,
        0.04194793477654457,
        0.028478175401687622,
        -0.021367914974689484,
        -0.03854534029960632,
        0.02001260779798031,
        0.0640794113278389,
        -0.046356286853551865,
        -0.4490100145339966,
        -0.5753929018974304,
        -0.40247413516044617,
        0.22020012140274048,
        0.4404681921005249,
        0.4737253189086914,
        0.48998066782951355,
        0.36758145689964294,
        0.40485361218452454,
        -0.2638128995895386,
        0.3900870382785797,
        0.06734824180603027,
        -0.3595750331878662,
        0.1873779296875,
        0.29314374923706055,
        -0.4604141116142273,
        -0.22444036602973938,
        -0.4300422668457031,
        0.09435298293828964,
        0.33286115527153015,
        -0.34200385212898254,
        -0.20494624972343445,
        -0.43920502066612244,
        -0.5016690492630005,
        -0.4507633447647095,
        0.11986872553825378,
        0.4124075472354889,
        0.43523097038269043,
        0.4588848650455475,
        0.45015010237693787,
        0.5078059434890747,
        -0.22749245166778564,
        0.4401714503765106,
        -0.06823354214429855,
        -0.34036266803741455,
        -0.5998381972312927,
        -0.4197785556316376,
        0.23817938566207886,
        0.4069705009460449,
        0.3715454638004303,
        0.40183520317077637,
        -0.14722198247909546,
        0.4183381199836731,
        -0.34146663546562195,
        0.24592652916908264,
        0.4926876723766327,
        -0.19284912943840027,
        -0.3931339383125305,
        0.27913177013397217,
        0.4133695662021637,
        -0.13205547630786896,
        -0.5341269969940186,
        0.26450541615486145,
        0.2776902914047241,
        -0.05722304806113243,
        0.3881002366542816,
        0.46976593136787415,
        -0.24069969356060028,
        -0.5664523839950562,
        0.3575012981891632,
        0.4241850972175598,
        -0.04442250728607178,
        0.3843238353729248,
        0.4468434453010559,
        0.02917095273733139,
        0.008444818668067455,
        -0.056158121675252914,
        -0.3070608377456665,
        0.23250678181648254,
        0.4782741367816925,
        0.07155569642782211,
        0.2849554717540741,
        0.07769925147294998,
        0.3593822717666626,
        -0.06071912869811058,
        0.043257661163806915,
        0.06379374861717224,
        -0.2458205670118332,
        0.33733388781547546,
        0.46364498138427734,
        0.0430976040661335,
        0.35149407386779785,
        -0.06714384257793427,
        0.3475516438484192,
        0.011037775315344334,
        0.0625942200422287,
        -0.008927681483328342,
        0.03719431534409523,
        -0.07497048377990723,
        0.05115356668829918,
        0.4055663049221039,
        0.022813253104686737,
        0.44745343923568726,
        0.5032117962837219,
        0.5516846179962158,
        -0.013214433565735817,
        0.0048749325796961784,
        -0.48707854747772217,
        0.3915948271751404,
        -0.2713860273361206,
        -0.313117116689682,
        -0.18808278441429138,
        0.03786740452051163,
        -0.06759646534919739,
        0.03673500195145607,
        0.055719371885061264,
        0.03155510872602463,
        -0.2218436896800995,
        0.04884592816233635,
        0.3399796187877655,
        0.1766466349363327,
        -0.30923235416412354,
        -0.33934295177459717,
        -0.46128177642822266,
        -0.04035358130931854,
        0.09735283255577087,
        -0.017142316326498985,
        -0.13064289093017578,
        -0.031189875677227974,
        0.07460016757249832,
        0.07320783287286758,
        -0.35836347937583923,
        -0.3077019155025482,
        -0.04944262653589249,
        -0.025658903643488884,
        -0.07563550770282745
      ],
      [
        -0.07614545524120331,
        0.00410374253988266,
        0.058753758668899536,
        0.24495239555835724,
        0.010360687971115112,
        -0.02410256117582321,
        0.048081547021865845,
        0.397819459438324,
        0.013947094790637493,
        -0.07132622599601746,
        0.04412868246436119,
        0.13202480971813202,
        0.03673717752099037,
        -0.06310774385929108,
        -0.06511375308036804,
        0.04272745922207832,
        -0.0032086640130728483,
        -0.03679537773132324,
        0.056507185101509094,
        0.04649394378066063,
        0.042450882494449615,
        0.04510825499892235,
        -0.03713616356253624,
        -0.02729903720319271,
        -0.13067713379859924,
        -0.08095316588878632,
        -0.13950441777706146,
        0.11330972611904144,
        -0.07757622003555298,
        0.26538631319999695,
        0.030149055644869804,
        -0.04921148717403412,
        -0.0014123172732070088,
        -0.018346864730119705,
        -0.029215792194008827,
        -0.031177492812275887,
        0.23246966302394867,
        0.3923908770084381,
        0.39040717482566833,
        -0.12006222456693649,
        -0.39448651671409607,
        0.4736066460609436,
        0.14815378189086914,
        -0.5338576436042786,
        0.4191737174987793,
        0.45903247594833374,
        0.1776280552148819,
        0.3165065348148346,
        0.05584898591041565,
        0.36457201838493347,
        -0.3208458423614502,
        0.1848488748073578,
        -0.3205329477787018,
        0.07696238905191422,
        0.2732149362564087,
        -0.40327081084251404,
        0.15830719470977783,
        -0.2672259509563446,
        0.18833331763744354,
        0.35301026701927185,
        0.42074084281921387,
        -0.24864956736564636,
        -0.24465630948543549,
        0.4844878613948822,
        0.1504795253276825,
        -0.5951645374298096,
        0.4431018531322479,
        0.4915536940097809,
        0.1055925041437149,
        0.3498819172382355,
        -0.015032105147838593,
        0.27384069561958313,
        0.3615409731864929,
        -0.11115147918462753,
        -0.2815886437892914,
        0.12479167431592941,
        -0.5553802847862244,
        0.4664122760295868,
        0.163898766040802,
        0.2677887976169586,
        0.3476954996585846,
        -0.003417479805648327,
        -0.40124472975730896,
        -0.06171257793903351,
        0.32205531001091003,
        -0.0545336976647377,
        -0.42347654700279236,
        0.06933864951133728,
        0.48246628046035767,
        0.47828811407089233,
        -0.5765333771705627,
        -0.30908921360969543,
        0.3016898036003113,
        0.39364224672317505,
        -0.15013915300369263,
        0.45312315225601196,
        0.5409970283508301,
        -0.4461883306503296,
        -0.25143808126449585,
        0.16755113005638123,
        0.25132763385772705,
        -0.020049601793289185,
        0.03882936015725136,
        -0.06517216563224792,
        -0.10942359268665314,
        -0.3079569935798645,
        0.050752513110637665,
        -0.018114881590008736,
        0.42955100536346436,
        0.010092337615787983,
        0.32035401463508606,
        -0.05002621188759804,
        0.051569677889347076,
        0.007881402969360352,
        -0.18365053832530975,
        -0.33294305205345154,
        -0.019240323454141617,
        0.0679924413561821,
        0.4065209925174713,
        -0.06044042110443115,
        0.2770749032497406,
        -0.009522666223347187,
        -0.03023654595017433,
        -0.07415944337844849,
        -0.05103207007050514,
        -0.06572818756103516,
        0.20163118839263916,
        0.11092820763587952,
        0.009696160443127155,
        0.0004857951425947249,
        0.21002529561519623,
        -0.5519282817840576,
        0.008982052095234394,
        -0.40629953145980835,
        -0.025764551013708115,
        -0.43138906359672546,
        -0.21336643397808075,
        0.08903912454843521,
        0.3224394619464874,
        0.06767476350069046,
        -0.09567410498857498,
        0.14399196207523346,
        -0.15109463036060333,
        -0.010121180675923824,
        0.29830169677734375,
        -0.01862386055290699,
        0.04444718360900879,
        -0.1068337932229042,
        0.24938824772834778,
        -0.2543034553527832,
        0.5382204055786133,
        -0.05840329825878143,
        -0.3683162033557892,
        0.30976933240890503,
        0.1798248589038849,
        -0.06547952443361282,
        0.012963655404746532,
        -0.005378260277211666,
        -0.12407056242227554,
        -0.11687209457159042,
        -0.028533535078167915,
        0.0759669840335846,
        0.05553402379155159
      ],
      [
        -0.05960901081562042,
        0.0011766449315473437,
        -0.06184497848153114,
        -0.1598389595746994,
        -0.31508946418762207,
        -0.04033959284424782,
        0.07062406837940216,
        -0.30964934825897217,
        -0.012892963364720345,
        -0.02633557841181755,
        -0.10761845111846924,
        -0.16681092977523804,
        -0.11585596948862076,
        -0.03211403265595436,
        -0.060452550649642944,
        0.04467527195811272,
        -0.05520603433251381,
        -0.041202787309885025,
        -0.055645596235990524,
        0.015566556714475155,
        0.0393558070063591,
        0.034385621547698975,
        -0.027177801355719566,
        0.010878062807023525,
        -0.2635655105113983,
        -0.2733094394207001,
        0.004543175455182791,
        -0.31390416622161865,
        -0.027174992486834526,
        0.19764311611652374,
        -0.06293290108442307,
        -0.05423621088266373,
        0.03652733191847801,
        -0.04630937799811363,
        -0.17119547724723816,
        -0.21227219700813293,
        -0.2243969440460205,
        0.3237692415714264,
        -0.3747439980506897,
        -0.5248100757598877,
        0.22489020228385925,
        -0.3641708791255951,
        -0.29349133372306824,
        -0.255018025636673,
        -0.24492625892162323,
        -0.12483541667461395,
        0.43087708950042725,
        -0.19593337178230286,
        0.006067905109375715,
        0.32649901509284973,
        0.38665372133255005,
        -0.3640429973602295,
        -0.39607852697372437,
        0.3528687357902527,
        0.27245384454727173,
        0.30318203568458557,
        -0.40234094858169556,
        -0.44067198038101196,
        0.4011426568031311,
        0.2522414028644562,
        -0.34348738193511963,
        -0.4567808210849762,
        0.22900216281414032,
        -0.35332009196281433,
        -0.26144564151763916,
        -0.30197545886039734,
        -0.21722574532032013,
        -0.15946650505065918,
        0.3742074966430664,
        -0.24928666651248932,
        -0.06699272245168686,
        0.24492518603801727,
        -0.2854263186454773,
        -0.513990581035614,
        0.20128512382507324,
        -0.2916286289691925,
        -0.24290359020233154,
        -0.17998798191547394,
        0.38770103454589844,
        -0.21359992027282715,
        0.3100598156452179,
        -0.40221768617630005,
        -0.198997363448143,
        0.13844096660614014,
        0.24515357613563538,
        -0.2545241117477417,
        -0.29986125230789185,
        0.11747764050960541,
        -0.38925135135650635,
        -0.21211692690849304,
        -0.10439686477184296,
        0.30102190375328064,
        0.12396792322397232,
        -0.12448303401470184,
        0.41014841198921204,
        -0.4480997323989868,
        -0.3196106553077698,
        -0.06832238286733627,
        0.2579488754272461,
        0.09243393689393997,
        -0.18666867911815643,
        0.034970443695783615,
        -0.056950364261865616,
        -0.06884414702653885,
        -0.39978212118148804,
        0.3151131868362427,
        -0.19025209546089172,
        -0.005217417608946562,
        -0.25441136956214905,
        -0.0473320297896862,
        -0.18752354383468628,
        0.02244463935494423,
        -0.043986205011606216,
        0.06194404512643814,
        -0.41666027903556824,
        0.2727090120315552,
        -0.22829708456993103,
        0.04223041981458664,
        -0.15989667177200317,
        -0.06958459317684174,
        -0.1555889993906021,
        0.017942432314157486,
        -0.01489136554300785,
        -0.019564302638173103,
        0.024714866653084755,
        0.008379579521715641,
        0.02226369082927704,
        0.33741825819015503,
        0.052562396973371506,
        0.2831795811653137,
        0.21678519248962402,
        0.29765358567237854,
        0.014665143564343452,
        -0.3362579345703125,
        0.44682490825653076,
        0.34216198325157166,
        -0.17935003340244293,
        -0.4167012870311737,
        0.4186519980430603,
        0.05444484204053879,
        0.003661148017272353,
        -0.040512315928936005,
        -0.011544713750481606,
        -0.03989272564649582,
        -0.014953849837183952,
        0.06587634235620499,
        0.2831723988056183,
        0.23772026598453522,
        -0.2667410373687744,
        -0.2836378514766693,
        -0.004369523376226425,
        -0.04055682197213173,
        -0.04712960496544838,
        -0.06940613687038422,
        -0.27703022956848145,
        0.0036768328864127398,
        0.07477562874555588,
        -0.053570862859487534,
        -0.29813051223754883,
        -0.42336273193359375,
        -0.024010656401515007,
        0.0600484162569046,
        0.03440944105386734
      ]
    ]
  },
  "schemaVersion": "temporal-student-v3",
  "sourceDataset": "perception_supervision+teacher_backed",
  "targets": {
    "eventFamily": {
      "bias": [
        0.3789849281311035,
        -0.23140773177146912,
        -0.10609620809555054,
        -0.2925451695919037,
        0.058525025844573975
      ],
      "classes": [
        "shot_attempt",
        "turnover",
        "defensive_event",
        "transition",
        "other"
      ],
      "marginThreshold": 0.06,
      "temperature": 1.0,
      "topK": 3,
      "uncertaintyThreshold": 0.48,
      "weight": [
        [
          0.5066328048706055,
          0.2002491056919098,
          -0.2289993017911911,
          0.28322073817253113,
          -0.352876216173172,
          -0.07727283984422684,
          -0.4231741726398468,
          0.5237565040588379,
          -0.03201791271567345,
          -0.5506885051727295,
          0.13925780355930328,
          -0.13238348066806793,
          -0.012415600009262562,
          0.3717106282711029,
          0.17411772906780243,
          -0.4413158595561981,
          0.3615339696407318,
          0.102869912981987,
          -0.29283571243286133,
          0.1892138421535492,
          -0.30978909134864807,
          -0.1506580412387848,
          -0.21442145109176636,
          0.39219751954078674,
          -0.001669553224928677,
          -0.5143738985061646,
          0.18708999454975128,
          -0.04560358449816704,
          -0.1117628961801529,
          0.3096539080142975,
          0.30382040143013,
          -0.4925408959388733,
          0.2600819766521454,
          0.08395781368017197,
          -0.11055124551057816,
          0.22619061172008514,
          -0.4221351444721222,
          -0.04089820757508278,
          -0.30343756079673767,
          0.5109001994132996,
          -0.17904560267925262,
          -0.429261714220047,
          0.09113703668117523,
          -0.032389309257268906,
          -0.20546609163284302,
          0.41566020250320435,
          0.33425769209861755,
          -0.30812975764274597,
          0.1687607765197754,
          -0.18346306681632996,
          -0.14436572790145874,
          -0.21323129534721375,
          -0.0552179217338562,
          0.22465547919273376,
          0.05131823569536209,
          -0.4415246844291687,
          0.07660308480262756,
          0.16734391450881958,
          -0.014418560080230236,
          -0.40491676330566406,
          -0.02787521667778492,
          -0.29838109016418457,
          0.38614222407341003,
          0.2530116140842438
        ],
        [
          0.21235208213329315,
          0.357302188873291,
          -0.13072435557842255,
          0.051766205579042435,
          -0.05919720605015755,
          -0.28211653232574463,
          -0.11526963114738464,
          -0.3964720070362091,
          0.016361184418201447,
          0.479045033454895,
          -0.24120981991291046,
          0.41220414638519287,
          -0.2605728209018707,
          -0.2942083775997162,
          0.16901186108589172,
          0.5850821733474731,
          0.2676597833633423,
          0.4423905909061432,
          -0.13524630665779114,
          -0.1319040209054947,
          0.09541822969913483,
          -0.16398973762989044,
          -0.0948977842926979,
          -0.37980300188064575,
          0.09716304391622543,
          0.44001254439353943,
          -0.30095288157463074,
          0.2612159550189972,
          -0.31275343894958496,
          -0.2568664848804474,
          0.1792290061712265,
          0.5976191163063049,
          0.3021647334098816,
          0.45854538679122925,
          -0.1886935830116272,
          -0.09260185062885284,
          0.006634299643337727,
          -0.3797982335090637,
          0.006414414383471012,
          -0.3553489148616791,
          0.01255884114652872,
          0.6191567182540894,
          -0.2446892112493515,
          0.35112452507019043,
          -0.21059291064739227,
          -0.2730284035205841,
          0.14249436557292938,
          0.5563794374465942,
          0.11520841717720032,
          0.11572741717100143,
          -0.025073042139410973,
          0.11661228537559509,
          0.11484809964895248,
          0.20120419561862946,
          -0.011962111108005047,
          0.25543832778930664,
          -0.11081759631633759,
          0.2629612386226654,
          0.3398599624633789,
          -0.08231598883867264,
          -0.21979396045207977,
          0.12248843163251877,
          0.03982795029878616,
          0.042302705347537994
        ],
        [
          -0.1551794707775116,
          -0.11410843580961227,
          0.16535136103630066,
          -0.016348913311958313,
          0.230654776096344,
          -0.17665018141269684,
          0.2063084989786148,
          -0.07752261310815811,
          0.251593679189682,
          -0.13447445631027222,
          -0.2071501463651657,
          0.1616262048482895,
          0.3268612027168274,
          -0.32487013936042786,
          0.1927880346775055,
          0.13844630122184753,
          -0.3158585727214813,
          -0.08479054272174835,
          0.35049331188201904,
          -0.13817445933818817,
          0.25448673963546753,
          -0.4039209485054016,
          0.32359418272972107,
          -0.2375979721546173,
          0.3060303330421448,
          -0.22474846243858337,
          -0.2661129832267761,
          0.22865857183933258,
          0.49827736616134644,
          -0.2639845609664917,
          0.4182496666908264,
          0.16183161735534668,
          -0.32911553978919983,
          0.06580746173858643,
          0.17216981947422028,
          0.011325318366289139,
          0.3580930829048157,
          -0.35130923986434937,
          0.41381728649139404,
          -0.1656619906425476,
          0.3373739421367645,
          -0.1742583066225052,
          -0.1881701946258545,
          0.31451311707496643,
          0.4429037272930145,
          -0.22695426642894745,
          0.28547969460487366,
          0.26106399297714233,
          -0.2741375267505646,
          0.24026596546173096,
          0.2857908606529236,
          0.031024161726236343,
          0.21238340437412262,
          -0.33582788705825806,
          -0.13072086870670319,
          -0.06235760450363159,
          -0.20961447060108185,
          -0.3672882914543152,
          0.14054851233959198,
          0.32637402415275574,
          3.771909177885391e-05,
          0.09042281657457352,
          -0.1442604959011078,
          -0.1878575086593628
        ],
        [
          -0.4512368440628052,
          0.41367489099502563,
          0.38795652985572815,
          -0.21768464148044586,
          0.22075892984867096,
          0.4479673504829407,
          0.09082098305225372,
          -0.09850773215293884,
          -0.04837759584188461,
          0.4830054044723511,
          0.44191184639930725,
          0.1254461705684662,
          0.07336347550153732,
          -0.2619251608848572,
          -0.20313161611557007,
          -0.5287681221961975,
          -0.375565767288208,
          0.4228094816207886,
          0.2251264750957489,
          -0.17622724175453186,
          0.1818942129611969,
          0.42359814047813416,
          -0.05744123086333275,
          -0.2168513536453247,
          0.1371462196111679,
          0.33399656414985657,
          0.41334936022758484,
          0.1229894682765007,
          0.060523904860019684,
          -0.4596538841724396,
          -0.17418627440929413,
          -0.3676796555519104,
          -0.5329515337944031,
          0.4798012971878052,
          0.2912047207355499,
          0.010625871829688549,
          0.032639674842357635,
          0.24251516163349152,
          -0.029904520139098167,
          -0.218406543135643,
          -0.022350633516907692,
          0.3556846082210541,
          0.45373427867889404,
          0.23378781974315643,
          0.016148211434483528,
          -0.3240337073802948,
          -0.1724115014076233,
          -0.5489361882209778,
          -0.19368205964565277,
          0.06774215400218964,
          0.33325469493865967,
          0.07745100557804108,
          0.21169114112854004,
          -0.4726322293281555,
          -0.03192800283432007,
          0.4209241569042206,
          0.07812735438346863,
          -0.5332529544830322,
          -0.14830122888088226,
          0.34195801615715027,
          -0.26992887258529663,
          0.14130647480487823,
          -0.15144099295139313,
          -0.08650093525648117
        ],
        [
          -0.19003920257091522,
          -0.5397701263427734,
          -0.017245152965188026,
          0.07681196928024292,
          0.19843922555446625,
          0.21404369175434113,
          0.14891961216926575,
          -0.31288856267929077,
          -0.20865926146507263,
          0.3170326352119446,
          -0.12946414947509766,
          -0.5481053590774536,
          -0.3737611174583435,
          0.3332703113555908,
          -0.6090572476387024,
          0.3342871367931366,
          -0.27431127429008484,
          -0.4543297588825226,
          -0.17963232100009918,
          0.1131463348865509,
          0.20751826465129852,
          0.3171883225440979,
          -0.006098526529967785,
          -0.4175345301628113,
          -0.31916090846061707,
          0.367026150226593,
          -0.2059537023305893,
          -0.5075871348381042,
          -0.17395944893360138,
          0.49393901228904724,
          -0.4144849479198456,
          0.36268988251686096,
          -0.28236857056617737,
          -0.44286370277404785,
          -0.05777307227253914,
          -0.06469514966011047,
          0.3326258063316345,
          0.29558807611465454,
          0.16936369240283966,
          -0.4515435993671417,
          -0.2477966845035553,
          0.3687857985496521,
          -0.27642661333084106,
          -0.45218324661254883,
          -0.3459480404853821,
          0.48600080609321594,
          -0.37824925780296326,
          0.502435564994812,
          0.22728338837623596,
          -0.2157474160194397,
          -0.2623959183692932,
          -0.3377664387226105,
          -0.1558271050453186,
          0.2877069413661957,
          0.1578807830810547,
          0.0995841845870018,
          0.48478198051452637,
          0.08983875811100006,
          -0.11197873950004578,
          0.17343346774578094,
          0.36996135115623474,
          -0.15436026453971863,
          -0.11164668202400208,
          -0.03506047651171684
        ]
      ]
    },
    "eventSpotter": {
      "bias": [
        0.16782410442829132,
        -0.07021608203649521,
        -0.3264075219631195,
        -0.0791143998503685,
        0.07775656878948212
      ],
      "classes": [
        "shot_attempt",
        "turnover",
        "defensive_event",
        "transition",
        "other"
      ],
      "marginThreshold": 0.08,
      "temperature": 1.0,
      "topK": 3,
      "uncertaintyThreshold": 0.5,
      "weight": [
        [
          0.25294506549835205,
          0.10467898845672607,
          0.055901214480400085,
          0.023803459480404854,
          -0.21385367214679718,
          0.002924014115706086,
          -0.11763570457696915,
          0.12514562904834747,
          0.07694276422262192,
          -0.4730614125728607,
          0.27764683961868286,
          -0.12213514745235443,
          0.025960301980376244,
          0.20832853019237518,
          0.16212549805641174,
          -0.3146747648715973,
          0.13516737520694733,
          0.14243198931217194,
          -0.04405495524406433,
          0.12634921073913574,
          -0.09463053196668625,
          0.013591128401458263,
          -0.10948344320058823,
          0.19307123124599457,
          -0.15524066984653473,
          -0.4552593529224396,
          0.11554967612028122,
          -0.0837676078081131,
          -0.010712960734963417,
          0.08231202512979507,
          0.23428945243358612,
          -0.3230656087398529,
          0.3065439462661743,
          0.06252572685480118,
          -0.023196833208203316,
          0.0031123070511966944,
          -0.20005781948566437,
          -0.16241803765296936,
          -0.11744070798158646,
          0.2596900761127472,
          -0.04057459905743599,
          -0.3729904294013977,
          0.10162083059549332,
          0.060117483139038086,
          -0.06738926470279694,
          0.20435994863510132,
          0.11027087271213531,
          -0.30224061012268066,
          0.03102949820458889,
          -0.10408156365156174,
          -0.07722712308168411,
          -0.23503239452838898,
          0.08534491062164307,
          -0.01709674298763275,
          0.17631672322750092,
          -0.20069903135299683,
          0.062025588005781174,
          0.1758100837469101,
          0.028146984055638313,
          -0.3620959520339966,
          0.0013888704124838114,
          -0.16128794848918915,
          0.12484360486268997,
          0.21941916644573212
        ],
        [
          -0.03839299455285072,
          0.126520574092865,
          -0.13698244094848633,
          0.08628541231155396,
          -0.14985135197639465,
          -0.2548973560333252,
          0.007835794240236282,
          -0.19872702658176422,
          0.11611659079790115,
          0.35160037875175476,
          -0.13246232271194458,
          0.07905999571084976,
          -0.14827360212802887,
          -0.1829499751329422,
          -0.010907163843512535,
          0.3165273368358612,
          0.059962883591651917,
          0.23419585824012756,
          -0.09383483976125717,
          -0.1156260147690773,
          -0.09007519483566284,
          -0.19106444716453552,
          0.04741665720939636,
          -0.1733245998620987,
          0.10636778920888901,
          0.4639417231082916,
          -0.2368362843990326,
          0.09276729077100754,
          -0.0825032964348793,
          -0.016455285251140594,
          -0.08813012391328812,
          0.41196900606155396,
          0.06404127180576324,
          0.3288933038711548,
          -0.07156630605459213,
          0.1660100817680359,
          0.002919100923463702,
          -0.08319127559661865,
          0.000781744543928653,
          -0.09869664907455444,
          0.03515936806797981,
          0.3750893175601959,
          -0.2656799256801605,
          0.06760983169078827,
          -0.16876527667045593,
          -0.22397680580615997,
          0.008648565039038658,
          0.4004809558391571,
          0.1072159856557846,
          0.05967064946889877,
          -0.06567371636629105,
          0.19670867919921875,
          0.004719521850347519,
          0.11388801038265228,
          -0.02877678908407688,
          0.37501320242881775,
          -0.037401631474494934,
          0.011716012842953205,
          0.10280612856149673,
          -0.035647206008434296,
          -0.11833742260932922,
          0.2737397849559784,
          -0.11323650926351547,
          -0.05622166022658348
        ],
        [
          -0.34757503867149353,
          -0.2094849944114685,
          0.08057111501693726,
          0.06429940462112427,
          0.19545339047908783,
          -0.145311176776886,
          0.36981305480003357,
          0.10222580283880234,
          0.18517614901065826,
          -0.18008099496364594,
          -0.38227343559265137,
          0.24342024326324463,
          0.4415232539176941,
          -0.3190426528453827,
          0.25460636615753174,
          0.011293158866465092,
          -0.34521710872650146,
          -0.22797730565071106,
          0.27756208181381226,
          -0.17372146248817444,
          0.3496911823749542,
          -0.29233649373054504,
          0.41583436727523804,
          0.031067978590726852,
          0.3525412678718567,
          -0.09636007994413376,
          -0.22848466038703918,
          0.3149247169494629,
          0.3614054024219513,
          -0.3263675272464752,
          0.33596134185791016,
          -0.026594052091240883,
          -0.2323683798313141,
          -0.23525860905647278,
          0.24766962230205536,
