{
  "attention": {
    "bias": 0.23722635209560394,
    "weight": [
      0.17409411072731018,
      0.0024102767929434776,
      -0.07961022853851318,
      0.08095785975456238,
      0.2531460225582123,
      -0.6752378344535828,
      0.4224398136138916,
      0.32343751192092896,
      0.510708212852478,
      -0.7612264156341553,
      0.10528837889432907,
      -0.284353107213974
    ]
  },
  "featureSchemaVersion": "temporal-student-feature-v1",
  "hiddenSize": 12,
  "inputFeatureNames": [
    "timestamp_seconds",
    "ball_visible",
    "hoop_visible",
    "ball_detection_confidence",
    "hoop_detection_confidence",
    "ball_track_count",
    "rim_track_count",
    "player_track_count",
    "tracked_player_count",
    "tracked_ball_confidence",
    "tracking_continuity",
    "detection_density",
    "tracking_density",
    "ball_near_rim",
    "ball_above_rim",
    "ball_arc_apex",
    "ball_through_hoop_likelihood",
    "possession_change_likelihood",
    "transition_likelihood",
    "player_to_rim_distance",
    "ball_carrier_speed",
    "transition_speed_score",
    "defender_proximity_at_shot",
    "shot_release_candidate",
    "same_play_continuity_score",
    "basketball_confidence",
    "rim_confidence",
    "runtime_confidence",
    "runtime_top_count",
    "source_ref_present",
    "human_verified",
    "clip_duration_seconds",
    "event_start_seconds",
    "event_center_seconds",
    "event_end_seconds",
    "event_duration_seconds",
    "event_localization_present",
    "event_localization_complete",
    "event_center_seconds_norm",
    "event_duration_seconds_norm",
    "shot_release_time_seconds",
    "ball_near_rim_time_seconds",
    "ball_through_hoop_time_seconds",
    "possession_change_time_seconds",
    "transition_start_time_seconds",
    "shot_release_offset_from_center",
    "ball_near_rim_offset_from_center",
    "ball_through_hoop_offset_from_center",
    "possession_change_offset_from_center",
    "transition_start_offset_from_center",
    "pre_roll_seconds",
    "post_roll_seconds",
    "source_event_count",
    "was_merged",
    "source_domain=hard_negative",
    "source_domain=live_runtime",
    "source_domain=live_staging",
    "source_domain=live_shadow",
    "source_domain=staging_smoke",
    "source_domain=teacher_pseudo",
    "source_domain=benchmark_eval",
    "source_domain=broadcast",
    "source_domain=fixed_camera_indoor",
    "source_domain=fixed_camera_outdoor",
    "source_domain=phone_casual",
    "source_kind=gold",
    "source_kind=runtime",
    "source_kind=silver",
    "source_kind=disagreement",
    "source_set=gold_set",
    "source_set=silver_set",
    "source_set=disagreement_queue",
    "source_set=phase4_in_domain",
    "source_set=phase4_pseudo_labels",
    "source_set=runtime_inference",
    "runtime_label=highlight",
    "runtime_label=dunk",
    "runtime_label=layup",
    "runtime_label=three_pointer",
    "runtime_label=made_shot",
    "runtime_label=block",
    "runtime_label=steal",
    "runtime_label=fast_break",
    "runtime_label=miss",
    "runtime_event_family=shot_attempt",
    "runtime_event_family=turnover",
    "runtime_event_family=defensive_event",
    "runtime_event_family=transition",
    "runtime_event_family=other",
    "runtime_outcome=made",
    "runtime_outcome=missed",
    "runtime_outcome=blocked",
    "runtime_outcome=uncertain",
    "runtime_shot_subtype=dunk",
    "runtime_shot_subtype=layup",
    "runtime_shot_subtype=jumper",
    "runtime_shot_subtype=three",
    "runtime_shot_subtype=putback",
    "runtime_shot_subtype=null",
    "runtime_display_label=highlight",
    "runtime_display_label=dunk",
    "runtime_display_label=layup",
    "runtime_display_label=three_pointer",
    "runtime_display_label=made_shot",
    "runtime_display_label=block",
    "runtime_display_label=steal",
    "runtime_display_label=fast_break",
    "runtime_display_label=miss",
    "runtime_video_mae=highlight",
    "runtime_video_mae=dunk",
    "runtime_video_mae=layup",
    "runtime_video_mae=three_pointer",
    "runtime_video_mae=made_shot",
    "runtime_video_mae=block",
    "runtime_video_mae=steal",
    "runtime_video_mae=fast_break",
    "runtime_video_mae=miss",
    "runtime_xclip=highlight",
    "runtime_xclip=dunk",
    "runtime_xclip=layup",
    "runtime_xclip=three_pointer",
    "runtime_xclip=made_shot",
    "runtime_xclip=block",
    "runtime_xclip=steal",
    "runtime_xclip=fast_break",
    "runtime_xclip=miss",
    "runtime_label_highlight",
    "runtime_label_dunk",
    "runtime_label_layup",
    "runtime_label_three_pointer",
    "runtime_label_make_shot",
    "runtime_label_block",
    "runtime_label_steal",
    "runtime_label_fast_break",
    "runtime_label_miss",
    "runtime_event_family_shot_attempt",
    "runtime_event_family_turnover",
    "runtime_event_family_defensive_event",
    "runtime_event_family_transition",
    "runtime_event_family_other",
    "runtime_outcome_made",
    "runtime_outcome_missed",
    "runtime_outcome_blocked",
    "runtime_outcome_uncertain",
    "runtime_shot_subtype_dunk",
    "runtime_shot_subtype_layup",
    "runtime_shot_subtype_jumper",
    "runtime_shot_subtype_three",
    "runtime_shot_subtype_putback",
    "runtime_shot_subtype_null"
  ],
  "modelVersion": "temporal-student-v1",
  "notes": [
    "Perception-first temporal student trained on structured basketball signals.",
    "Gold examples anchor evaluation and weighting remains source-aware.",
    "Candidate windows stay frozen; only labels and perception features change."
  ],
  "projection": {
    "bias": [
      -0.038387447595596313,
      0.004974436946213245,
      -0.04042702168226242,
      -0.026269996538758278,
      0.18125797808170319,
      -0.11232542991638184,
      0.09082696586847305,
      0.19153133034706116,
      -0.05194759741425514,
      -0.1362321376800537,
      -0.038947977125644684,
      -0.029583102092146873
    ],
    "weight": [
      [
        -0.055699240416288376,
        0.1719253957271576,
        0.03724440187215805,
        0.07046633958816528,
        0.07122506946325302,
        0.07181088626384735,
        0.11561361700296402,
        -0.02911553531885147,
        -0.016305740922689438,
        0.03934155032038689,
        -0.4243902564048767,
        0.006878835614770651,
        -0.03366277366876602,
        0.2857881486415863,
        -0.019649773836135864,
        0.03797496110200882,
        0.4600679278373718,
        -0.30551353096961975,
        -0.4209536612033844,
        0.234275221824646,
        -0.04321933537721634,
        -0.4246058464050293,
        0.053909409791231155,
        0.5737680196762085,
        0.007247459143400192,
        0.07579687237739563,
        0.0013713102089241147,
        0.06415097415447235,
        -0.04899059236049652,
        -0.002333299955353141,
        -0.039239879697561264,
        -0.015643896535038948,
        0.23899373412132263,
        -0.08673041313886642,
        0.1105349138379097,
        0.04746457189321518,
        0.022482004016637802,
        0.04548187181353569,
        0.035462893545627594,
        0.15997444093227386,
        0.013736756518483162,
        0.08957359194755554,
        0.44170108437538147,
        -0.5646132826805115,
        0.0603843554854393,
        -0.3260405957698822,
        -0.30013343691825867,
        0.30539536476135254,
        -0.424847811460495,
        -0.050347041338682175,
        0.01720329560339451,
        -0.04355309158563614,
        -0.01501319371163845,
        0.02061677724123001,
        -0.3810760974884033,
        -0.028125539422035217,
        -0.38263529539108276,
        -0.38243603706359863,
        0.06953307241201401,
        0.008680419996380806,
        0.15999773144721985,
        0.27330541610717773,
        -0.42284971475601196,
        0.2115214318037033,
        -0.47884872555732727,
        0.033675990998744965,
        -0.047260649502277374,
        0.08501239866018295,
        0.01542365550994873,
        -0.06805040687322617,
        0.08056698739528656,
        0.013405919075012207,
        0.15765519440174103,
        -0.1468939632177353,
        -0.018921170383691788,
        -0.4023227095603943,
        0.4432212710380554,
        -0.44182145595550537,
        -0.054503437131643295,
        -0.4976945221424103,
        -0.16463111340999603,
        0.42879951000213623,
        -0.46125203371047974,
        0.37717947363853455,
        0.46687960624694824,
        0.32351505756378174,
        -0.2809180021286011,
        -0.42867520451545715,
        -0.4488736093044281,
        0.20380738377571106,
        -0.35283830761909485,
        -0.25168490409851074,
        0.0063895792700350285,
        0.45194146037101746,
        -0.6697330474853516,
        0.5449942350387573,
        0.41489434242248535,
        0.2558880150318146,
        -0.3621334135532379,
        -0.34630829095840454,
        0.46683046221733093,
        -0.5490837097167969,
        0.030102869495749474,
        -0.4735746681690216,
        -0.1636202484369278,
        0.2728641629219055,
        -0.4285008907318115,
        0.42220014333724976,
        -0.2597740590572357,
        -0.02063712105154991,
        -0.1607312262058258,
        0.017640655860304832,
        0.07908912748098373,
        0.06047401204705238,
        -0.04621395096182823,
        -0.41184958815574646,
        0.37311863899230957,
        -0.36621227860450745,
        -0.06286605447530746,
        -0.17502638697624207,
        0.007380485534667969,
        -0.01756623387336731,
        -0.030130308121442795,
        0.04471280798316002,
        -0.3302202820777893,
        0.3601686954498291,
        -0.45989200472831726,
        0.4355335235595703,
        -0.41022270917892456,
        0.38664039969444275,
        -0.46474987268447876,
        -0.23108331859111786,
        0.35808098316192627,
        -0.43183690309524536,
        0.4102022349834442,
        0.4443981349468231,
        0.41777747869491577,
        -0.2659432888031006,
        -0.4810774028301239,
        -0.42734941840171814,
        0.20496873557567596,
        -0.378074049949646,
        -0.2747593820095062,
        0.03352748230099678,
        0.5317749381065369,
        -0.6061050891876221,
        0.5955274701118469,
        0.38234958052635193,
        0.25847122073173523,
        -0.3900811970233917
      ],
      [
        0.23320981860160828,
        0.0014031066093593836,
        -0.1569347232580185,
        0.11093349754810333,
        -0.041853200644254684,
        -0.06512493640184402,
        -0.022348465397953987,
        -0.03770165890455246,
        -0.023525595664978027,
        0.17150284349918365,
        0.45019495487213135,
        -0.06402017176151276,
        -0.06628349423408508,
        -0.3024408519268036,
        0.07611123472452164,
        -0.07895214855670929,
        -0.5221240520477295,
        0.5057160258293152,
        0.4208484888076782,
        -0.2554061710834503,
        -0.03665972501039505,
        0.4712948799133301,
        0.023781513795256615,
        0.32618382573127747,
        -0.02849111706018448,
        -0.10734516382217407,
        -0.07488186657428741,
        -0.08762583136558533,
        0.05574280396103859,
        0.03893481194972992,
        0.0067693074233829975,
        0.03241385892033577,
        -0.04300537332892418,
        -0.04118462651968002,
        0.010152062401175499,
        0.15576355159282684,
        -0.00522718857973814,
        0.14437343180179596,
        -0.06026953458786011,
        0.24565254151821136,
        0.0008925535948947072,
        0.01934022456407547,
        -0.3392700254917145,
        0.41631171107292175,
        -0.004065883811563253,
        0.20331646502017975,
        0.24180518090724945,
        -0.3919273912906647,
        0.46097683906555176,
        0.04528610408306122,
        -0.05352698266506195,
        -0.031371865421533585,
        -0.01033965963870287,
        -0.012330872006714344,
        0.24265609681606293,
        0.08111289143562317,
        0.34542620182037354,
        0.37508732080459595,
        -0.33173421025276184,
        0.06484654545783997,
        0.26244238018989563,
        -0.5406662225723267,
        -0.42026135325431824,
        0.4488960802555084,
        0.4066906273365021,
        -0.04843053221702576,
        -0.07616747915744781,
        -0.11648096889257431,
        0.248178631067276,
        -0.06747263669967651,
        -0.22873155772686005,
        0.3074673116207123,
        0.06735534220933914,
        0.451947957277298,
        -0.016320640221238136,
        0.09159870445728302,
        -0.5774243474006653,
        -0.5186966061592102,
        -0.06115507706999779,
        0.3791224956512451,
        0.49367979168891907,
        0.4506514370441437,
        0.5157853364944458,
        0.4675677716732025,
        -0.3808387517929077,
        0.5561021566390991,
        0.5046352744102478,
        0.4583732485771179,
        0.3619016408920288,
        -0.5179573893547058,
        0.6576184630393982,
        0.4900822043418884,
        -0.043726298958063126,
        -0.6115760207176208,
        0.14692945778369904,
        0.4004664123058319,
        -0.5364569425582886,
        0.4132596552371979,
        0.42797261476516724,
        -0.006850910373032093,
        -0.5337662100791931,
        -0.5658838748931885,
        0.012596642598509789,
        0.36513423919677734,
        0.45975983142852783,
        0.5666100978851318,
        0.3920009732246399,
        0.5096224546432495,
        0.24492065608501434,
        0.024196205660700798,
        -0.46632644534111023,
        0.05623091012239456,
        -0.07037041336297989,
        -0.046421173959970474,
        -0.012547489255666733,
        0.3727693259716034,
        0.45038580894470215,
        0.31344500184059143,
        0.004081291612237692,
        -0.5249123573303223,
        0.06190284341573715,
        -0.005876568146049976,
        0.055519022047519684,
        0.07408317178487778,
        0.31486326456069946,
        0.4049822986125946,
        0.027234172448515892,
        -0.4727437496185303,
        -0.6073646545410156,
        -0.6352900862693787,
        0.268004447221756,
        0.5203805565834045,
        0.4353908598423004,
        0.5029324889183044,
        0.43771886825561523,
        -0.2814197242259979,
        0.42855730652809143,
        0.46707767248153687,
        0.42670539021492004,
        0.37212520837783813,
        -0.4671841561794281,
        0.611970067024231,
        0.5798121690750122,
        -0.0370815247297287,
        -0.561978280544281,
        0.1813143789768219,
        0.4791699945926666,
        -0.6230134963989258,
        0.4036312997341156,
        0.4046504497528076
      ],
      [
        -0.153848335146904,
        -0.14527788758277893,
        -0.1298663169145584,
        -0.16720949113368988,
        -0.13535518944263458,
        -0.10468856990337372,
        -0.09820553660392761,
        -0.04364278167486191,
        -0.03664085268974304,
        -0.15844707190990448,
        -0.2285975217819214,
        -0.03471742570400238,
        -0.059660300612449646,
        -0.06611450761556625,
        0.03417603299021721,
        -0.07268617302179337,
        -0.16489893198013306,
        -0.1374589204788208,
        -0.12760721147060394,
        -0.13371099531650543,
        -0.024013742804527283,
        -0.21035446226596832,
        -0.08125337213277817,
        0.07086662203073502,
        -0.06477098166942596,
        -0.1393396556377411,
        -0.057560406625270844,
        -0.18121206760406494,
        -0.10535824298858643,
        -0.1311631053686142,
        -0.163571298122406,
        -0.19024589657783508,
        -0.23522451519966125,
        -0.08000875264406204,
        -0.2575300633907318,
        -0.2531227767467499,
        -0.16653653979301453,
        -0.09957540035247803,
        -0.15632838010787964,
        -0.22585269808769226,
        -0.12231021374464035,
        -0.14872074127197266,
        -0.23149369657039642,
        -0.24976734817028046,
        0.052164532244205475,
        0.09691135585308075,
        -0.14059582352638245,
        -0.1237824484705925,
        -0.17103299498558044,
        -0.06279700249433517,
        -0.04509591683745384,
        -0.15587395429611206,
        -0.1896047741174698,
        -0.02715008705854416,
        -0.056033406406641006,
        0.07975046336650848,
        -0.2794271409511566,
        -0.17407289147377014,
        -0.14000862836837769,
        0.055716902017593384,
        0.5003727078437805,
        -0.17287275195121765,
        -0.11871353536844254,
        0.13921484351158142,
        -0.22056058049201965,
        -0.17634108662605286,
        -0.0218247901648283,
        -0.14470995962619781,
        0.1857377290725708,
        -0.14813998341560364,
        -0.23285959661006927,
        0.16795778274536133,
        -0.2406364232301712,
        -0.1457114964723587,
        -0.06103342026472092,
        -0.16559287905693054,
        -0.16816285252571106,
        -0.35445070266723633,
        0.06584540754556656,
        -0.21344351768493652,
        0.6999614834785461,
        0.3390073776245117,
        -0.19534987211227417,
        0.31667694449424744,
        -0.06112305074930191,
        0.44656962156295776,
        0.7745251655578613,
        -0.19449637830257416,
        -0.1420227438211441,
        -0.2876652479171753,
        0.08188479393720627,
        0.6739672422409058,
        -0.17377130687236786,
        -0.11025422811508179,
        -0.22454915940761566,
        0.533258855342865,
        -0.21207445859909058,
        -0.42014363408088684,
        -0.11437880992889404,
        -0.2388928234577179,
        -0.11756130307912827,
        -0.3454614281654358,
        0.01588469184935093,
        -0.22189809381961823,
        0.7193727493286133,
        0.43713101744651794,
        -0.1941412091255188,
        0.26155614852905273,
        -0.15546655654907227,
        0.06566512584686279,
        -0.20894157886505127,
        0.042801789939403534,
        -0.011603621765971184,
        -0.028945734724402428,
        -0.022362004965543747,
        -0.1497642695903778,
        0.2183530479669571,
        -0.17709589004516602,
        -0.052181486040353775,
        -0.2073749154806137,
        0.020826250314712524,
        -0.03242029249668121,
        0.01699102856218815,
        0.0025127644184976816,
        -0.1898375004529953,
        0.1873091608285904,
        -0.15276163816452026,
        -0.0707024410367012,
        -0.4241766333580017,
        -0.29528185725212097,
        -0.2814802825450897,
        0.766333818435669,
        0.37539368867874146,
        -0.13031350076198578,
        0.27180254459381104,
        -0.11477907747030258,
        0.419053852558136,
        0.6612244844436646,
        -0.13929903507232666,
        -0.12127050012350082,
        -0.2822793126106262,
        0.08956975489854813,
        0.7072771787643433,
        -0.12862516939640045,
        -0.1128285825252533,
        -0.1614525318145752,
        0.4152117669582367,
        -0.31547310948371887,
        -0.46204695105552673,
        -0.07480469346046448
      ],
      [
        -0.14801862835884094,
        0.010781591758131981,
        0.016649961471557617,
        -0.0809958428144455,
        -0.07783723622560501,
        0.008453145623207092,
        -0.008784905076026917,
        0.05492052435874939,
        0.0815807357430458,
        -0.1213286891579628,
        -0.7140039801597595,
        0.061947260051965714,
        -0.06043846532702446,
        -0.2712068259716034,
        0.04859155789017677,
        0.03277498856186867,
        0.21602334082126617,
        -0.03296938166022301,
        -0.8227404952049255,
        0.12811505794525146,
        -0.023766787722706795,
        -0.7094743847846985,
        -0.0662732794880867,
        -0.1282307505607605,
        -0.020634520798921585,
        0.10498180240392685,
        -0.047944772988557816,
        -0.0518723763525486,
        0.06641265004873276,
        0.08674485981464386,
        0.020617663860321045,
        -0.026048174127936363,
        0.19217920303344727,
        -0.0009395345114171505,
        0.14518161118030548,
        0.06341005861759186,
        -0.00018766660650726408,
        0.15867985785007477,
        0.04664269834756851,
        0.12241841107606888,
        0.163321390748024,
        0.0836368277668953,
        0.11605746299028397,
        0.0694277286529541,
        -0.06281698495149612,
        -0.11659563332796097,
        0.11369743943214417,
        0.20204107463359833,
        0.07952932268381119,
        0.03885140269994736,
        0.025308581069111824,
        0.07354001700878143,
        0.05165506899356842,
        -0.07751598209142685,
        0.1977388858795166,
        0.0635506734251976,
        0.11379703879356384,
        -1.1253840923309326,
        -0.26939061284065247,
        -0.056915540248155594,
        -0.42147716879844666,
        0.2209675908088684,
        0.3845674991607666,
        0.268816739320755,
        -0.5084723234176636,
        0.11497151851654053,
        0.06914446502923965,
        0.07808805257081985,
        -0.3333205282688141,
        0.0008128571207635105,
        0.1195562332868576,
        -0.37133681774139404,
        0.11012153327465057,
        0.1180703416466713,
        -0.045446645468473434,
        0.07502485811710358,
        0.28368741273880005,
        0.19306634366512299,
        -0.03954961895942688,
        -0.010597169399261475,
        -0.638565182685852,
        0.5219933390617371,
        -0.7364122271537781,
        0.07150139659643173,
        0.4918805658817291,
        0.427861750125885,
        -0.639480710029602,
        -0.6202272772789001,
        0.2911818027496338,
        0.3906378149986267,
        -0.031638503074645996,
        -0.6453015804290771,
        0.3894810974597931,
        0.013811102136969566,
        -0.2347130924463272,
        0.39416882395744324,
        0.18045547604560852,
        -0.7844120860099792,
        0.03131833299994469,
        0.08371328562498093,
        0.2733135521411896,
        0.1975385695695877,
        0.07888985425233841,
        0.025315703824162483,
        -0.6456874012947083,
        0.4806944727897644,
        -0.7465837597846985,
        0.10768835991621017,
        0.26959654688835144,
        -0.06481465697288513,
        0.3884822726249695,
        0.07479007542133331,
        0.07526110857725143,
        0.02448720484972,
        -0.005513210780918598,
        -0.7073168754577637,
        0.13091830909252167,
        0.2280580848455429,
        0.006305411923676729,
        0.26353320479393005,
        -0.06848957389593124,
        -0.023564577102661133,
        -0.07329344749450684,
        0.0012334551429376006,
        -0.598149836063385,
        0.19006507098674774,
        0.04164554178714752,
        0.26847752928733826,
        0.1434052288532257,
        0.16964860260486603,
        0.07400913536548615,
        -0.6330251693725586,
        0.5477232933044434,
        -0.6957460641860962,
        0.10710001736879349,
        0.41144710779190063,
        0.5576061010360718,
        -0.5567421913146973,
        -0.6330899596214294,
        0.17315013706684113,
        0.34911930561065674,
        -0.1278475970029831,
        -0.5514214634895325,
        0.4183676838874817,
        0.12115238606929779,
        -0.3480983078479767,
        0.35467633605003357,
        0.07415011525154114,
        -0.7214130759239197,
        0.08572099357843399
      ],
      [
        0.22880132496356964,
        0.26143714785575867,
        0.20631150901317596,
        0.17833808064460754,
        0.15939036011695862,
        0.1926354616880417,
        0.225994274020195,
        0.24529723823070526,
        0.10902710258960724,
        0.10101252794265747,
        0.0905078649520874,
        0.0017331191338598728,
        0.06707484275102615,
        0.14621347188949585,
        0.055657751858234406,
        0.04712698981165886,
        0.19795991480350494,
        -0.3516818583011627,
        0.14172860980033875,
        0.1687408685684204,
        0.004651912022382021,
        0.25085899233818054,
        0.011015393771231174,
        0.27323418855667114,
        0.05769564211368561,
        0.23353298008441925,
        0.25799158215522766,
        0.17833451926708221,
        0.22841809689998627,
        0.17654258012771606,
        0.17319507896900177,
        0.17282521724700928,
        0.1295342892408371,
        0.12279130518436432,
        0.2247781753540039,
        0.2654840350151062,
        0.1815466284751892,
        0.175820991396904,
        0.2152710258960724,
        0.2699073553085327,
        0.14573390781879425,
        0.15050485730171204,
        0.18145599961280823,
        -0.04940662905573845,
        -0.08117079734802246,
        -0.1272648721933365,
        0.2568449378013611,
        0.22901248931884766,
        0.24026034772396088,
        -0.05729014798998833,
        0.10739754140377045,
        0.22075165808200836,
        0.22509124875068665,
        -0.08059689402580261,
        0.20191386342048645,
        -0.06793692708015442,
        0.03655257821083069,
        0.16639861464500427,
        0.24368669092655182,
        -0.011563248001039028,
        -0.026931224390864372,
        0.2712201476097107,
        0.19398850202560425,
        0.13943077623844147,
        0.1947479099035263,
        0.23833130300045013,
        0.02934429794549942,
        0.2571127414703369,
        0.1526346504688263,
        0.2354034036397934,
        0.24447749555110931,
        0.08730583637952805,
        0.15771885216236115,
        -0.3011111915111542,
        -0.051016371697187424,
        0.20658211410045624,
        0.17335207760334015,
        0.19166962802410126,
        0.065279021859169,
        0.18045610189437866,
        -0.34089890122413635,
        -0.23987087607383728,
        0.10235203057527542,
        0.09380695968866348,
        0.2785462439060211,
        -0.23921945691108704,
        -0.27185648679733276,
        0.10032563656568527,
        0.14890755712985992,
        0.1998538374900818,
        0.10994794219732285,
        -0.367775559425354,
        0.20785574615001678,
        0.18992148339748383,
        0.11095058172941208,
        0.16506128013134003,
        0.19079287350177765,
        0.1703946441411972,
        0.2733740508556366,
        0.288000226020813,
        0.24433533847332,
        0.15913869440555573,
        -0.06938901543617249,
        0.20848697423934937,
        -0.39907312393188477,
        -0.37381285429000854,
        0.19265301525592804,
        0.13487066328525543,
        0.24082103371620178,
        0.013839353807270527,
        0.22790898382663727,
        -0.03134467452764511,
        0.06938127428293228,
        0.013197124935686588,
        -0.072165347635746,
        0.09247040003538132,
        0.11475437134504318,
        0.14292770624160767,
        -0.052455443888902664,
        0.23110555112361908,
        0.07259394228458405,
        -0.06601057201623917,
        0.05047304183244705,
        0.057817474007606506,
        0.10387887805700302,
        0.2495419830083847,
        0.29114797711372375,
        0.2860393226146698,
        0.2440621554851532,
        0.20009443163871765,
        0.20279982686042786,
        -0.34710240364074707,
        -0.2512562870979309,
        0.12699711322784424,
        0.15023568272590637,
        0.13946989178657532,
        -0.3329694867134094,
        -0.2771509885787964,
        0.20959435403347015,
        0.24804872274398804,
        0.13106299936771393,
        0.17365315556526184,
        -0.3398537337779999,
        0.1734861433506012,
        0.24898259341716766,
        0.05973285064101219,
        0.061705704778432846,
        0.32063916325569153,
        0.2540987730026245,
        0.2213730812072754
      ],
      [
        0.12161067873239517,
        0.095429427921772,
        -0.06072307750582695,
        0.22072681784629822,
        -0.09715350717306137,
        0.015059488825500011,
        -0.07402537763118744,
        0.009475905448198318,
        -0.013485170900821686,
        0.1330045908689499,
        0.5402155518531799,
        -0.006451062858104706,
        0.035527050495147705,
        -0.06440497189760208,
        -0.006648436654359102,
        -0.07581682503223419,
        -0.5185333490371704,
        0.5706183910369873,
        0.3065488040447235,
        -0.002675148192793131,
        0.0006725778221152723,
        0.48831498622894287,
        0.05438696965575218,
        0.1454840749502182,
        0.04587787389755249,
        0.15223118662834167,
        -0.0828993171453476,
        0.16836829483509064,
        0.06179817393422127,
        0.0823848694562912,
        -0.12161577492952347,
        -0.10724670439958572,
        -0.05997256189584732,
        0.00557205593213439,
        0.11335361748933792,
        0.2135421186685562,
        0.02678586356341839,
        0.12206467986106873,
        -0.09785902500152588,
        0.11471594125032425,
        0.11262957006692886,
        0.0832996815443039,
        -0.4249613583087921,
        0.47579947113990784,
        0.03452074155211449,
        0.07503049820661545,
        0.19607222080230713,
        -0.3856891095638275,
        0.32186031341552734,
        -0.0061854771338403225,
        -0.010164434090256691,
        -0.07428614050149918,
        -0.027103368192911148,
        -0.047136541455984116,
        0.01231413334608078,
        -0.052509550005197525,
        0.4558466672897339,
        0.5660873055458069,
        -0.15276150405406952,
        0.07451353222131729,
        -0.29964932799339294,
        -0.06537467241287231,
        -0.08510252088308334,
        0.2930293679237366,
        0.20272836089134216,
        -0.06887520849704742,
        0.0013696643291041255,
        0.19428402185440063,
        -0.2375209480524063,
        -0.10628196597099304,
        -0.010057265870273113,
        -0.24877211451530457,
        -0.0019313966622576118,
        0.9979677796363831,
        0.04571530967950821,
        -0.09232296049594879,
        -0.5419467091560364,
        0.07268083095550537,
        0.06624025106430054,
        0.5262895822525024,
        -0.6026239395141602,
        0.6510028839111328,
        0.563666045665741,
        0.20728424191474915,
        0.29814499616622925,
        0.6084906458854675,
        -0.5634772777557373,
        0.4249028265476227,
        -0.22849276661872864,
        0.3820354640483856,
        0.6552253365516663,
        -0.5451966524124146,
        -0.5227919220924377,
        -0.5159611105918884,
        0.5987266898155212,
        0.37595611810684204,
        -0.2619492709636688,
        -0.5194726586341858,
        0.03535843640565872,
        -0.13730528950691223,
        -0.5665087699890137,
        0.019568737596273422,
        -0.026635287329554558,
        0.45582666993141174,
        -0.614309549331665,
        0.5781957507133484,
        0.5059552192687988,
        0.1828526258468628,
        -0.20334173738956451,
        0.028585130348801613,
        0.11095032095909119,
        0.07172694057226181,
        -0.051790155470371246,
        -0.06521966308355331,
        -0.005412694066762924,
        0.324518084526062,
        0.32502859830856323,
        -0.26342397928237915,
        0.0683712437748909,
        0.09300020337104797,
        -0.031659085303545,
        -0.0028476612642407417,
        0.04430772364139557,
        0.008941011503338814,
        0.3364686667919159,
        0.37190359830856323,
        -0.20524367690086365,
        -0.5486151576042175,
        0.07415458559989929,
        -0.2694736421108246,
        0.505895733833313,
        -0.5310304164886475,
        0.5435660481452942,
        0.49780502915382385,
        0.28748413920402527,
        0.23500394821166992,
        0.6546337604522705,
        -0.6317636966705322,
        0.4228364825248718,
        -0.2095681130886078,
        0.24938616156578064,
        0.7277726531028748,
        -0.6131430268287659,
        -0.417706161737442,
        -0.5274994969367981,
        0.5855527520179749,
        0.5173265337944031,
        -0.15204448997974396,
        -0.5850737690925598,
        0.05042756348848343
      ],
      [
        -0.05439901724457741,
        -0.05088847130537033,
        -0.1277104914188385,
        -0.38277554512023926,
        -0.032120779156684875,
        -0.12324965000152588,
        -0.049289628863334656,
        0.08852759003639221,
        0.04633684456348419,
        -0.3884188234806061,
        -0.46014201641082764,
        0.03544231131672859,
        -0.00542963994666934,
        -0.3519468605518341,
        -0.041749872267246246,
        0.02363133803009987,
        -0.4058535099029541,
        -0.273208886384964,
        -0.4324797987937927,
        0.06340690702199936,
        -0.007719781715422869,
        -0.3966310918331146,
        0.02503148652613163,
        -0.40404945611953735,
        0.057170603424310684,
        -0.20825976133346558,
        -0.042118482291698456,
        -0.15679329633712769,
        0.06493784487247467,
        0.13379625976085663,
        0.04532197490334511,
        0.07623102515935898,
        -0.2327617108821869,
        0.0811639204621315,
        -0.18904705345630646,
        -0.15621139109134674,
        0.0078963041305542,
        -0.15710309147834778,
        0.033394940197467804,
        -0.21979737281799316,
        -0.1879783272743225,
        -0.18758690357208252,
        -0.2509535551071167,
        -0.23717252910137177,
        0.06322985887527466,
        0.193177729845047,
        -0.17431943118572235,
        -0.15111210942268372,
        -0.1406152844429016,
        -0.04571463540196419,
        0.052713364362716675,
        0.0924791470170021,
        0.03545583784580231,
        0.02121020294725895,
        0.4412377178668976,
        0.07874032109975815,
        -0.32783830165863037,
        -0.3404445946216583,
        -0.6273800730705261,
        -0.06921134889125824,
        -0.23944006860256195,
        0.018198493868112564,
        -0.22784027457237244,
        0.18171750009059906,
        -0.38788267970085144,
        0.14015619456768036,
        0.03152327239513397,
        -0.10061890631914139,
        0.21713845431804657,
        0.15461428463459015,
        -0.09266683459281921,
        0.2121233493089676,
        -0.2346084862947464,
        -0.3188950717449188,
        0.04105236008763313,
        0.09203129261732101,
        -0.313379168510437,
        -0.41996830701828003,
        -0.02669086493551731,
        -0.3197568953037262,
        0.4471454620361328,
        -0.016706600785255432,
        -0.41238081455230713,
        0.08056450635194778,
        -0.48389554023742676,
        0.02937912754714489,
        0.47396597266197205,
        -0.5197066068649292,
        0.5142863392829895,
        -0.1582431048154831,
        -0.4141877293586731,
        0.4365071952342987,
        0.3964822292327881,
        -0.49184128642082214,
        -0.3707427382469177,
        0.45704925060272217,
        -0.38784992694854736,
        -0.009754261001944542,
        0.4093199372291565,
        0.12419286370277405,
        -0.440097838640213,
        -0.2997561991214752,
        -0.03529809042811394,
        -0.35387519001960754,
        0.473477303981781,
        0.03671190142631531,
        -0.40914952754974365,
        0.1517106145620346,
        0.39119961857795715,
        0.037807896733284,
        -0.19985316693782806,
        0.053900714963674545,
        0.04639091342687607,
        0.06737122684717178,
        -0.0547160841524601,
        -0.2707410454750061,
        0.10819519311189651,
        0.48493722081184387,
        0.034347254782915115,
        -0.3035278618335724,
        0.014195431023836136,
        -0.04626208171248436,
        -0.06789273023605347,
        -0.0048612873069942,
        -0.20074491202831268,
        0.14108847081661224,
        0.1566547155380249,
        -0.43763044476509094,
        -0.28108611702919006,
        -0.42145001888275146,
        -0.21719026565551758,
        0.501741349697113,
        0.060700997710227966,
        -0.44644784927368164,
        0.20593979954719543,
        -0.43184131383895874,
        -0.0847461000084877,
        0.42958998680114746,
        -0.4303600788116455,
        0.39091524481773376,
        -0.12353673577308655,
        -0.34371745586395264,
        0.37872767448425293,
        0.4155811369419098,
        -0.48440656065940857,
        -0.42597198486328125,
        0.5222727060317993,
        -0.38970622420310974,
        0.11721618473529816,
        0.47695279121398926
      ],
      [
        0.13903439044952393,
        0.1302867978811264,
        0.17015694081783295,
        0.13279981911182404,
        0.12888900935649872,
        0.19147872924804688,
        0.17280185222625732,
        0.11099743098020554,
        0.06385821104049683,
        0.10280340164899826,
        0.15156075358390808,
        0.05198460817337036,
        -0.0726362019777298,
        0.08985205739736557,
        0.048606399446725845,
        -0.06847796589136124,
        0.15665538609027863,
        -0.414639413356781,
        0.027744309976696968,
        0.1762833148241043,
        0.07195921987295151,
        0.15804298222064972,
        -0.06774596124887466,
        -0.10483646392822266,
        0.08035901188850403,
        0.1751796156167984,
        0.11857851594686508,
        0.06427639722824097,
        0.09033985435962677,
        0.17344790697097778,
        0.12893405556678772,
        0.13973206281661987,
        0.2530879080295563,
        0.14373573660850525,
        0.2391156703233719,
        0.13107167184352875,
        0.06014714017510414,
        0.23778840899467468,
        0.15495947003364563,
        0.1949537843465805,
        0.1777360886335373,
        0.2405119687318802,
        0.21956384181976318,
        0.21578913927078247,
        -0.06729379296302795,
        -0.19622622430324554,
        0.26367682218551636,
        0.21872083842754364,
        0.20903252065181732,
        0.05135923996567726,
        0.1574048101902008,
        0.11894947290420532,
        0.058300986886024475,
        0.014887562952935696,
        0.31169775128364563,
        -0.008502035401761532,
        0.1915035992860794,
        0.013029803521931171,
        0.25387945771217346,
        0.0035789802204817533,
        -0.4346519708633423,
        0.11812769621610641,
        0.2503354251384735,
        0.16897468268871307,
        0.3033260405063629,
        0.1530950367450714,
        -0.05177859216928482,
        0.12607763707637787,
        -0.23566947877407074,
        0.1492728739976883,
        0.10319378226995468,
        -0.33285775780677795,
        0.15347415208816528,
        -0.20545010268688202,
        0.037506092339754105,
        0.29322588443756104,
        0.2727889120578766,
        0.20411714911460876,
        -0.02716408483684063,
        0.1468421369791031,
        -0.8350315093994141,
        -0.47332069277763367,
        0.06862259656190872,
        0.03478527441620827,
        0.12991981208324432,
        -0.4675869345664978,
        -0.9030014276504517,
        0.09554534405469894,
        0.15803496539592743,
        0.18577301502227783,
        0.08684106916189194,
        -0.7798465490341187,
        0.13496457040309906,
        0.261191189289093,
        0.10203826427459717,
        0.04545750468969345,
        0.13225328922271729,
        -0.327813982963562,
        0.24586054682731628,
        0.19610841572284698,
        0.29838788509368896,
        0.24982348084449768,
        0.0678647831082344,
        0.2560565769672394,
        -0.8253719806671143,
        -0.4681883752346039,
        0.08367251604795456,
        0.08162584900856018,
        0.2174851894378662,
        0.07694334536790848,
        0.23333631455898285,
        -0.06248939037322998,
        0.03887739032506943,
        0.01052148174494505,
        -0.017309321090579033,
        0.10129419714212418,
        0.17351849377155304,
        0.2831118702888489,
        -0.04240443557500839,
        0.27792802453041077,
        0.0490710623562336,
        -0.05702239274978638,
        0.025783119723200798,
        -0.03765810653567314,
        0.2225191742181778,
        0.03140939027070999,
        0.28809279203414917,
        0.3072391152381897,
        0.28586965799331665,
        0.21156324446201324,
        0.17210905253887177,
        -0.826513409614563,
        -0.3972320258617401,
        0.17205868661403656,
        -0.0015696684131398797,
        0.17894811928272247,
        -0.45860615372657776,
        -0.8819456100463867,
        0.1108982041478157,
        0.20022104680538177,
        0.24312877655029297,
        0.04703701660037041,
        -0.7838144302368164,
        0.11865595728158951,
        0.25489169359207153,
        0.08688419312238693,
        -0.04148600995540619,
        0.13959762454032898,
        -0.2913462519645691,
        0.22154322266578674
      ],
      [
        -0.11142624914646149,
        -0.05585114285349846,
        0.02161768637597561,
        -0.3426348865032196,
        0.061516813933849335,
        0.02561601623892784,
        -0.052804090082645416,
        0.07258100807666779,
        0.06846435368061066,
        -0.3805965185165405,
        0.25271594524383545,
        -0.05309810861945152,
        -0.04398985952138901,
        -0.48100876808166504,
        0.05030329152941704,
        -0.07444515824317932,
        -0.03965015709400177,
        0.24164701998233795,
        0.21576537191867828,
        0.34178754687309265,
        -0.04484724625945091,
        0.18923218548297882,
        0.04470900073647499,
        -0.6799435019493103,
        0.07334849238395691,
        0.08511582016944885,
        -0.06872397661209106,
        0.02100392058491707,
        0.08613236993551254,
        0.04679812118411064,
        0.08421424776315689,
        0.044890910387039185,
        -0.23651467263698578,
        0.052151549607515335,
        -0.24719464778900146,
        -0.28609177470207214,
        -0.019063778221607208,
        -0.31315702199935913,
        -0.03254639357328415,
        -0.25378620624542236,
        -0.3414765000343323,
        -0.21696005761623383,
        -0.3668631613254547,
        0.1604510396718979,
        -0.04374049976468086,
        0.3523108661174774,
        -0.18352922797203064,
        -0.30278608202934265,
        0.046525053679943085,
        0.01993117667734623,
        -0.03483835235238075,
        -0.03468814864754677,
        -0.014180172234773636,
        -0.011284512467682362,
        0.5372318029403687,
        0.01389576867222786,
        -0.28692251443862915,
        0.32101988792419434,
        -0.6309626698493958,
        -0.04451725259423256,
        -0.4216342866420746,
        0.45565658807754517,
        0.2349013239145279,
        -0.2903328537940979,
        0.3624959886074066,
        0.13985633850097656,
        0.038175176829099655,
        0.13859491050243378,
        -0.35478639602661133,
        0.22927017509937286,
        0.12106254696846008,
        -0.23621240258216858,
        -0.3402291238307953,
        0.2754245698451996,
        0.00017824771930463612,
        -0.3148138225078583,
        -0.5281763076782227,
        0.10645102709531784,
        -0.07970868796110153,
        0.012716377153992653,
        -0.5461273193359375,
        0.526085376739502,
        0.2480025291442871,
        -0.5484523773193359,
        -0.18554523587226868,
        0.5705754160881042,
        -0.6214804649353027,
        0.12878504395484924,
        0.5624768137931824,
        0.35755008459091187,
        -0.6124452948570251,
        -0.529399037361145,
        0.01321746688336134,
        -0.6309829950332642,
        -0.3616463840007782,
        0.06533177196979523,
        0.5274443030357361,
        -0.4288879632949829,
        0.5413116216659546,
        -0.3464879095554352,
        -0.37865978479385376,
        0.06836042553186417,
        0.06957428902387619,
        -0.05123433843255043,
        -0.5154736042022705,
        0.4325835406780243,
        0.13736532628536224,
        -0.5205590128898621,
        0.4427420496940613,
        0.03727014362812042,
        0.17593982815742493,
        -0.04632372409105301,
        -0.0031884179916232824,
        -0.03686962649226189,
        0.037763308733701706,
        0.12602820992469788,
        -0.24541139602661133,
        0.44137734174728394,
        0.072881780564785,
        0.1490747034549713,
        0.018063386902213097,
        -0.0783284530043602,
        0.06707938015460968,
        0.060770586133003235,
        0.16141685843467712,
        -0.3225727081298828,
        -0.23156128823757172,
        -0.49112439155578613,
        0.03801892697811127,
        0.4662286639213562,
        -0.006702932063490152,
        -0.5969839096069336,
        0.4671400189399719,
        0.12775744497776031,
        -0.4853977560997009,
        -0.23576200008392334,
        0.5758949518203735,
        -0.560999870300293,
        0.23524825274944305,
        0.5254858136177063,
        0.4757554233074188,
        -0.5816552042961121,
        -0.5311456322669983,
        0.09823936969041824,
        -0.6226327419281006,
        -0.3645265996456146,
        0.07087214291095734,
        0.48988643288612366,
        -0.5170072913169861,
        0.4882276952266693
      ],
      [
        0.3907424807548523,
        -0.047775402665138245,
        -0.19126155972480774,
        0.7131832242012024,
        -0.08092737197875977,
        -0.13977548480033875,
        -0.14054301381111145,
        -0.10247163474559784,
        -0.15858425199985504,
        0.7423149943351746,
        -0.24634255468845367,
        -0.06973140686750412,
        0.03328948840498924,
        0.0033666505478322506,
        -0.0745953693985939,
        -0.07552631944417953,
        0.15429168939590454,
        0.16406163573265076,
        -0.06476202607154846,
        -0.3389972746372223,
        0.024246906861662865,
        -0.17948108911514282,
        -0.0020649307407438755,
        -0.18117649853229523,
        0.07092045247554779,
        -0.10795943439006805,
        -0.1621992290019989,
        -0.08778190612792969,
        -0.1068311482667923,
        -0.06459226459264755,
        -0.21413543820381165,
        -0.17023444175720215,
        -0.20341399312019348,
        -0.14527395367622375,
        -0.2720736563205719,
        -0.1336521953344345,
        -0.18279705941677094,
        -0.21361596882343292,
        -0.08405322581529617,
        -0.2725161910057068,
        -0.232703298330307,
        -0.19435080885887146,
        -0.20053699612617493,
        0.03016038052737713,
        0.041687142103910446,
        0.2887328863143921,
        -0.2919890582561493,
        -0.2571847438812256,
        0.07637379318475723,
        0.047878447920084,
        -0.12736336886882782,
        -0.1769101917743683,
        -0.1892925649881363,
        0.06237361952662468,
        -0.22156105935573578,
        -0.039375703781843185,
        0.029680568724870682,
        -0.1217125877737999,
        -0.14214037358760834,
        -0.07289296388626099,
        -0.1574593484401703,
        0.3784787952899933,
        -0.1692618727684021,
        -0.3099440932273865,
        -0.21002119779586792,
        -0.1852424442768097,
        -0.05068117007613182,
        -0.22892360389232635,
        -0.2245347946882248,
        -0.062271151691675186,
        -0.2174936681985855,
        -0.22641675174236298,
        -0.27931204438209534,
        0.03859843313694,
        -0.05304194986820221,
        -0.2531658411026001,
        -0.23210756480693817,
        -0.22427009046077728,
        -0.08069130778312683,
        -0.15129724144935608,
        -0.012946413829922676,
        0.5680366158485413,
        -0.1058897152543068,
        -0.17412836849689484,
        0.24041138589382172,
        0.5660104751586914,
        -0.027046041563153267,
        -0.21936079859733582,
        -0.18848198652267456,
        0.4202502369880676,
        -0.26546624302864075,
        -0.1601516306400299,
        -0.16513366997241974,
        -0.1640661060810089,
        -0.2508215308189392,
        -0.33136874437332153,
        0.4223094582557678,
        -0.12916097044944763,
        -0.2385176122188568,
        -0.16539353132247925,
        -0.20520104467868805,
        -0.18385842442512512,
        0.05217358469963074,
        -0.18748162686824799,
        -0.10329338163137436,
        0.47192707657814026,
        -0.2154119312763214,
        -0.21891632676124573,
        -0.19704268872737885,
        0.02233802154660225,
        -0.21932817995548248,
        0.04823268577456474,
        -0.020687976852059364,
        -0.05386079102754593,
        0.06212925165891647,
        -0.1500948816537857,
        -0.2741929590702057,
        -0.16925103962421417,
        0.0023152444045990705,
        -0.27068161964416504,
        0.02042856253683567,
        -0.02832373045384884,
        -0.05677392706274986,
        -0.025980103760957718,
        -0.22221393883228302,
        -0.20364420115947723,
        -0.2857212424278259,
        -0.26181256771087646,
        -0.1369474083185196,
        0.4686543345451355,
        -0.1410101056098938,
        -0.06535966694355011,
        0.5206457376480103,
        -0.17271476984024048,
        -0.20437486469745636,
        0.22619281709194183,
        0.43105316162109375,
        -0.1553228497505188,
        -0.16361677646636963,
        -0.2809560298919678,
        0.3181375563144684,
        -0.30243489146232605,
        -0.09234842658042908,
        -0.16141343116760254,
        -0.2805677354335785,
        -0.2437410205602646,
        -0.34709176421165466,
        0.4356943368911743,
        -0.22846215963363647,
        -0.23087169229984283
      ],
      [
        -0.08702445030212402,
        -0.11555741727352142,
        0.025764230638742447,
        -0.1231364980340004,
        0.022719336673617363,
        -0.10339526832103729,
        -0.011034264229238033,
        0.05194883421063423,
        0.07174954563379288,
        -0.08280414342880249,
        -0.5254734754562378,
        -0.01951894722878933,
        -0.057721465826034546,
        -0.3309851586818695,
        0.00468537537381053,
        0.06004384532570839,
        -0.21355725824832916,
        -0.5652718544006348,
        -0.5579883456230164,
        0.19520796835422516,
        -0.06001562625169754,
        -0.46553948521614075,
        -0.0725577250123024,
        0.13673953711986542,
        0.00034525335649959743,
        -0.23372195661067963,
        -0.05286801606416702,
        -0.21837788820266724,
        0.02378970943391323,
        -0.018383951857686043,
        0.08264638483524323,
        0.059686437249183655,
        -0.4010986089706421,
        0.09777739644050598,
        -0.36460280418395996,
        -0.36034727096557617,
        0.02949533425271511,
        -0.37815120816230774,
        0.07009591907262802,
        -0.43359434604644775,
        -0.36403021216392517,
        -0.3253977298736572,
        -0.22995957732200623,
        -0.2948688566684723,
        0.07808287441730499,
        0.2634119987487793,
        -0.29695653915405273,
        -0.2665466070175171,
        0.04971044138073921,
        -0.06844815611839294,
        0.014282992109656334,
        0.08527857810258865,
        0.057196419686079025,
        0.0330822616815567,
        0.5182433724403381,
        -0.06000113487243652,
        -0.3234148621559143,
        -0.42283838987350464,
        -0.5185108184814453,
        0.055909398943185806,
        -0.4166457951068878,
        0.5863184928894043,
        -0.03288539499044418,
        0.5771750211715698,
        -0.2185356467962265,
        -0.01558919157832861,
        -0.02993757650256157,
        -0.12519238889217377,
        -0.18742422759532928,
        0.2111491709947586,
        0.1091122105717659,
        -0.26701873540878296,
        -0.3754521310329437,
        -0.48038211464881897,
        -0.06260940432548523,
        0.2599163353443146,
        -0.2841525375843048,
        -0.5552816390991211,
        -0.07995534688234329,
        -0.10595208406448364,
        -0.4886634945869446,
        -0.44114384055137634,
        -0.5507057309150696,
        0.22704263031482697,
        -0.2047758549451828,
        -0.46157440543174744,
        -0.4930433928966522,
        -0.43591973185539246,
        0.5418509840965271,
        0.058158449828624725,
        0.09564582258462906,
        -0.5103570818901062,
        0.08664701879024506,
        -0.6184871792793274,
        -0.3454771637916565,
        0.702107310295105,
        0.5966535806655884,
        -0.4217069447040558,
        0.23137250542640686,
        0.32101547718048096,
        -0.36109980940818787,
        -0.6258352398872375,
        0.04696475714445114,
        -0.11072851717472076,
        -0.5415840744972229,
        -0.42814895510673523,
        -0.5089665651321411,
        0.22195063531398773,
        0.5718929171562195,
        -0.036555010825395584,
        -0.4229838252067566,
        0.07013706862926483,
        -0.03911783546209335,
        -0.0008042609551921487,
        -0.047770630568265915,
        -0.28665247559547424,
        0.5610865950584412,
        0.4209657311439514,
        -0.00921706110239029,
        -0.3045315146446228,
        -0.011993960477411747,
        -0.06496034562587738,
        0.0576072633266449,
        0.023956287652254105,
        -0.4277108609676361,
        0.5439565777778625,
        0.16562435030937195,
        -0.37461408972740173,
        -0.6155751943588257,
        0.5394914150238037,
        -0.14198897778987885,
        -0.41980570554733276,
        -0.41039884090423584,
        -0.4480062425136566,
        0.18677784502506256,
        -0.2332616001367569,
        -0.34076225757598877,
        -0.5090422630310059,
        -0.428593248128891,
        0.5380454659461975,
        -0.009905003011226654,
        0.010653275065124035,
        -0.49350571632385254,
        0.020115340128540993,
        -0.5111682415008545,
        -0.36140692234039307,
        0.6066797971725464,
        0.4915439486503601,
        -0.44991764426231384,
        0.21621760725975037
      ],
      [
        0.2459004670381546,
        0.01248811837285757,
        0.058967575430870056,
        0.23030990362167358,
        0.11318443715572357,
        -0.01043333113193512,
        0.07756960391998291,
        -0.03235970064997673,
        -0.015709999948740005,
        0.33574429154396057,
        -0.5009106397628784,
        -0.07868069410324097,
        -0.06439881771802902,
        0.5510529279708862,
        -0.0393960177898407,
        0.036422278732061386,
        0.33809444308280945,
        -0.3223767876625061,
        -0.5873754024505615,
        0.007306989748030901,
        -0.015019362792372704,
        -0.44018998742103577,
        0.024270694702863693,
        0.48707494139671326,
        0.061281248927116394,
        0.10199611634016037,
        -0.01715896464884281,
        0.1838470846414566,
        -0.09221373498439789,
        -0.1126512885093689,
        -0.07029091566801071,
        -0.14239580929279327,
        -0.1325923353433609,
        -0.1318349987268448,
        -0.059606339782476425,
        -0.02979818731546402,
        -0.023196322843432426,
        -0.15911322832107544,
        -0.10622666031122208,
        -0.11909501999616623,
        0.10405422747135162,
        0.005678332410752773,
        -0.3906831741333008,
        0.19733542203903198,
        0.028550315648317337,
        0.22083015739917755,
        0.13671471178531647,
        -0.5055339336395264,
        0.33537209033966064,
        -0.027052344754338264,
        0.014351296238601208,
        -0.05011701211333275,
        -0.09891632199287415,
        -0.002082489663735032,
        -0.34354540705680847,
        -0.010838917456567287,
        0.2918083071708679,
        -0.4022182524204254,
        0.2677626311779022,
        0.05625539273023605,
        0.11456742137670517,
        -0.2818778157234192,
        0.18013763427734375,
        0.289801687002182,
        -0.4827600419521332,
        -0.05184182897210121,
        0.04844098910689354,
        -0.15192683041095734,
        -0.1727539747953415,
        -0.029937922954559326,
        -0.004295661114156246,
        -0.08769182860851288,
        -0.03527691215276718,
        -0.5226101279258728,
        0.0450420118868351,
        -0.31498679518699646,
        -0.7074967622756958,
        0.4033626616001129,
        -0.009367957711219788,
        0.4630777835845947,
        0.3587009906768799,
        -0.5051590204238892,
        -0.5384179353713989,
        0.29155194759368896,
        0.4049064517021179,
        -0.4267459511756897,
        0.3219955563545227,
        -0.46849632263183594,
        -0.31850284337997437,
        0.22376959025859833,
        0.46259450912475586,
        0.323957622051239,
        -0.5298912525177002,
        -0.5832651853561401,
        0.615207314491272,
        0.647561252117157,
        -0.5571931004524231,
        -0.43954387307167053,
        -0.4322468638420105,
        -0.3028586208820343,
        -0.714708149433136,
        0.3306525945663452,
        -0.01871785894036293,
        0.38206547498703003,
        0.3438982665538788,
        -0.4893507659435272,
        -0.5107390880584717,
        0.26722240447998047,
        -0.23961956799030304,
        0.024111894890666008,
        0.3897911310195923,
        -0.05271344631910324,
        0.04170253127813339,
        0.05887371301651001,
        -0.05632708594202995,
        -0.37708306312561035,
        0.4705142378807068,
        -0.3449327349662781,
        -0.0028688120655715466,
        0.28931835293769836,
        0.05967876315116882,
        0.03820836544036865,
        0.0485282801091671,
        0.05193762481212616,
        -0.382297158241272,
        0.4136519432067871,
        -0.1786666065454483,
        -0.74113929271698,
        0.33114513754844666,
        -0.5186619758605957,
        0.3435462713241577,
        0.33232107758522034,
        -0.4088084101676941,
        -0.46485477685928345,
        0.19811013340950012,
        0.3155648112297058,
        -0.41034233570098877,
        0.3383692800998688,
        -0.5073897838592529,
        -0.3340272903442383,
        0.27145636081695557,
        0.5587997436523438,
        0.4143002927303314,
        -0.576516330242157,
        -0.6944237947463989,
        0.6497944593429565,
        0.6058927774429321,
        -0.4427841603755951,
        -0.4528149366378784,
        -0.39349937438964844
      ]
    ]
  },
  "schemaVersion": "temporal-student-v1",
  "sourceDataset": "perception_supervision+teacher_backed",
  "targets": {
    "eventFamily": {
      "bias": [
        0.3256884217262268,
        -0.14478233456611633,
        -0.10136902332305908,
        -0.2215733677148819,
        -0.05966973304748535
      ],
      "classes": [
        "shot_attempt",
        "turnover",
        "defensive_event",
        "transition",
        "other"
      ],
      "marginThreshold": 0.06,
      "temperature": 1.0,
      "topK": 3,
      "uncertaintyThreshold": 0.48,
      "weight": [
        [
          0.5533691048622131,
          -0.5084109306335449,
          -0.1995353102684021,
          0.34299424290657043,
          0.45177921652793884,
          0.1356927752494812,
          -0.5280700922012329,
          0.3931991755962372,
          -0.27276021242141724,
          -0.3959465026855469,
          -0.019499078392982483,
          0.509422242641449,
          0.5123344659805298,
          -0.4258180260658264,
          -0.39666473865509033,
          0.19029167294502258,
          0.39262154698371887,
          0.19936975836753845,
          -0.5538371205329895,
          0.3154570758342743,
          -0.4971088767051697,
          -0.4450553059577942,
          -0.09747947752475739,
          0.4469596743583679,
          0.6644803881645203,
          -0.5675784349441528,
          -0.3706219494342804,
          0.07859119772911072,
          0.3540070652961731,
          0.2918908894062042,
          -0.3435903489589691,
          0.3182392418384552,
          -0.41513803601264954,
          -0.2535761594772339,
          0.022632833570241928,
          0.6311154365539551,
          0.45978546142578125,
          0.4515262246131897,
          0.03753972053527832,
          -0.2944914400577545,
          0.11801911145448685,
          0.10475336015224457,
          -0.13098204135894775,
          -0.3392341434955597,
          -0.6229206323623657,
          -0.23940886557102203,
          -0.2016446441411972,
          0.45585060119628906
        ],
        [
          0.4724433720111847,
          0.412281334400177,
          -0.18553806841373444,
          0.5105758905410767,
          -0.12420190125703812,
          0.5354464054107666,
          0.30199509859085083,
          -0.09549959003925323,
          0.2594015598297119,
          0.24630847573280334,
          -0.13472892343997955,
          -0.5166741013526917,
          0.3081035912036896,
          0.5047647953033447,
          -0.04412905126810074,
          0.41724273562431335,
          -0.2052973210811615,
          0.3774375021457672,
          0.16352485120296478,
          -0.18359263241291046,
          0.23800981044769287,
          0.16951386630535126,
          -0.3557910919189453,
          -0.5148808360099792,
          0.3571662902832031,
          0.46901434659957886,
          -0.04579676315188408,
          0.4080146849155426,
          -0.19207938015460968,
          0.5282198786735535,
          0.2414274364709854,
          -0.08810858428478241,
          0.2692597806453705,
          0.13573867082595825,
          -0.2043614536523819,
          -0.6490458846092224,
          -0.43319955468177795,
          -0.4361794590950012,
          0.01364865992218256,
          0.18425044417381287,
          -0.12047605961561203,
          -0.16881734132766724,
          -0.13993079960346222,
          0.3573354482650757,
          -0.036907754838466644,
          0.17268067598342896,
          -0.5489058494567871,
          -0.1192232295870781
        ],
        [
          -0.04413923621177673,
          0.15552154183387756,
          -0.06421268731355667,
          -0.3331333100795746,
          -0.1661691516637802,
          -0.6881427764892578,
          0.35363906621932983,
          -0.033346470445394516,
          -0.36254748702049255,
          0.0005086790188215673,
          -0.23276790976524353,
          0.41189613938331604,
          -0.2788187265396118,
          0.13266286253929138,
          0.04520897939801216,
          -0.33082708716392517,
          -0.05508566275238991,
          -0.46783408522605896,
          0.062151696532964706,
          -0.24309854209423065,
          -0.33175143599510193,
          0.06485380232334137,
          -0.32862216234207153,
          0.46007364988327026,
          -0.058695584535598755,
          0.21763551235198975,
          -0.017073333263397217,
          -0.2195427417755127,
          -0.20178164541721344,
          -0.6300305128097534,
          0.27984410524368286,
          -0.15855419635772705,
          -0.3349054455757141,
          0.2463306486606598,
          -0.3517038822174072,
          0.28343236446380615,
          -0.3123107850551605,
          -0.16194236278533936,
          -0.2386731058359146,
          0.04330277442932129,
          -0.18298746645450592,
          -0.04919866472482681,
          -0.02746056765317917,
          0.19788923859596252,
          0.5011070966720581,
          0.08463983982801437,
          0.07077321410179138,
          -0.4070717692375183
        ],
        [
          -0.37399107217788696,
          0.40343526005744934,
          0.04932945966720581,
          -0.6352381706237793,
          -0.26571154594421387,
          0.36853086948394775,
          -0.511286735534668,
          -0.26753342151641846,
          0.49088606238365173,
          0.27367469668388367,
          -0.4088868796825409,
          -0.5968554615974426,
          -0.5682017803192139,
          0.1753920316696167,
          0.16164752840995789,
          -0.658994734287262,
          -0.31916311383247375,
          0.5587693452835083,
          -0.5871497988700867,
          -0.19955772161483765,
          0.2179918736219406,
          0.1735640913248062,
          -0.3703998029232025,
          -0.5712307095527649,
          -0.5881034731864929,
          0.3102521598339081,
          0.14670126140117645,
          -0.5290846228599548,
          -0.26162219047546387,
          0.45266592502593994,
          -0.4933117628097534,
          -0.1115134209394455,
          0.3738721013069153,
          0.37458765506744385,
          -0.4205341339111328,
          -0.5223297476768494,
          -0.2230023592710495,
          -0.5272367000579834,
          0.34546899795532227,
          0.0002729752450250089,
          -0.22097860276699066,
          -0.6526245474815369,
          -0.21793848276138306,
          0.17728494107723236,
          0.8304305672645569,
          0.22189706563949585,
          0.23558251559734344,
          -0.16852311789989471
        ],
        [
          -0.572613537311554,
          0.17616085708141327,
          0.1446746587753296,
          0.049108631908893585,
          -0.1306529939174652,
          -0.6356565356254578,
          0.6515030264854431,
          -0.15905553102493286,
          0.44019418954849243,
          0.11983535438776016,
          0.7916260361671448,
          -0.46126124262809753,
          -0.49430933594703674,
          0.3141809403896332,
          0.2995958626270294,
          0.023597458377480507,
          -0.014737429097294807,
          -0.6021665334701538,
          0.6007435321807861,
          -0.003882204880937934,
          0.2547959089279175,
          0.2378842532634735,
          0.6485627889633179,
          -0.5050921440124512,
          -0.5601016879081726,
          0.11493495851755142,
          0.18328548967838287,
          -0.03023267723619938,
          0.04905552417039871,
          -0.4378020167350769,
          0.6830344200134277,
          -0.11585287749767303,
          0.3767895996570587,
          0.1618167906999588,
          0.8084597587585449,
          -0.5300688147544861,
          -0.15622760355472565,
          -0.045712005347013474,
          -0.05125642940402031,
          0.16317389905452728,
          0.10137740522623062,
          0.3395783007144928,
          0.578342616558075,
          -0.3920544385910034,
          0.43707701563835144,
          -0.06833092868328094,
          0.24992498755455017,
          -0.35520702600479126
        ]
      ]
    },
    "outcome": {
      "bias": [
        0.058084070682525635,
        -0.034855253994464874,
        -0.1082528755068779,
        0.28921079635620117
      ],
      "classes": [
        "made",
        "missed",
        "blocked",
        "uncertain"
      ],
      "marginThreshold": 0.05,
      "temperature": 1.0,
      "topK": 3,
      "uncertaintyThreshold": 0.46,
      "weight": [
        [
          0.5715436339378357,
          -0.7982248663902283,
          -0.23203398287296295,
          0.13142083585262299,
          0.1535884588956833,
          -0.30118289589881897,
          -0.3581497371196747,
          0.15275396406650543,
          0.159082293510437,
          -0.04229434207081795,
          -0.06880611181259155,
          0.19831901788711548,
          0.8204954266548157,
          -0.7731785178184509,
          -0.11929135769605637,
          -0.0417921356856823,
          0.16358917951583862,
          -0.36966395378112793,
          -0.4603767693042755,
          0.1721772402524948,
          0.24627801775932312,
          -0.1043519526720047,
          -0.27432015538215637,
          0.23009514808654785,
          0.7642970681190491,
          -0.7789084315299988,
          -0.24485592544078827,
          0.17370501160621643,
          0.12070998549461365,
          -0.39942556619644165,
          -0.4435258209705353,
          0.2131616175174713,
          0.18064072728157043,
          -0.06482841819524765,
          -0.03468949720263481,
          0.3089171350002289,
          0.40994176268577576,
          0.06870652735233307,
          0.49616363644599915,
          -0.2459496557712555,
          0.014625201001763344,
          -0.1789378821849823,
          -0.7443423271179199,
          -0.24116957187652588,
          -0.8059529066085815,
          -0.1771681010723114,
          0.03188726678490639,
          0.9314703345298767
        ],
        [
          0.4174202084541321,
          0.8263599276542664,
          -0.13250313699245453,
          -0.073490671813488,
          -0.09120319038629532,
          0.4413365125656128,
          -0.17299313843250275,
          0.08107155561447144,
          -0.6690216064453125,
          0.10308124125003815,
          0.05787776783108711,
          0.6554120182991028,
          0.39709216356277466,
          0.8002423048019409,
          -0.12728524208068848,
          -0.07653653621673584,
          -0.08337375521659851,
          0.5114695429801941,
          -0.3577648997306824,
          -0.16937255859375,
          -0.5989755392074585,
          0.04282398149371147,
          0.21398237347602844,
          0.5142372250556946,
          0.3161360025405884,
          0.8617132306098938,
          0.14748415350914001,
          -0.02503719925880432,
          -0.16546015441417694,
          0.5169980525970459,
          -0.23504197597503662,
          -0.08009304106235504,
          -0.5245864987373352,
          -0.02225186489522457,
          0.27641209959983826,
          0.725357711315155,
          0.40992164611816406,
          0.40001529455184937,
          0.3048364222049713,
          -0.3954470455646515,
          -0.19592653214931488,
          -0.008664090186357498,
          0.232766792178154,
          -0.7355273962020874,
          0.6588269472122192,
          -0.07959975302219391,
          0.04597967863082886,
          -0.3129279911518097
        ],
        [
          0.03054332360625267,
          0.32918059825897217,
          0.029564691707491875,
          -0.38337022066116333,
          -0.16422758996486664,
          -0.7584446668624878,
          0.38029295206069946,
          -0.2987908124923706,
          -0.47650837898254395,
          0.10131531208753586,
          -0.2288169115781784,
          0.3333522379398346,
          -0.05594976618885994,
          0.2221338003873825,
          0.2625308632850647,
          -0.30566146969795227,
          -0.2845497131347656,
          -0.5866984128952026,
          0.2745351195335388,
          -0.27301204204559326,
          -0.48254427313804626,
          0.06838143616914749,
          -0.4618564248085022,
          0.413391649723053,
          -0.2792649567127228,
          0.26206082105636597,
          0.12610039114952087,
          -0.24145156145095825,
          -0.3030816614627838,
          -0.6220190525054932,
          0.3878787159919739,
          -0.08613451570272446,
          -0.18469707667827606,
          0.20920076966285706,
          -0.4554736912250519,
          0.39272162318229675,
          -0.31056517362594604,
          -0.418353796005249,
          -0.2101215422153473,
          -0.06470844149589539,
          -0.1418299823999405,
          -0.24400661885738373,
          -0.09785716980695724,
          0.2979527711868286,
          0.6202422380447388,
          0.1045733243227005,
          0.2990333139896393,
          -0.5354173183441162
        ],
        [
          -0.446259468793869,
          0.5237154960632324,
          0.0743141621351242,
          0.09210052341222763,
          0.1712411344051361,
          0.19328074157238007,
          0.4768609404563904,
          -0.09981189668178558,
          0.4895314574241638,
          -0.0009714711923152208,
          0.23881445825099945,
          -0.6519279479980469,
          -0.4382990896701813,
          0.3775614798069,
          -0.029041968286037445,
          0.052729636430740356,
          0.016240719705820084,
          0.18269646167755127,
          0.5012454390525818,
          0.02411223016679287,
          0.3245360255241394,
          -0.11435855180025101,
          0.05209397152066231,
          -0.5707334876060486,
          -0.6852823495864868,
          0.5697245597839355,
          -0.004753944929689169,
          0.21368832886219025,
          0.11128147691488266,
          0.17620818316936493,
          0.26746100187301636,
          0.07915660738945007,
          0.42293766140937805,
          -0.05516080930829048,
          0.2954327166080475,
          -0.7815669775009155,
          -0.0784018337726593,
          -0.26576417684555054,
          -0.14679232239723206,
          0.15235377848148346,
          0.1431632936000824,
          0.13837461173534393,
          0.2027917504310608,
          -0.055096324533224106,
          0.43307939171791077,
          -0.10597947239875793,
          -0.16945739090442657,
          -0.3453380763530731
        ]
      ]
    },
    "shotSubtype": {
      "bias": [
        0.044088054448366165,
        0.06687184423208237,
        0.13368606567382812,
        0.018734659999608994,
        -0.18744103610515594,
        -0.22229094803333282
      ],
      "classes": [
        "dunk",
        "layup",
        "jumper",
        "three",
        "putback",
        "null"
      ],
      "marginThreshold": 0.05,
      "temperature": 1.0,
      "topK": 3,
      "uncertaintyThreshold": 0.46,
      "weight": [
        [
          0.4300413727760315,
          -0.5326610207557678,
          0.12341239303350449,
          0.05029268190264702,
          0.0577700100839138,
          -0.6278276443481445,
          -0.023641100153326988,
          0.08174091577529907,
          -0.5901941657066345,
          -0.1584428995847702,
          -0.08691947907209396,
          -0.5106544494628906,
          0.5465087890625,
          -0.7469714879989624,
          -0.022599048912525177,
          0.10011354088783264,
          -0.010193229652941227,
          -0.6553561687469482,
          -0.07519537955522537,
          -0.03838910162448883,
          -0.5583105683326721,
          0.1088721752166748,
          -0.24255619943141937,
          -0.5338588953018188,
          0.5032474994659424,
          -0.7145787477493286,
          0.15517543256282806,
          0.29877161979675293,
          0.0029976179357618093,
          -0.6240428686141968,
          -0.0576758049428463,
          0.14435113966464996,
          -0.6266447305679321,
          -0.08409131318330765,
          -0.12710949778556824,
          -0.7082868814468384,
          0.04934018850326538,
          -0.15611772239208221,
          0.28848472237586975,
          0.1242016926407814,
          0.1984822154045105,
          -0.057671237736940384,
          0.27268895506858826,
          -0.3706020414829254,
          0.5207427740097046,
          -0.35217493772506714,
          0.05999197065830231,
          -0.46104493737220764
        ],
        [
          -0.7335055470466614,
          -0.16003049910068512,
          -0.17490702867507935,
          -0.006725354120135307,
          0.1583876758813858,
          0.5362831950187683,
          -0.5723457932472229,
          0.05210493505001068,
          -0.3004031181335449,
          -0.1740916520357132,
          -0.03609832376241684,
          0.5857731103897095,
          -0.6089397072792053,
          -0.10424605756998062,
          -0.20857056975364685,
          0.09178771078586578,
          0.16215753555297852,
          0.3784778416156769,
          -0.5180201530456543,
          0.22306902706623077,
          -0.2193453460931778,
          -0.12523119151592255,
          -0.31122127175331116,
          0.45589062571525574,
          -0.6743663549423218,
          0.06217828020453453,
          -0.038210149854421616,
          0.21664458513259888,
          0.10032183676958084,
          0.6092692613601685,
          -0.5299796462059021,
          0.22469055652618408,
          -0.10620864480733871,
          -0.23667293787002563,
          -0.13744468986988068,
          0.4792652726173401,
          0.296394407749176,
          0.6349015235900879,
          0.2104754000902176,
          0.00039670575642958283,
          0.21686913073062897,
          0.2768104076385498,
          0.4678664803504944,
          -0.3235779106616974,
          -0.3441018760204315,
          -0.16559089720249176,
          0.10786212980747223,
          -0.7057574987411499
        ],
        [
          0.6483040452003479,
          0.7112365961074829,
          0.23799215257167816,
          0.6530715227127075,
          0.03965651988983154,
          0.8359436988830566,
          0.5828313231468201,
          0.04022880271077156,
          0.5427441596984863,
          -0.30586671829223633,
          0.5978798270225525,
          0.7548564672470093,
          0.6323403716087341,
          0.4857923984527588,
          0.2960797846317291,
          0.5027944445610046,
          0.15689773857593536,
          0.690832257270813,
          0.6609859466552734,
          -0.1148073673248291,
          0.6170955896377563,
          -0.2567135989665985,
          0.6559780240058899,
          0.6077315211296082,
          0.5478455424308777,
          0.7345764636993408,
          0.13662433624267578,
          0.6827539801597595,
          0.09754260629415512,
          0.7336216568946838,
          0.5029382705688477,
          -0.013700617477297783,
          0.6258506178855896,
          -0.385830283164978,
          0.6326526403427124,
          0.7201030254364014,
          -0.27656090259552,
          0.3399239778518677,
          -0.391075074672699,
          0.5060077905654907,
          0.2569214701652527,
          -0.3546663224697113,
          -0.648753821849823,
          -0.3008075952529907,
          -0.716931939125061,
          -0.49338436126708984,
          -0.1294579654932022,
          -0.9635001420974731
        ],
        [
          0.3801349103450775,
          -0.4777570962905884,
          -0.15711970627307892,
          0.07664582878351212,
          0.17079205811023712,
          0.22440145909786224,
          0.012969081290066242,
          0.03348246216773987,
          0.8631378412246704,
          0.11102916300296783,
          0.49009135365486145,
          -0.483539879322052,
          0.3401002585887909,
          -0.6453986763954163,
          -0.2652391195297241,
          0.12020985782146454,
          0.036035437136888504,
          0.13334260880947113,
          -0.26333311200141907,
          -0.060023315250873566,
          0.7146178483963013,
          0.14972494542598724,
          0.6979520916938782,
          -0.5730398297309875,
          0.5168346166610718,
          -0.5456011295318604,
          -0.0676242783665657,
          0.2547641694545746,
          0.02676859125494957,
          0.36423352360725403,
          0.00793764740228653,
          -0.04386710375547409,
          0.6153793931007385,
          0.19005082547664642,
          0.5479870438575745,
          -0.49628910422325134,
          -0.08336191624403,
          -0.45940184593200684,
          0.36754176020622253,
          0.8511493802070618,
          0.10100924223661423,
          0.8773133754730225,
          0.6188474297523499,
          -0.24508118629455566,
          0.1244618371129036,
          0.46978309750556946,
          -0.11519273370504379,
          0.6227718591690063
        ],
        [
          0.3457642197608948,
          0.4244784414768219,
          -0.15642186999320984,
          -0.5405676364898682,
          0.023753182962536812,
          -0.21725480258464813,
          0.5055797696113586,
          0.10448084026575089,
          -0.5591527819633484,
          -0.04319721832871437,
          -0.18518921732902527,
          -0.07344513386487961,
          0.3266482949256897,
          0.5198492407798767,
          -0.15699389576911926,
          -0.43313050270080566,
          0.1519450694322586,
          -0.3937733471393585,
          0.36224764585494995,
          0.1262676864862442,
          -0.545456051826477,
          -0.18913200497627258,
          -0.1916476935148239,
          0.10833897441625595,
          0.35001233220100403,
          0.5687199234962463,
          -0.19692781567573547,
          -0.3454155921936035,
          0.08247308433055878,
          -0.262526273727417,
          0.3138476610183716,
          0.18153131008148193,
          -0.5411666035652161,
          -0.07096228748559952,
          -0.21347038447856903,
          0.18866807222366333,
          0.11038003116846085,
          -0.2601468861103058,
          -0.22951993346214294,
          -0.3060222268104553,
          -0.19628727436065674,
          -0.19109442830085754,
          -0.2999572455883026,
          0.12245877087116241,
          0.002207849407568574,
          0.07610759139060974,
          -0.49820831418037415,
          0.888922393321991
        ],
        [
          -0.20263390243053436,
          0.10787656158208847,
          0.2223774939775467,
          -0.3183414340019226,
          -0.46516937017440796,
          -0.11303793638944626,
          0.34445473551750183,
          -0.2929133474826813,
          -0.2559303939342499,
          0.3649735152721405,
          -0.19592005014419556,
          -0.14559659361839294,
          -0.07616584002971649,
          0.1512208729982376,
          0.34217455983161926,
          -0.2957380414009094,
          -0.35758742690086365,
          -0.17511853575706482,
          0.05655845254659653,
          -0.2983652651309967,
          -0.1707373410463333,
          0.5035064220428467,
          -0.3036065399646759,
          -0.1469206064939499,
          -0.23986658453941345,
          -0.046792808920145035,
          0.37409326434135437,
          -0.36810946464538574,
          -0.46170079708099365,
          -0.22112742066383362,
          0.2310134917497635,
          -0.37837857007980347,
          -0.37687206268310547,
          0.5152739882469177,
          -0.29993751645088196,
          -0.05333724617958069,
          -0.4041924774646759,
          -0.3783365488052368,
          0.2045617550611496,
          -0.015746695920825005,
          -0.17558732628822327,
          -0.2422511875629425,
          -0.047180984169244766,
          0.2807701528072357,
          0.23521269857883453,
          0.2694501578807831,
          0.5037379264831543,
          -0.09562703222036362
        ]
      ]
    }
  },
  "trainedAt": "2026-03-31T22:25:44.299524+00:00"
}