{
  "detectorFamily": "tridet",
  "endHead": {
    "bias": 0.049034301191568375,
    "weight": [
      0.4424549341201782,
      1.4807323217391968,
      -1.0813519954681396,
      0.10986985266208649,
      -1.6022331714630127,
      1.3958076238632202,
      -1.2380505800247192,
      -1.1712063550949097,
      0.11397697031497955,
      1.746667742729187,
      0.07160543650388718,
      -0.6133695840835571,
      -1.559983491897583,
      0.26993319392204285,
      0.20045830309391022,
      1.260454535484314,
      -1.2687406539916992,
      -0.16872447729110718
    ]
  },
  "eventMarginThreshold": 0.045,
  "eventScoreThreshold": 0.36,
  "eventness": {
    "bias": -0.10414817929267883,
    "weight": [
      0.593117356300354,
      1.1390528678894043,
      -0.8396577835083008,
      -0.20690281689167023,
      -0.2955835163593292,
      0.7711710929870605,
      -0.25111785531044006,
      -0.9056298732757568,
      -0.11383424699306488,
      0.20635125041007996,
      -0.03129317983984947,
      -0.844144880771637,
      0.17309978604316711,
      0.056085824966430664,
      -0.09140896052122116,
      0.7117105722427368,
      -0.1658230572938919,
      -0.20990583300590515
    ]
  },
  "featureSchemaVersion": "temporal-event-detector-feature-v1",
  "frameFamily": {
    "bias": [
      0.07810280472040176,
      -0.07369212061166763,
      -0.23509013652801514,
      -0.3503340780735016,
      0.2871570885181427
    ],
    "weight": [
      [
        1.2300701141357422,
        1.0555310249328613,
        0.5358783006668091,
        0.14618930220603943,
        -0.5362820625305176,
        1.4692280292510986,
        0.1423209309577942,
        -1.3552581071853638,
        0.11288518458604813,
        -0.055317409336566925,
        0.055035337805747986,
        -1.1286646127700806,
        -0.29378947615623474,
        0.14035511016845703,
        -0.05235850065946579,
        0.7763805389404297,
        -0.3330654501914978,
        -0.00023512014013249427
      ],
      [
        0.5982667803764343,
        0.6418780088424683,
        -0.8949978351593018,
        -0.22343075275421143,
        0.3710460364818573,
        -1.2356425523757935,
        -0.7526353001594543,
        -0.42139995098114014,
        -0.1686079055070877,
        0.40415456891059875,
        -0.16499365866184235,
        -0.01165852788835764,
        -0.1162462905049324,
        0.04746818542480469,
        0.13212671875953674,
        0.9769163131713867,
        0.05891847610473633,
        0.1659190058708191
      ],
      [
        0.26013243198394775,
        0.6870782375335693,
        -0.008543387986719608,
        0.007256025448441505,
        0.02446148917078972,
        0.6355475187301636,
        -0.27541446685791016,
        -0.4019985795021057,
        -0.1696133315563202,
        0.012263941578567028,
        -0.06684862077236176,
        -0.033671267330646515,
        0.5476254820823669,
        0.05029772222042084,
        0.06364504992961884,
        0.729436457157135,
        -0.11761577427387238,
        0.08091598004102707
      ],
      [
        -0.5863333940505981,
        1.4162585735321045,
        -1.441430687904358,
        -0.03934458643198013,
        0.1882404237985611,
        -1.3185127973556519,
        -0.32825812697410583,
        -0.10403648763895035,
        -0.23529213666915894,
        -0.05590515583753586,
        -0.3111593425273895,
        -1.5562626123428345,
        0.10239475965499878,
        -0.0022105518728494644,
        0.050777990370988846,
        0.6475400328636169,
        0.20999492704868317,
        0.2681496739387512
      ],
      [
        -0.5647626519203186,
        -1.291490912437439,
        0.9667248129844666,
        0.27139410376548767,
        0.18161912262439728,
        -0.9073112607002258,
        0.14308005571365356,
        0.936560869216919,
        0.22713151574134827,
        0.020932506769895554,
        0.09287172555923462,
        1.0918935537338257,
        -0.3200122117996216,
        0.13185662031173706,
        -0.10762465745210648,
        -1.1778408288955688,
        -0.21016208827495575,
        -0.1364356279373169
      ]
    ]
  },
  "hiddenSize": 18,
  "inputFeatureNames": [
    "ball_above_rim",
    "ball_arc_apex",
    "ball_carrier_speed",
    "ball_detection_confidence",
    "ball_near_rim",
    "ball_near_rim_offset_from_center",
    "ball_near_rim_time_seconds",
    "ball_through_hoop_likelihood",
    "ball_through_hoop_offset_from_center",
    "ball_through_hoop_time_seconds",
    "ball_track_count",
    "ball_visible",
    "basketball_confidence",
    "clip_duration_seconds",
    "defender_proximity_at_shot",
    "detection_density",
    "event_center_seconds",
    "event_center_seconds_norm",
    "event_duration_seconds",
    "event_duration_seconds_norm",
    "event_end_seconds",
    "event_localization_complete",
    "event_localization_present",
    "event_start_seconds",
    "hoop_detection_confidence",
    "hoop_visible",
    "human_verified",
    "player_to_rim_distance",
    "player_track_count",
    "possession_change_likelihood",
    "possession_change_offset_from_center",
    "possession_change_time_seconds",
    "post_roll_seconds",
    "pre_roll_seconds",
    "rim_confidence",
    "rim_track_count",
    "runtime_top_count",
    "runtime_video_mae=block",
    "runtime_video_mae=dunk",
    "runtime_video_mae=fast_break",
    "runtime_video_mae=highlight",
    "runtime_video_mae=layup",
    "runtime_video_mae=made_shot",
    "runtime_video_mae=miss",
    "runtime_video_mae=steal",
    "runtime_video_mae=three",
    "runtime_video_mae=three_pointer",
    "runtime_xclip=block",
    "runtime_xclip=dunk",
    "runtime_xclip=fast_break",
    "runtime_xclip=highlight",
    "runtime_xclip=layup",
    "runtime_xclip=made_shot",
    "runtime_xclip=miss",
    "runtime_xclip=steal",
    "runtime_xclip=three",
    "runtime_xclip=three_pointer",
    "same_play_continuity_score",
    "shot_release_candidate",
    "shot_release_offset_from_center",
    "shot_release_time_seconds",
    "source_domain=benchmark_eval",
    "source_domain=broadcast",
    "source_domain=fixed_camera",
    "source_domain=fixed_camera_indoor",
    "source_domain=fixed_camera_outdoor",
    "source_domain=hard_negative",
    "source_domain=live_runtime",
    "source_domain=live_shadow",
    "source_domain=live_staging",
    "source_domain=manual_negative",
    "source_domain=phone_casual",
    "source_domain=staging_smoke",
    "source_domain=structured_eval",
    "source_domain=teacher_pseudo",
    "source_event_count",
    "source_kind=disagreement",
    "source_kind=gold",
    "source_kind=runtime",
    "source_kind=silver",
    "source_ref_present",
    "source_set=disagreement_queue",
    "source_set=gold_set",
    "source_set=phase4_event_localization_queue",
    "source_set=phase4_in_domain",
    "source_set=phase4_pseudo_labels",
    "source_set=runtime_inference",
    "source_set=silver_set",
    "timestamp_seconds",
    "tracked_ball_confidence",
    "tracked_player_count",
    "tracking_continuity",
    "tracking_density",
    "transition_likelihood",
    "transition_speed_score",
    "transition_start_offset_from_center",
    "transition_start_time_seconds",
    "was_merged"
  ],
  "modelVersion": "temporal-event-detector-tridet-v1",
  "notes": [
    "tridet temporal detector over structured basketball signals, perception features, and clip-runtime cues.",
    "A first-stage detector predicts event family and segment boundaries before outcome/subtype gating.",
    "Outcome and subtype remain gated on confident detector output to avoid Highlight/other collapse from false positives."
  ],
  "projection": {
    "bias": [
      -0.00471761729568243,
      0.046717092394828796,
      -0.06885707378387451,
      0.17598479986190796,
      -0.1219896525144577,
      -0.04552613943815231,
      -0.13504375517368317,
      -0.08315151184797287,
      0.25448715686798096,
      0.12852385640144348,
      0.2520584464073181,
      0.07176977396011353,
      -0.06522393971681595,
      0.14716821908950806,
      -0.17237897217273712,
      -0.19375401735305786,
      -0.22525416314601898,
      -0.1993585228919983
    ],
    "weight": [
      [
        -0.07090428471565247,
        -0.0027166774962097406,
        0.09811843931674957,
        -0.7391535639762878,
        0.9622266888618469,
        0.039112936705350876,
        0.01678568124771118,
        0.7051562666893005,
        0.014570971950888634,
        0.08583052456378937,
        0.158456489443779,
        0.262122243642807,
        0.15897153317928314,
        0.03507336601614952,
        0.053968582302331924,
        0.000490119680762291,
        -0.03780489042401314,
        0.09502899646759033,
        0.061324723064899445,
        0.05359803885221481,
        0.07493377476930618,
        0.045063916593790054,
        0.11047161370515823,
        0.01657128520309925,
        0.02598496712744236,
        -0.13158977031707764,
        -0.06645778566598892,
        -0.11837489157915115,
        -0.005546379368752241,
        0.9351087808609009,
        0.07626810669898987,
        -0.06816065311431885,
        -0.009257638826966286,
        0.009807854890823364,
        0.03513140603899956,
        -0.12820760905742645,
        0.012028367258608341,
        -0.06173668056726456,
        -0.015040861442685127,
        -0.29327520728111267,
        -0.6655855774879456,
        0.2132415622472763,
        -0.004345508757978678,
        0.754448652267456,
        -0.05578649789094925,
        -0.31823888421058655,
        0.022727038711309433,
        -0.055275339633226395,
        0.01722801849246025,
        -0.34441494941711426,
        -0.6265469789505005,
        0.1869237869977951,
        -0.00851774588227272,
        0.7873984575271606,
        -0.0034125098027288914,
        -0.29575201869010925,
        -0.050010353326797485,
        0.0054865083657205105,
        0.06628711521625519,
        -0.0008818565984256566,
        0.06650429219007492,
        1.1674134731292725,
        -0.9425352811813354,
        -0.04586958512663841,
        -0.3821668326854706,
        0.17990948259830475,
        -1.0106955766677856,
        0.037932779639959335,
        -0.4795307219028473,
        0.8548664450645447,
        -0.7421737909317017,
        -0.7968749403953552,
        0.00010361010208725929,
        0.698351263999939,
        0.008452309295535088,
        -0.017974698916077614,
        0.2755695581436157,
        -0.08272697776556015,
        0.07829738408327103,
        0.034840404987335205,
        -0.10918878763914108,
        0.3476995825767517,
        0.0798826813697815,
        -0.05724535882472992,
        -0.7537264823913574,
        -0.4971548616886139,
        0.05215093120932579,
        0.17556023597717285,
        -0.4413793087005615,
        -0.6649036407470703,
        0.0036104542668908834,
        0.0011237794533371925,
        -0.04729792848229408,
        -0.09712272882461548,
        -0.1565515697002411,
        0.09975031763315201,
        0.08304952085018158,
        -0.054943595081567764
      ],
      [
        0.06577880680561066,
        0.06571055948734283,
        0.04054884612560272,
        0.32774096727371216,
        0.42384767532348633,
        -0.012141423299908638,
        -0.05712845176458359,
        0.744934618473053,
        0.03589630126953125,
        -0.07132206857204437,
        0.13122911751270294,
        0.08307506889104843,
        0.029394829645752907,
        -0.046105679124593735,
        -0.03886186331510544,
        0.09016994386911392,
        -0.08218003064393997,
        0.06490657478570938,
        0.05812709033489227,
        0.09893789887428284,
        -0.0003931578539777547,
        -0.0033063599839806557,
        -0.11962948739528656,
        0.039098259061574936,
        0.06308697164058685,
        -0.011623495258390903,
        -0.18040257692337036,
        -0.25253087282180786,
        0.01879609376192093,
        0.4499717354774475,
        -0.00381873338483274,
        0.018961891531944275,
        0.008616159670054913,
        0.05381985381245613,
        -0.08928673714399338,
        0.017882000654935837,
        -0.13323849439620972,
        -0.04254007712006569,
        -0.018787968903779984,
        0.1704956293106079,
        -0.8094240427017212,
        -0.5730186700820923,
        -0.005686766002327204,
        0.37858158349990845,
        0.09953446686267853,
        0.05302051454782486,
        -0.06923040002584457,
        -0.03190093860030174,
        0.01964210532605648,
        0.2175876796245575,
        -0.714043140411377,
        -0.5309423804283142,
        0.02253917045891285,
        0.4001578092575073,
        -0.06983879953622818,
        0.010178536176681519,
        -0.060506027191877365,
        -0.0416157990694046,
        0.09129778295755386,
        0.04546740651130676,
        -0.006007816642522812,
        1.141283392906189,
        0.28646329045295715,
        0.032186850905418396,
        -0.6095384359359741,
        0.015489008277654648,
        -1.051674723625183,
        0.00811325665563345,
        0.9408539533615112,
        -0.3168969750404358,
        -0.9287696480751038,
        0.4935411512851715,
        0.45308175683021545,
        0.2222633957862854,
        -0.05427831411361694,
        -0.02436342090368271,
        0.02819698676466942,
        -0.13321508467197418,
        0.09263629466295242,
        -0.06125849485397339,
        -0.24917767941951752,
        0.05829635262489319,
        -0.05446459352970123,
        0.1850096583366394,
        -0.33931347727775574,
        0.42125770449638367,
        -0.017651569098234177,
        -0.14168357849121094,
        0.06870677322149277,
        0.20320062339305878,
        -0.028658602386713028,
        -0.009582086466252804,
        -0.07726539671421051,
        1.1868959665298462,
        0.01767340674996376,
        -0.010895153507590294,
        -0.003605036763474345,
        0.01580081693828106
      ],
      [
        0.0253025833517313,
        -0.05179409310221672,
        -0.031721487641334534,
        -0.07246241718530655,
        0.40717989206314087,
        -0.011511122807860374,
        0.06239991635084152,
        0.7472306489944458,
        -0.03954501450061798,
        0.06268011778593063,
        -0.16703568398952484,
        -0.1515698879957199,
        -0.20131368935108185,
        0.06959208846092224,
        -0.019771821796894073,
        0.0574038028717041,
        -0.08077984303236008,
        0.10138276219367981,
        0.08846324682235718,
        -0.07748162001371384,
        0.09911779314279556,
        0.051746658980846405,
        0.026376020163297653,
        0.05710457265377045,
        0.06551024317741394,
        0.16566506028175354,
        -0.09122356027364731,
        0.17857322096824646,
        0.09923738241195679,
        -1.1269724369049072,
        -0.07728587090969086,
        0.021022185683250427,
        0.012310448102653027,
        0.05444740504026413,
        0.07179278135299683,
        0.17514173686504364,
        0.08669541031122208,
        0.007037488278001547,
        -0.051084280014038086,
        -0.37312179803848267,
        0.44416508078575134,
        0.49018824100494385,
        -0.05506632849574089,
        0.6349396705627441,
        0.0739394947886467,
        0.5836144089698792,
        -0.07126384228467941,
        -0.0027574996929615736,
        -0.03610624372959137,
        -0.5167847275733948,
        0.45887064933776855,
        0.4884561002254486,
        -0.028472857549786568,
        0.644795835018158,
        -0.08629070967435837,
        0.514441728591919,
        0.026146061718463898,
        0.08113830536603928,
        0.09368248283863068,
        -0.09751368314027786,
        0.024416018277406693,
        0.05439627915620804,
        0.6057502031326294,
        -0.006975556258112192,
        0.035731375217437744,
        0.8051939010620117,
        0.6947829723358154,
        0.08021237701177597,
        -0.9778674840927124,
        0.12681962549686432,
        0.8149973154067993,
        -0.4867652952671051,
        0.5884138941764832,
        -0.3275349736213684,
        -0.04002948850393295,
        -0.06534352153539658,
        0.021178416907787323,
        0.00840047001838684,
        -0.09766123443841934,
        0.09490026533603668,
        0.012534940615296364,
        0.11599662154912949,
        -0.14750944077968597,
        -0.2362218052148819,
        0.5382416248321533,
        0.3665007948875427,
        0.02627345360815525,
        0.05388564243912697,
        0.11137455701828003,
        0.0418851301074028,
        -0.01476201880723238,
        0.03905363008379936,
        0.0037392443045973778,
        -1.192856788635254,
        -0.3327138423919678,
        -0.09210638701915741,
        -0.019974499940872192,
        0.06311655789613724
      ],
      [
        0.08890066295862198,
        0.049359280616045,
        -0.08093736320734024,
        0.14092133939266205,
        0.2517436444759369,
        0.026087598875164986,
        0.050692882388830185,
        0.10744396597146988,
        -0.044788241386413574,
        -0.06946678459644318,
        0.1646183431148529,
        0.20814888179302216,
        0.19466538727283478,
        0.10406409204006195,
        0.06169643625617027,
        -0.09102485328912735,
        0.15505707263946533,
        0.11809056252241135,
        0.08079139143228531,
        0.0031440947204828262,
        0.010265117511153221,
        0.031354255974292755,
        0.17986257374286652,
        0.008301881141960621,
        0.19477802515029907,
        0.14406150579452515,
        0.07050356268882751,
        0.09242227673530579,
        0.19707977771759033,
        0.019520627334713936,
        -0.059643931686878204,
        0.01701173186302185,
        0.14323510229587555,
        0.13718624413013458,
        0.2245064675807953,
        0.14763188362121582,
        0.21116483211517334,
        0.0447273924946785,
        -0.018714187666773796,
        0.03705867752432823,
        0.1282188892364502,
        0.20146207511425018,
        -0.013394761830568314,
        0.0928063690662384,
        -0.026512451469898224,
        0.23116528987884521,
        -0.08232764154672623,
        0.008798696100711823,
        0.023038804531097412,
        0.09550246596336365,
        0.10837285965681076,
        0.22998598217964172,
        -0.0987003967165947,
        0.09941603243350983,
        -0.0042192367836833,
        0.19391478598117828,
        0.03539742901921272,
        -0.05620064213871956,
        -0.03869887441396713,
        -0.004442169331014156,
        -0.05423987656831741,
        0.22868764400482178,
        0.1653270125389099,
        -0.03978069871664047,
        0.24066463112831116,
        0.14020980894565582,
        0.09750416874885559,
        -0.011268910951912403,
        0.21425332129001617,
        0.12939989566802979,
        0.21803197264671326,
        0.12144970148801804,
        0.13095825910568237,
        0.17326118052005768,
        -0.0006336477817967534,
        0.2261667400598526,
        0.23822355270385742,
        0.20110277831554413,
        -0.0946933925151825,
        0.07598744332790375,
        0.0734402984380722,
        0.2254674732685089,
        0.15205657482147217,
        0.22562363743782043,
        0.13070601224899292,
        0.147957444190979,
        0.04490703344345093,
        0.09842246025800705,
        0.16531769931316376,
        0.09792173653841019,
        0.1385415494441986,
        0.030837681144475937,
        0.019281713292002678,
        0.1007227972149849,
        0.13428401947021484,
        0.08575697243213654,
        -0.0829230323433876,
        0.09255728870630264
      ],
      [
        -0.09791475534439087,
        0.02738030254840851,
        -0.006219080649316311,
        -0.1701561063528061,
        -0.24413767457008362,
        0.08193986862897873,
        -0.06041644886136055,
        -0.1667955368757248,
        0.05138133093714714,
        -0.10061737895011902,
        -0.23886018991470337,
        -0.13923229277133942,
        -0.23890924453735352,
        -0.19926495850086212,
        -0.0027691321447491646,
        0.03873781859874725,
        -0.1613752394914627,
        -0.22657930850982666,
        0.0021065357141196728,
        -0.05196049064397812,
        -0.08530887216329575,
        0.028596745803952217,
        -0.08267792314291,
        0.08433401584625244,
        -0.1616930067539215,
        -0.13858145475387573,
        -0.24783490598201752,
        -0.1386491358280182,
        -0.27325358986854553,
        0.1564398556947708,
        0.06071736291050911,
        0.06764918565750122,
        -0.25709453225135803,
        -0.0989263653755188,
        -0.10461816936731339,
        -0.20966725051403046,
        -0.11082279682159424,
        0.04008744657039642,
        -0.07551290839910507,
        0.11204008013010025,
        -0.024710994213819504,
        -0.2184407114982605,
        0.03333524242043495,
        -0.22893238067626953,
        0.023259906098246574,
        -0.22153735160827637,
        -0.07045197486877441,
        -0.029705990105867386,
        0.01266171969473362,
        0.22150522470474243,
        -0.04727165400981903,
        -0.19432216882705688,
        0.09654206782579422,
        -0.08109681308269501,
        -0.0031436129938811064,
        -0.22496387362480164,
        -0.030321214348077774,
        0.05405552685260773,
        -0.08727271109819412,
        -0.0053229061886668205,
        0.06665115058422089,
        -0.24715183675289154,
        -0.24627290666103363,
        -0.06107403337955475,
        -0.17933839559555054,
        -0.06898683309555054,
        -0.08584779500961304,
        -0.062238357961177826,
        0.0020991007331758738,
        -0.13392600417137146,
        0.011058018542826176,
        0.22683502733707428,
        -0.1630163937807083,
        -0.14931891858577728,
        -0.08020803332328796,
        -0.17454859614372253,
        -0.2602015435695648,
        -0.20094728469848633,
        -0.039338722825050354,
        -0.1645793467760086,
        -0.25669413805007935,
        -0.1346365362405777,
        -0.09784504026174545,
        -0.24115505814552307,
        -0.2336954027414322,
        0.20884689688682556,
        -0.08041452616453171,
        -0.20242346823215485,
        -0.2611308693885803,
        -0.056916743516922,
        -0.07748422771692276,
        -0.032999780029058456,
        0.07338950037956238,
        0.16472318768501282,
        0.16843381524085999,
        -0.08457536995410919,
        0.06728009879589081,
        0.03994777053594589
      ],
      [
        -0.08197128772735596,
        0.03078310750424862,
        0.020893817767500877,
        0.6426257491111755,
        0.62752366065979,
        -0.09023237973451614,
        0.042330849915742874,
        0.7648559212684631,
        0.025476794689893723,
        0.02692515216767788,
        0.09564829617738724,
        -0.028507916256785393,
        -0.005360885057598352,
        -0.16728004813194275,
        -0.08005986362695694,
        0.008777213282883167,
        -0.028114400804042816,
        0.02270704135298729,
        0.04095032438635826,
        -0.008444109000265598,
        0.06952454149723053,
        -0.08201037347316742,
        -0.06156676635146141,
        -0.015947584062814713,
        0.07557659596204758,
        0.08349263668060303,
        -0.1100715845823288,
        0.08679413795471191,
        -0.057728398591279984,
        -0.8145498037338257,
        0.07229305803775787,
        0.015204222872853279,
        -0.09775809198617935,
        -0.07354511320590973,
        0.04368282109498978,
        0.03987930342555046,
        -0.03065497614443302,
        -0.0799679160118103,
        -0.07535291463136673,
        -0.6594626307487488,
        -0.705917477607727,
        0.11670635640621185,
        0.041264090687036514,
        0.39969512820243835,
        -0.0498034842312336,
        0.30422112345695496,
        0.03181726858019829,
        -0.07610780745744705,
        0.08680844306945801,
        -0.47752436995506287,
        -0.7345385551452637,
        -0.029375050216913223,
        0.014506210573017597,
        0.43327465653419495,
        -0.022432178258895874,
        0.2993622124195099,
        0.0005737630999647081,
        -0.06959483027458191,
        0.01003347896039486,
        0.08559340983629227,
        0.09478898346424103,
        0.5277871489524841,
        -0.014510736800730228,
        -0.0049753873609006405,
        -0.5360044836997986,
        0.2479088306427002,
        -0.9830098748207092,
        -0.04424949362874031,
        -0.6368855237960815,
        0.21509166061878204,
        -0.8028725385665894,
        -0.7124706506729126,
        0.6380581855773926,
        0.09205508232116699,
        -0.014938902109861374,
        0.018117504194378853,
        0.146455317735672,
        -0.15510240197181702,
        0.01570335030555725,
        -0.19817541539669037,
        -0.19791103899478912,
        -0.12940053641796112,
        -0.2136172503232956,
        0.33765459060668945,
        0.615658164024353,
        -0.6182993054389954,
        -0.008208303712308407,
        -0.1181781217455864,
        0.5078829526901245,
        0.5194838643074036,
        -0.13234086334705353,
        0.0334739051759243,
        0.07236552238464355,
        -1.093588948249817,
        -0.4548231065273285,
        -0.03636261448264122,
        0.034268446266651154,
        -0.08198022097349167
      ],
      [
        -0.06829909980297089,
        -0.06152701750397682,
        -0.08567667752504349,
        -0.3356730043888092,
        0.555615246295929,
        0.027498411014676094,
        0.03923344239592552,
        0.9692292213439941,
        -0.07585417479276657,
        0.02376452460885048,
        0.11453808099031448,
        0.014666203409433365,
        -0.01765567995607853,
        0.059594448655843735,
        -0.04510151222348213,
        0.05063524842262268,
        0.028554260730743408,
        -0.06359664350748062,
        -0.07182332128286362,
        -0.020765306428074837,
        0.030972419306635857,
        0.06956452876329422,
        -0.06242813169956207,
        -0.03053523600101471,
        0.18763579428195953,
        0.16217392683029175,
        -0.024909064173698425,
        -0.28111767768859863,
        -0.04523920267820358,
        -0.48616454005241394,
        -0.05244387686252594,
        0.015690825879573822,
        0.011706165969371796,
        -0.07337231934070587,
        0.18426096439361572,
        0.017637742683291435,
        -0.00045950128696858883,
        -0.09773276001214981,
        0.05746058002114296,
        -0.479697585105896,
        0.07701040059328079,
        -0.05379356071352959,
        0.03653474152088165,
        0.17486980557441711,
        -0.06420612335205078,
        -0.39515894651412964,
        0.020943347364664078,
        0.03144603967666626,
        0.036243412643671036,
        -0.3458777070045471,
        0.11272761225700378,
        0.07625552266836166,
        0.05232047289609909,
        0.2688034474849701,
        -0.0963059812784195,
        -0.40852946043014526,
        -0.03498130664229393,
        -0.020693548023700714,
        0.059233348816633224,
        -0.08559960871934891,
        0.05107685178518295,
        -0.1420043557882309,
        -0.5888017416000366,
        -0.07289069890975952,
        0.26750823855400085,
        -0.13502658903598785,
        -0.03838353231549263,
        -0.0609370581805706,
        -0.359441339969635,
        0.029976584017276764,
        0.19903475046157837,
        0.02152647078037262,
        0.8205537796020508,
        -0.5457593202590942,
        -0.06774507462978363,
        -0.07665605843067169,
        -0.12802505493164062,
        -0.08501741290092468,
        -0.07467097043991089,
        0.09728094935417175,
        0.032146185636520386,
        -0.10822773724794388,
        -0.10936800390481949,
        0.022367563098669052,
        0.015998397022485733,
        -0.37558668851852417,
        0.07149651646614075,
        0.2315157949924469,
        -0.10146662592887878,
        -0.366041362285614,
        -0.01775350049138069,
        -0.0704008936882019,
        0.06727784872055054,
        0.29423266649246216,
        -0.4185420870780945,
        0.07794954627752304,
        -0.07062768936157227,
        -0.0753549262881279
      ],
      [
        -0.0923062190413475,
        0.00687522254884243,
        0.05426041781902313,
        -0.14273007214069366,
        -0.18474724888801575,
        0.016683662310242653,
        -0.06730622798204422,
        -0.11783391237258911,
        -0.0673413947224617,
        0.0805848017334938,
        -0.11905591934919357,
        -0.18877549469470978,
        -0.07896775752305984,
        -0.1883133500814438,
        0.037428099662065506,
        -0.0630892813205719,
        -0.2017398625612259,
        -0.12154075503349304,
        -0.08826447278261185,
        0.04287216067314148,
        0.08801489323377609,
        -0.04704775661230087,
        -0.2643747627735138,
        0.0010473130969330668,
        -0.2228672206401825,
        -0.2599011957645416,
        -0.15965959429740906,
        -0.12005775421857834,
        -0.14380158483982086,
        0.1071552112698555,
        -0.012426842004060745,
        0.02714385837316513,
        -0.24937480688095093,
        -0.26735493540763855,
        -0.1432700902223587,
        -0.09372983872890472,
        -0.09093793481588364,
        0.0672561377286911,
        -0.026401448994874954,
        0.1505998969078064,
        0.08110968768596649,
        -0.1579059213399887,
        0.05947494879364967,
        -0.16120359301567078,
        -0.04035244137048721,
        -0.03845985606312752,
        -0.04871371388435364,
        0.032576803117990494,
        0.03296462818980217,
        0.2241361439228058,
        0.11072281748056412,
        -0.19012990593910217,
        0.09669394791126251,
        -0.1804753839969635,
        0.05038397014141083,
        0.0218153465539217,
        -0.036245230585336685,
        0.06457022577524185,
        -0.01971081644296646,
        0.037721067667007446,
        -0.054013390094041824,
        -0.1541530042886734,
        0.02342880144715309,
        -0.053644292056560516,
        -0.21139971911907196,
        -0.0919991284608841,
        -0.026089681312441826,
        -0.01357262209057808,
        0.167907252907753,
        -0.09928842633962631,
        0.025917118415236473,
        0.22497670352458954,
        -0.16554108262062073,
        -0.21297776699066162,
        0.07066028565168381,
        -0.0974104255437851,
        -0.2111125886440277,
        -0.24781222641468048,
        -0.05697200447320938,
        -0.19100680947303772,
        -0.1119978129863739,
        -0.17436401546001434,
        -0.20028795301914215,
        -0.11693482846021652,
        -0.24553248286247253,
        0.2079385221004486,
        -0.00388076133094728,
        -0.2047644406557083,
        -0.26210564374923706,
        -0.09625248610973358,
        -0.2741222679615021,
        -0.05809339880943298,
        0.02686159498989582,
        0.0620381124317646,
        0.1426907777786255,
        -0.09683704376220703,
        0.030320273712277412,
        0.0473349466919899
      ],
      [
        0.08728606253862381,
        0.04487387090921402,
        -0.09682789444923401,
        0.054035112261772156,
        0.08218911290168762,
        0.009418749250471592,
        -0.050861794501543045,
        0.04828145354986191,
        0.07711552083492279,
        -0.06538476794958115,
        0.13604411482810974,
        0.16697193682193756,
        0.1638192981481552,
        0.24591554701328278,
        -0.010794843547046185,
        0.07017922401428223,
        0.1462516188621521,
        0.167255237698555,
        0.06460438668727875,
        -0.0682956799864769,
        -0.09840027242898941,
        -0.016674811020493507,
        0.07375981658697128,
        -0.014465930871665478,
        0.061723265796899796,
        0.15274547040462494,
        0.23069332540035248,
        0.08514903485774994,
        0.10108593851327896,
        0.05641333386301994,
        -0.05913661792874336,
        0.018146686255931854,
        0.21978743374347687,
        0.07782870531082153,
        0.06114137917757034,
        0.0679287388920784,
        0.2185337096452713,
        0.026150457561016083,
        0.029606765136122704,
        -0.1265333890914917,
        0.23667819797992706,
        0.1832968294620514,
        -0.04961537942290306,
        0.02052508294582367,
        -0.003074167063459754,
        0.2021171599626541,
        -0.014690693467855453,
        0.0770057961344719,
        0.017205366864800453,
        -0.2796057164669037,
        0.2196904569864273,
        0.14358508586883545,
        -0.005178234074264765,
        0.12713856995105743,
        0.09962988644838333,
        0.2063077986240387,
        0.0419512502849102,
        -0.05866512656211853,
        0.033366601914167404,
        0.022796785458922386,
        0.07997441291809082,
        0.0158214271068573,
        0.13250747323036194,
        -0.055411774665117264,
        0.10734791308641434,
        0.23010608553886414,
        0.22209323942661285,
        0.002852835925295949,
        0.14990881085395813,
        0.21162594854831696,
        0.13514477014541626,
        0.18514838814735413,
        0.07602335512638092,
        0.1920432597398758,
        -0.009185219183564186,
        0.2206156849861145,
        0.1917046159505844,
        0.1254800260066986,
        0.05024892836809158,
        0.08392317593097687,
        0.1824171096086502,
        0.05297992378473282,
        0.06267721951007843,
        0.19383102655410767,
        0.16757822036743164,
        0.22773762047290802,
        -0.021519843488931656,
        0.0828872099518776,
        0.09344984591007233,
        0.14659477770328522,
        0.19332058727741241,
        -0.015241372399032116,
        0.009066762402653694,
        0.1943524181842804,
        -0.20990829169750214,
        -0.005937166512012482,
        0.03561362996697426,
        -0.025806225836277008
      ],
      [
        0.025157539173960686,
        0.08981070667505264,
        0.09132940322160721,
        0.08827339857816696,
        0.20478512346744537,
        0.011160220950841904,
        -0.010103345848619938,
        0.1802775114774704,
        0.010172105394303799,
        0.017136679962277412,
        0.14558608829975128,
        0.2375333458185196,
        0.10488566756248474,
        0.21076072752475739,
        0.044653236865997314,
        0.07635136693716049,
        0.14536012709140778,
        0.08704311400651932,
        -0.018625836819410324,
        -0.09238415956497192,
        0.011144759133458138,
        -0.09840436279773712,
        0.21319922804832458,
        0.020935483276844025,
        0.11284012347459793,
        0.0911206305027008,
        0.2339288741350174,
        0.24271884560585022,
        0.16926787793636322,
        0.10475600510835648,
        -0.07448164373636246,
        0.08983808010816574,
        0.20532824099063873,
        0.1072506457567215,
        0.2420475035905838,
        0.19438894093036652,
        0.2374875545501709,
        -0.02308209426701069,
        -0.02248983457684517,
        -0.023842673748731613,
        0.09665309637784958,
        0.06975777447223663,
        -0.010871839709579945,
        0.24467118084430695,
        0.028028424829244614,
        0.1450393795967102,
        -0.08162545412778854,
        -0.08413993567228317,
        0.047855447977781296,
        -0.16191822290420532,
        0.16357898712158203,
        0.04549415782094002,
        0.03381899371743202,
        0.21197225153446198,
        0.0034159538336098194,
        0.2649458050727844,
        0.04882729426026344,
        0.0028037528973072767,
        -0.07663409411907196,
        -0.011720159091055393,
        -0.06246152147650719,
        0.05377766117453575,
        0.1459682583808899,
        0.014984180219471455,
        0.0956856980919838,
        0.2588631808757782,
        0.12434415519237518,
        -0.07888760417699814,
        0.15534916520118713,
        0.0733504444360733,
        0.20320405066013336,
        0.196903795003891,
        -0.10622741281986237,
        0.19213825464248657,
        0.01050636637955904,
        0.07260879874229431,
        0.12242032587528229,
        0.26439645886421204,
        -0.0952489897608757,
        0.08264565467834473,
        0.25810447335243225,
        0.2764936089515686,
        0.18903517723083496,
        0.11626915633678436,
        0.039889492094516754,
        0.20154422521591187,
        0.060945019125938416,
        0.13964347541332245,
        0.13214963674545288,
        0.12730859220027924,
        0.17903895676136017,
        -0.05620713531970978,
        0.04011222720146179,
        0.07130496948957443,
        0.06036635860800743,
        0.09244406968355179,
        0.06666762381792068,
        -0.002980227814987302
      ],
      [
        0.0323198176920414,
        0.041397031396627426,
        0.03664171323180199,
        0.21919403970241547,
        0.09153670072555542,
        0.0478704497218132,
        0.05687512457370758,
        0.12819969654083252,
        -0.05930713191628456,
        -0.060643136501312256,
        0.1206735149025917,
        0.20551587641239166,
        0.1283738613128662,
        0.21345850825309753,
        -0.05066178739070892,
        0.07927411794662476,
        0.2024480402469635,
        0.1409023553133011,
        0.058193549513816833,
        0.08553116768598557,
        -0.03885084390640259,
        0.01148370373994112,
        0.2186635583639145,
        0.07312438637018204,
        0.20298340916633606,
        0.0943111777305603,
        0.19637852907180786,
        0.10079795122146606,
        0.12975196540355682,
        0.18120832741260529,
        -0.013973727822303772,
        0.07748422026634216,
        0.11805441230535507,
        0.07726658135652542,
        0.1345861405134201,
        0.20975568890571594,
        0.1884080320596695,
        -0.023742366582155228,
        0.01240985095500946,
        -0.30797895789146423,
        0.16673655807971954,
        0.16297036409378052,
        0.027806419879198074,
        0.08257219195365906,
        0.08448793739080429,
        0.11811050027608871,
        -0.03177007660269737,
        -0.042950890958309174,
        0.050222329795360565,
        -0.1723640412092209,
        0.21669383347034454,
        0.19425976276397705,
        0.01840304769575596,
        0.12139900028705597,
        0.07964121550321579,
        0.02770945429801941,
        -0.07285861670970917,
        -0.08546574413776398,
        -0.08016323298215866,
        -0.023297658190131187,
        -0.06598557531833649,
        0.10455051064491272,
        0.06469140946865082,
        0.04251016676425934,
        0.1617087423801422,
        0.12999801337718964,
        0.10400286316871643,
        0.08109299093484879,
        0.24028412997722626,
        0.22847773134708405,
        0.16258731484413147,
        0.1303180456161499,
        0.2152142971754074,
        0.13385125994682312,
        -0.051781583577394485,
        0.12297601997852325,
        0.22200535237789154,
        0.06616959720849991,
        -0.06861501932144165,
        0.18760482966899872,
        0.1343817114830017,
        0.11468718945980072,
        0.2255215048789978,
        0.2756044864654541,
        0.14446625113487244,
        0.15508708357810974,
        -0.07334894686937332,
        0.0702788233757019,
        0.09994421899318695,
        0.23294955492019653,
        0.2133941948413849,
        -0.09769049286842346,
        0.07399635761976242,
        0.13894633948802948,
        -0.0215439535677433,
        0.013385044410824776,
        -0.039516717195510864,
        -0.06943376362323761
      ],
      [
        -0.043775174766778946,
        0.09057211130857468,
        -0.02753434330224991,
        0.2271079570055008,
        -0.5617117881774902,
        0.08500704914331436,
        -0.0748492032289505,
        -1.0772435665130615,
        0.011689500883221626,
        -0.038204144686460495,
        -0.13999028503894806,
        -0.18099546432495117,
        -0.17587153613567352,
        0.01910446770489216,
        0.07632725685834885,
        0.00023443280952051282,
        0.020726406946778297,
        0.04426060989499092,
        0.007020316086709499,
        -0.02275627665221691,
        0.01849115826189518,
        -0.08738090842962265,
        0.016990050673484802,
        0.038140080869197845,
        -0.03248068690299988,
        -0.1344115287065506,
        0.17452968657016754,
        0.4249853789806366,
        0.0664893314242363,
        -0.5082695484161377,
        -0.05310870334506035,
        0.045220401138067245,
        0.030823715031147003,
        0.015181238763034344,
        -0.11656707525253296,
        -0.05100304260849953,
        0.1263616383075714,
        -0.034752219915390015,
        0.007511507719755173,
        -0.10409646481275558,
        0.7422264218330383,
        -0.25854814052581787,
        -0.04579466953873634,
        0.6805580854415894,
        0.0743940994143486,
        -0.1253165751695633,
        0.01040989812463522,
        -0.07526949048042297,
        -0.030691105872392654,
        0.07209757715463638,
        0.6968268752098083,
        -0.29146063327789307,
        -0.03664744272828102,
        0.6870414018630981,
        0.02632310427725315,
        -0.2590859532356262,
        0.03518226370215416,
        0.08967237919569016,
        0.0044559333473443985,
        0.07828465104103088,
        -0.08555731922388077,
        -0.7090011835098267,
        -0.675025463104248,
        0.05396394431591034,
        -0.42033836245536804,
        0.14514505863189697,
        0.969783365726471,
        0.017236147075891495,
        -0.10508891940116882,
        0.07372866570949554,
        0.9118214249610901,
        -0.13734139502048492,
        -0.5161461234092712,
        0.022881489247083664,
        0.027580367401242256,
        -0.11002084612846375,
        -0.21546466648578644,
        0.17593510448932648,
        0.08117662370204926,
        0.1839926838874817,
        0.044017184525728226,
        -0.03563715144991875,
        -0.12245970219373703,
        -0.43752068281173706,
        0.9949899911880493,
        0.6126608848571777,
        0.06296800822019577,
        0.04721778631210327,
        0.26689955592155457,
        0.22471514344215393,
        0.023727724328637123,
        -0.08019696176052094,
        -0.09279235452413559,
        -1.3090307712554932,
        -0.07208886742591858,
        0.01328421663492918,
        0.007745265960693359,
        0.06194755807518959
      ],
      [
        -0.027987590059638023,
        -0.04990566149353981,
        0.02462676540017128,
        -0.07475776225328445,
        0.21947665512561798,
        -0.05855480954051018,
        -0.0050329240038990974,
        0.861721932888031,
        0.0008455741335637867,
        0.09559037536382675,
        0.23745998740196228,
        0.222490131855011,
        0.2543790936470032,
        0.03582019358873367,
        -0.054349035024642944,
        0.07247406244277954,
        -0.08721666038036346,
        0.04883058741688728,
        -0.041556794196367264,
        0.006681323051452637,
        0.06680429726839066,
        -0.01436671707779169,
        -0.07333509624004364,
        -0.031557440757751465,
        0.10867775231599808,
        0.13597941398620605,
        -0.06470466405153275,
        0.524498462677002,
        -0.04077939689159393,
        -0.01068588811904192,
        0.08840993046760559,
        0.014339453540742397,
        -0.005917367525398731,
        0.07663629949092865,
        0.24286849796772003,
        0.08979804068803787,
        0.018080275505781174,
        0.069005087018013,
        -0.05743754655122757,
        0.2620173394680023,
        -0.6846838593482971,
        0.10574463754892349,
        -0.01305993553251028,
        0.4340553283691406,
        0.07826154679059982,
        0.7453152537345886,
        0.07977622747421265,
        -0.033065080642700195,
        0.07094139605760574,
        0.17244230210781097,
        -0.6075478792190552,
        0.030721250921487808,
        -0.055333103984594345,
        0.539821982383728,
        0.03967185318470001,
        0.8965181708335876,
        0.057556409388780594,
        -0.009646004997193813,
        0.06958586722612381,
        -0.0136006074026227,
        0.10023899376392365,
        0.8633360266685486,
        0.9744741320610046,
        -0.021251849830150604,
        -0.5992502570152283,
        0.661886990070343,
        -0.8385725021362305,
        -0.04816340655088425,
        -0.3017958104610443,
        -0.3298889994621277,
        -0.7767395973205566,
        0.07507182657718658,
        -0.8828688263893127,
        0.7917630076408386,
        -0.05867777019739151,
        0.004134630784392357,
        0.10207439213991165,
        -0.059305425733327866,
        -0.08983910083770752,
        -0.2611088454723358,
        -0.15690389275550842,
        0.23371942341327667,
        0.1555945873260498,
        0.01756112277507782,
        -0.9499247670173645,
        -0.682567298412323,
        0.02277553081512451,
        -0.23029102385044098,
        -0.3046826422214508,
        -0.149248406291008,
        -0.11411008983850479,
        0.04352801293134689,
        -0.09000005573034286,
        0.2596810758113861,
        0.254000723361969,
        -0.09632498770952225,
        0.02302006632089615,
        0.013892215676605701
      ],
      [
        -0.060413822531700134,
        0.08177922666072845,
        -0.05902637168765068,
        0.13413496315479279,
        0.18851038813591003,
        0.07597192376852036,
        -0.059887733310461044,
        0.017999039962887764,
        0.03327608108520508,
        -0.07967951893806458,
        0.1990169733762741,
        0.02128560282289982,
        0.14387203752994537,
        0.14962060749530792,
        -0.013706780970096588,
        0.09107229858636856,
        0.10666157305240631,
        0.04171948507428169,
        -0.06333784013986588,
        0.037820570170879364,
        0.06789495050907135,
        0.0849711075425148,
        0.19584576785564423,
        -0.004593320190906525,
        0.09828882664442062,
        0.0793280303478241,
        0.054901525378227234,
        0.037513941526412964,
        0.1539534479379654,
        0.03955550119280815,
        -0.03356315940618515,
        -0.02183670364320278,
        0.10591574013233185,
        0.16923776268959045,
        0.183387890458107,
        0.08385361731052399,
        0.0620209202170372,
        0.03900623321533203,
        0.017331579700112343,
        -0.02767467126250267,
        0.18083585798740387,
        0.0941113606095314,
        -0.08872497081756592,
        0.10398489236831665,
        -0.07941780984401703,
        -0.1710767298936844,
        -0.08841896057128906,
        0.054556604474782944,
        -0.07091497629880905,
        -0.07387137413024902,
        0.17484313249588013,
        0.14102961122989655,
        0.05635795742273331,
        0.05671034753322601,
        -0.018558606505393982,
        -0.07257375121116638,
        -0.025377364829182625,
        0.08153355121612549,
        0.0238700732588768,
        0.025393681600689888,
        -0.049460988491773605,
        0.17894858121871948,
        0.07262308150529861,
        0.02799127623438835,
        0.04062854126095772,
        0.2247374951839447,
        0.23252524435520172,
        -0.010255412198603153,
        0.14779627323150635,
        0.10117661952972412,
        0.16034391522407532,
        0.19021879136562347,
        0.12745432555675507,
        0.07638950645923615,
        -0.0477503202855587,
        0.06289030611515045,
        0.09099768102169037,
        0.13344113528728485,
        0.03599178418517113,
        0.04956375062465668,
        0.11557197570800781,
        0.09896310418844223,
        0.18160971999168396,
        0.227789968252182,
        0.16541582345962524,
        0.11622785031795502,
        -0.04086046665906906,
        0.17171530425548553,
        0.2197580486536026,
        0.11206265538930893,
        0.17769043147563934,
        -0.0867764875292778,
        -0.07110759615898132,
        0.09445492923259735,
        -0.013107744045555592,
        0.08319126814603806,
        -0.01716405153274536,
        0.01125679723918438
      ],
      [
        0.027533957734704018,
        -0.09193011373281479,
        -0.04905250295996666,
        -0.0824042484164238,
        -0.20420581102371216,
        0.03218219056725502,
        -0.05927833914756775,
        -0.18822361528873444,
        0.0021164221689105034,
        0.08483928442001343,
        -0.18282611668109894,
        -0.15000808238983154,
        -0.12919962406158447,
        -0.1341627538204193,
        0.08709575235843658,
        0.04364733770489693,
        -0.18656842410564423,
        -0.16051547229290009,
        0.01181270182132721,
        0.007298316806554794,
        0.0010009515099227428,
        0.017109885811805725,
        -0.23643456399440765,
        -0.07685550302267075,
        -0.23385171592235565,
        -0.0642363503575325,
        -0.18430469930171967,
        -0.16726644337177277,
        -0.07043320685625076,
        -0.17219673097133636,
        -0.013590431772172451,
        0.09517885744571686,
        -0.21503521502017975,
        -0.21951664984226227,
        -0.23437120020389557,
        -0.05168156698346138,
        -0.1008143275976181,
        -0.06090512126684189,
        -0.09937823563814163,
        -0.034869540482759476,
        -0.07070574164390564,
        -0.23416700959205627,
        0.08916880935430527,
        -0.08499719947576523,
        0.022166220471262932,
        0.03783763200044632,
        0.010387440212070942,
        0.018929919227957726,
        0.015500358305871487,
        0.02806711383163929,
        -0.15199364721775055,
        -0.09697338193655014,
        0.0771750956773758,
        -0.06453172862529755,
        0.08289399743080139,
        0.07434665411710739,
        -0.023794881999492645,
        0.07996858656406403,
        0.08433584123849869,
        0.033127374947071075,
        -0.06586563587188721,
        -0.08821134269237518,
        -0.0778033435344696,
        -0.00911626685410738,
        -0.20382535457611084,
        -0.22326689958572388,
        -0.23997972905635834,
        -0.07099384069442749,
        -0.20745278894901276,
        -0.08627458661794662,
        -0.08794660866260529,
        -0.1527109444141388,
        -0.20170104503631592,
        0.06559275835752487,
        -0.08207935094833374,
        -0.19995398819446564,
        -0.12321939319372177,
        -0.12994104623794556,
        -0.07632654905319214,
        -0.11039558798074722,
        -0.07123764604330063,
        -0.22960448265075684,
        -0.1370493769645691,
        -0.20546914637088776,
        -0.1500452160835266,
        -0.06648864597082138,
        -0.0005038956878706813,
        -0.1079985722899437,
        -0.05493457242846489,
        -0.030651666224002838,
        -0.16447708010673523,
        -0.06286042183637619,
        0.10044210404157639,
        -0.0671352818608284,
        0.006668968126177788,
        0.0720297321677208,
        0.050997842103242874,
        0.03570576384663582
      ],
      [
        0.011953894048929214,
        -0.09423788636922836,
        0.01095506176352501,
        -0.1650017946958542,
        -0.04116682708263397,
        0.04743289574980736,
        -0.03466515615582466,
        0.22231517732143402,
        -0.004760342184454203,
        0.09129968285560608,
        -0.18199071288108826,
        -0.12054618448019028,
        -0.08345808833837509,
        -0.18842461705207825,
        -0.039424873888492584,
        -0.033622901886701584,
        -0.2014976590871811,
        -0.18190398812294006,
        0.07180926948785782,
        -0.09812760353088379,
        -0.0759461298584938,
        -0.008111727423965931,
        -0.19076108932495117,
        -0.053548797965049744,
        -0.17122527956962585,
        -0.19740331172943115,
        -0.15343140065670013,
        -0.11337175220251083,
        -0.2537442445755005,
        -0.033005472272634506,
        0.059021808207035065,
        -0.09116729348897934,
        -0.1530214250087738,
        -0.08174218982458115,
        -0.1764889806509018,
        -0.06642933189868927,
        -0.19708594679832458,
        -0.0512385256588459,
        0.003906808327883482,
        -0.04524929076433182,
        -0.11588987708091736,
        -0.1944204866886139,
        0.0019362021703273058,
        -0.05261123925447464,
        -0.040296733379364014,
        0.19960418343544006,
        0.03075336292386055,
        0.05333763360977173,
        -0.07263031601905823,
        -0.09332496672868729,
        -0.10761713981628418,
        -0.15317793190479279,
        -0.0501280277967453,
        -0.1602056324481964,
        0.008952761068940163,
        0.1972367912530899,
        0.09611238539218903,
        0.037019047886133194,
        0.017818905413150787,
        -0.07761890441179276,
        0.07589573413133621,
        -0.007060444913804531,
        0.24006225168704987,
        0.07818406820297241,
        -0.10359612852334976,
        -0.12165738642215729,
        -0.2085038125514984,
        -0.041745804250240326,
        -0.2197932004928589,
        -0.27892133593559265,
        -0.26305127143859863,
        -0.08923424780368805,
        -0.12686334550380707,
        0.01979532465338707,
        -0.021775169298052788,
        -0.19115065038204193,
        -0.14943461120128632,
        -0.16552668809890747,
        -0.09512665122747421,
        -0.1406886726617813,
        -0.22314952313899994,
        -0.22159717977046967,
        -0.21050463616847992,
        -0.1589675098657608,
        -0.2947845160961151,
        -0.11206786334514618,
        -0.09757037460803986,
        -0.10564113408327103,
        -0.08563848584890366,
        -0.03822668269276619,
        -0.16718991100788116,
        -0.029795341193675995,
        0.033667925745248795,
        -0.05114156752824783,
        0.04161757975816727,
        0.047271326184272766,
        -0.06347601115703583,
        -0.017496325075626373
      ],
      [
        -0.0010619440581649542,
        0.08403889834880829,
        -0.09371370822191238,
        -0.21294088661670685,
        -0.203181192278862,
        0.06003221496939659,
        -0.08220293372869492,
        -0.13372378051280975,
        0.0694497600197792,
        0.03946075960993767,
        -0.1928946077823639,
        -0.2198716104030609,
        -0.17297829687595367,
        -0.14046241343021393,
        0.023217398673295975,
        -0.013545828871428967,
        -0.21999874711036682,
        -0.14673875272274017,
        -0.031965505331754684,
        0.0406019501388073,
        -0.07379142194986343,
        0.08135786652565002,
        -0.22637119889259338,
        -0.09291684627532959,
        -0.10383833199739456,
        -0.16567693650722504,
        -0.07113858312368393,
        -0.11624103784561157,
        -0.24915048480033875,
        -0.11893049627542496,
        -0.019891362637281418,
        -0.021687492728233337,
        -0.22162391245365143,
        -0.09324345737695694,
        -0.2144695520401001,
        -0.05386108532547951,
        -0.19766046106815338,
        0.020060105249285698,
        0.036465391516685486,
        -0.11980170756578445,
        -0.18706411123275757,
        -0.1545480340719223,
        -0.03159373626112938,
        -0.1231134906411171,
        -0.07843350619077682,
        -0.11623221635818481,
        0.032585762441158295,
        -0.0889449268579483,
        -0.08143223077058792,
        -0.058352112770080566,
        -0.22578084468841553,
        -0.23063330352306366,
        0.060168445110321045,
        -0.07943553477525711,
        0.060593657195568085,
        -0.21931692957878113,
        -0.0009070603991858661,
        0.03544105589389801,
        0.08898971974849701,
        0.08577553182840347,
        0.08551862090826035,
        -0.027827901765704155,
        -0.08326626569032669,
        0.026894157752394676,
        -0.0787733644247055,
        -0.18474924564361572,
        -0.180872842669487,
        -0.0447130985558033,
        -0.23817630112171173,
        -0.1873820275068283,
        -0.10477317124605179,
        -0.14460435509681702,
        -0.21104709804058075,
        -0.19436386227607727,
        0.06094317510724068,
        -0.07714630663394928,
        -0.10803905874490738,
        -0.20239496231079102,
        0.08379551023244858,
        -0.08228666335344315,
        -0.24724581837654114,
        -0.04945271089673042,
        -0.11289603263139725,
        -0.08705732971429825,
        -0.06631039083003998,
        -0.1206645518541336,
        -0.059783753007650375,
        -0.1483789086341858,
        -0.08263711631298065,
        -0.20607449114322662,
        -0.2507634162902832,
        -0.029333628714084625,
        -0.0015837822575122118,
        -0.14110438525676727,
        -0.12905581295490265,
        0.060555774718523026,
        0.04179099574685097,
        0.09166661649942398
      ],
      [
        0.04699253290891647,
        0.053395744413137436,
        -0.0009444747702218592,
        -0.1827487349510193,
        -0.1950446367263794,
        0.03702168166637421,
        -0.06320949643850327,
        -0.05323260277509689,
        -0.100691057741642,
        0.01091916486620903,
        -0.1836816668510437,
        -0.10857607424259186,
        -0.11972011625766754,
        -0.15931984782218933,
        0.08286502957344055,
        -0.017832476645708084,
        -0.24122509360313416,
        -0.145722433924675,
        0.07504426687955856,
        -0.07755476236343384,
        0.08424012362957001,
        -0.058528438210487366,
        -0.1943855732679367,
        0.0942659080028534,
        -0.21237049996852875,
        -0.10045745968818665,
        -0.10978822410106659,
        -0.16668634116649628,
        -0.22979363799095154,
        -0.07433542609214783,
        -0.03813399747014046,
        0.01777932234108448,
        -0.10191065818071365,
        -0.23208212852478027,
        -0.08211815357208252,
        -0.05290002003312111,
        -0.1211126446723938,
        0.0788019523024559,
        0.0858674943447113,
        0.20627610385417938,
        -0.15046672523021698,
        -0.20716650784015656,
        0.08367324620485306,
        -0.046086013317108154,
        -0.03729592636227608,
        -0.10037864744663239,
        -0.011914866045117378,
        -0.005097011104226112,
        0.05095842853188515,
        0.16930581629276276,
        -0.1013239398598671,
        -0.17955778539180756,
        0.02645345777273178,
        -0.13941898941993713,
        -0.0012100239982828498,
        -0.21408133208751678,
        0.018405649811029434,
        -0.0664764940738678,
        0.0856085792183876,
        0.08071514219045639,
        0.07902485877275467,
        -0.0849761962890625,
        -0.11587144434452057,
        -0.04261758178472519,
        -0.12757998704910278,
        -0.15275168418884277,
        -0.1747053563594818,
        -0.08853048086166382,
        -0.12237433344125748,
        -0.18386292457580566,
        -0.06240162253379822,
        -0.09303940832614899,
        -0.19124333560466766,
        -0.03798310086131096,
        0.06741313636302948,
        -0.20551787316799164,
        -0.1442861109972,
        -0.06648630648851395,
        -0.06954190135002136,
        -0.09441501647233963,
        -0.16630998253822327,
        -0.19961130619049072,
        -0.13254617154598236,
        -0.1837521642446518,
        -0.15179705619812012,
        -0.22135590016841888,
        0.0009714848711155355,
        -0.10067419707775116,
        -0.0740964263677597,
        -0.05505158752202988,
        -0.1976800560951233,
        0.05386502295732498,
        0.054561372846364975,
        0.04750591516494751,
        0.09549535065889359,
        0.06810331344604492,
        0.03158658370375633,
        0.02291225455701351
      ]
    ]
  },
  "schemaVersion": "temporal-event-detector-v1",
  "segmentAttention": {
    "bias": -0.13511614501476288,
    "weight": [
      -0.9296520948410034,
      0.5270511507987976,
      0.5908259153366089,
      -0.20583218336105347,
      -0.5537961721420288,
      -0.5196435451507568,
      -0.038250263780355453,
      0.5915853977203369,
      -0.060246482491493225,
      0.8180835843086243,
      -0.03166164085268974,
      0.7555374503135681,
      -0.351197212934494,
      0.36299988627433777,
      0.36532849073410034,
      -0.07358893007040024,
      -0.3957226276397705,
      0.07662348449230194
    ]
  },
  "sourceDataset": "perception_supervision+phase4_event_localization_queue+teacher_backed",
  "startHead": {
    "bias": 0.1499788761138916,
    "weight": [
      1.5347645282745361,
      0.9122893214225769,
      -1.2011756896972656,
      0.024851251393556595,
      1.184144139289856,
      1.0920299291610718,
      0.814693033695221,
      -1.14412522315979,
      0.25949227809906006,
      -1.0058499574661255,
      0.06293921172618866,
      -1.2773809432983398,
      1.0220787525177002,
      0.28844594955444336,
      -0.4667854309082031,
      0.5282607078552246,
      1.199069619178772,
      -0.37995675206184387
    ]
  },
  "targets": {
    "eventFamily": {
      "bias": [
        0.1397259384393692,
        0.004781720228493214,
        -0.18424317240715027,
        -0.23704159259796143,
        -0.006471586413681507
      ],
      "classes": [
        "shot_attempt",
        "turnover",
        "defensive_event",
        "transition",
        "other"
      ],
      "marginThreshold": 0.06,
      "temperature": 1.0,
      "topK": 3,
      "uncertaintyThreshold": 0.48,
      "weight": [
        [
          0.008106122724711895,
          -0.10538887232542038,
          0.6385160088539124,
          0.08568760752677917,
          -0.10306783020496368,
          0.7241986393928528,
          0.09350892901420593,
          -0.4519665837287903,
          0.09351519495248795,
          0.10002771019935608,
          0.18102245032787323,
          -0.08256060630083084,
          -0.047076087445020676,
          0.12015527486801147,
          -0.036119431257247925,
          -0.2790714502334595,
          -0.29388853907585144,
          -0.0337335541844368,
          0.03412314131855965,
          -0.1674628108739853,
          0.4147055149078369,
          0.12246494740247726,
          -0.011886863969266415,
          0.8656543493270874,
          0.05968328192830086,
          -0.31297463178634644,
          0.2191246747970581,
          0.17132970690727234,
          0.19216540455818176,
          -0.22761960327625275,
          -0.3961943984031677,
          0.10788305848836899,
          -0.035343095660209656,
          -0.11914611607789993,
          -0.26555079221725464,
          -0.06423376500606537,
          0.10027837008237839,
          -0.20455114543437958,
          0.4886121451854706,
          0.2743256688117981,
          -0.131910502910614,
          0.9193770289421082,
          0.07420401275157928,
          -0.25317588448524475,
          0.13707545399665833,
          0.10695721954107285,
          0.24374908208847046,
          -0.1305837333202362,
          -0.2502983510494232,
          0.01619965396821499,
          -0.11204013973474503,
          -0.11145427823066711,
          -0.2841669023036957,
          -0.14717528223991394,
          0.07175920158624649,
          0.058167465031147,
          0.03391280397772789,
          0.05656925216317177,
          -0.25601711869239807,
          0.37676119804382324,
          -0.3563987612724304,
          -0.004244864918291569,
          -0.11333873867988586,
          0.3940105438232422,
          0.1663742959499359,
          0.05401654914021492,
          0.41674867272377014,
          0.11752636730670929,
          0.2483183741569519,
          -0.29764577746391296,
          0.09035836160182953,
          0.2537814676761627
        ],
        [
          0.23438438773155212,
          -0.21531423926353455,
          -0.42529478669166565,
          -0.0140717513859272,
          0.04131581634283066,
          -0.7346351146697998,
          -0.47666114568710327,
          0.05214393511414528,
          0.11254334449768066,
          0.2937001585960388,
          -0.01991826854646206,
          0.3691513240337372,
          -0.2657468914985657,
          0.21477243304252625,
          -0.1754385083913803,
          -0.005741223692893982,
          -0.055771782994270325,
          -0.12038445472717285,
          0.007966972887516022,
          0.16399040818214417,
          0.16120871901512146,
          0.1686536967754364,
          0.1623840183019638,
          0.12592633068561554,
          0.199522465467453,
          0.025738045573234558,
          0.016830476000905037,
          0.016154371201992035,
          0.19450455904006958,
          0.0025873547419905663,
          0.1372370421886444,
          0.09663436561822891,
          0.059840939939022064,
          0.0041668773628771305,
          0.2188698798418045,
          0.028757646679878235,
          0.3477797508239746,
          -0.04075487703084946,
          -0.6529425382614136,
          -0.006666651926934719,
          0.1847086399793625,
          -0.6838688254356384,
          -0.2944803833961487,
          0.16640879213809967,
          0.07754400372505188,
          0.0857546254992485,
          -0.07792548835277557,
          0.46676990389823914,
          -0.22881272435188293,
          0.1710660755634308,
          -0.07181352376937866,
          0.12650826573371887,
          0.017107026651501656,
          -0.10266341269016266,
          -0.22054900228977203,
          -0.05470803380012512,
          -0.3862203061580658,
          -0.18574970960617065,
          0.9679443836212158,
          -0.6016154289245605,
          1.1941068172454834,
          0.4831483066082001,
          0.26581114530563354,
          -0.8832789659500122,
          -0.18187828361988068,
          0.2873933017253876,
          -0.4741418659687042,
          -0.12641732394695282,
          -0.26143330335617065,
          0.41428473591804504,
          -0.04059022292494774,
          -0.17728279531002045
        ],
        [
          0.04698554798960686,
          0.3943052589893341,
          0.3682728707790375,
          -0.055553995072841644,
          -0.07131404429674149,
          0.021608365699648857,
          -0.06481703370809555,
          -0.007148297969251871,
          -0.05129387229681015,
          0.0003435942344367504,
          -0.09735415130853653,
          0.22384952008724213,
          0.08390835672616959,
          0.014062827453017235,
          0.015932274982333183,
          0.17581605911254883,
          0.1544477939605713,
          0.18063150346279144,
          0.21465282142162323,
          0.44538334012031555,
          0.6211799383163452,
          -0.09418922662734985,
          0.07061956077814102,
          -0.08391440659761429,
          -0.0329737663269043,
          0.06098534166812897,
          -0.005963390693068504,
          -0.018211541697382927,
          -0.1810719072818756,
          0.6775422692298889,
          0.3764636218547821,
          -0.004288689233362675,
          0.1375800520181656,
          0.13761793076992035,
          0.2627575695514679,
          0.03206327185034752,
          -0.08183041960000992,
          0.2602136433124542,
          0.49972301721572876,
          0.0027283402159810066,
          -0.07730193436145782,
          -0.1184929758310318,
          -0.16311848163604736,
          0.035202402621507645,
          -0.1911078691482544,
          0.04543863236904144,
          -0.17578205466270447,
          0.6290430426597595,
          0.12273956090211868,
          -0.11586937308311462,
          0.15620645880699158,
          0.24145667254924774,
          0.05746154859662056,
          -0.008766633458435535,
          -0.23038139939308167,
          0.6309125423431396,
          0.8848053812980652,
          -0.008489721454679966,
          -0.13176590204238892,
          -0.3519766330718994,
          0.09328853338956833,
          0.15099617838859558,
          0.05720601603388786,
          0.36471259593963623,
          -0.07738017290830612,
          0.6580229997634888,
          -0.4200943410396576,
          -0.273053914308548,
          -0.12069985270500183,
          0.14074145257472992,
          -0.20729072391986847,
          -0.043055009096860886
        ],
        [
          -0.3630300462245941,
          0.5412534475326538,
          -1.0940561294555664,
          -0.08059234917163849,
          -0.08861976116895676,
          -0.5859060883522034,
          -0.11394298821687698,
          0.613985538482666,
          -0.08729662746191025,
          -0.08626053482294083,
          -0.1130547970533371,
          -1.1493566036224365,
          0.2985672950744629,
          -0.06844505667686462,
          0.10951416939496994,
          0.18056026101112366,
          0.2420164942741394,
          0.09119370579719543,
          -0.2264295071363449,
          0.46016135811805725,
          -0.7848919034004211,
          0.1399582326412201,
          0.011977141723036766,
          -0.6566455364227295,
          -0.09354723244905472,
          0.8262330889701843,
          0.23056305944919586,
          0.09309646487236023,
          0.23848803341388702,
          -1.0030810832977295,
          0.3042552173137665,
          0.2352203130722046,
          0.1477745771408081,
          0.20687700808048248,
          0.40677008032798767,
          0.14776653051376343,
          -0.46396541595458984,
          0.38581711053848267,
          -0.994866132736206,
          -0.0017031102906912565,
          -0.12317994236946106,
          -0.6588812470436096,
          0.05789567530155182,
          0.4487948417663574,
          -0.12063375860452652,
          -0.1399378925561905,
          0.03076542541384697,
          -1.3574353456497192,
          0.4020649492740631,
          -0.16192062199115753,
          0.12848085165023804,
          -0.023633809760212898,
          0.12501591444015503,
          0.08484745025634766,
          0.11531195044517517,
          0.011851032264530659,
          -0.5548592805862427,
          -0.010879888199269772,
          -0.30624139308929443,
          0.027730684727430344,
          -1.3143140077590942,
          -0.5117140412330627,
          0.20855183899402618,
          0.126924529671669,
          -0.14698772132396698,
          -0.7190201878547668,
          -0.3527805209159851,
          -0.322109580039978,
          0.035146404057741165,
          0.09669466316699982,
          -0.1576201319694519,
          -0.05152580142021179
        ],
        [
          -0.35952022671699524,
          -0.048778023570775986,
          0.4780857264995575,
          -0.038435835391283035,
          0.031164055690169334,
          -0.2285166084766388,
          0.16903598606586456,
          0.3067707419395447,
          -0.07647790759801865,
          -0.18683083355426788,
          -0.1328185647726059,
          0.541286051273346,
          0.00865628756582737,
          -0.06962598860263824,
          0.11653339117765427,
          0.0518861822783947,
          0.04661240428686142,
          0.04167957976460457,
          -0.31214892864227295,
          -0.2938697338104248,
          -0.11349153518676758,
          -0.16860555112361908,
          -0.13760708272457123,
          -0.10954992473125458,
          -0.21960756182670593,
          -0.15108174085617065,
          -0.21014860272407532,
          -0.15760649740695953,
          -0.26454442739486694,
          -0.16982769966125488,
          -0.19503818452358246,
          -0.1975533664226532,
          -0.29903122782707214,
          -0.3194637894630432,
          -0.2155223786830902,
          -0.17747917771339417,
          -0.24415722489356995,
          -0.1681429147720337,
          0.1945616602897644,
          -0.20364820957183838,
          0.2875320017337799,
          -0.3028060793876648,
          0.200152188539505,
          0.3345095217227936,
          -0.15855497121810913,
          -0.04708888754248619,
          0.0339869000017643,
          0.3134308457374573,
          0.21190057694911957,
          -0.09596894681453705,
          0.004134727641940117,
          0.13596215844154358,
          0.15337158739566803,
          0.08614782243967056,
          0.3045012950897217,
          -0.2501465082168579,
          -0.2778782844543457,
          -0.187135711312294,
          0.3302716314792633,
          0.02221601828932762,
          0.12344137579202652,
          0.09440331161022186,
          0.12210118025541306,
          -0.2261885702610016,
          -0.04608896002173424,
          -0.22887533903121948,
          0.20561262965202332,
          -0.2410452514886856,
          -0.08673699200153351,
          -0.21996837854385376,
          0.2894577980041504,
          -0.14663007855415344
        ]
      ]
    },
    "outcome": {
      "bias": [
        0.16864614188671112,
        5.975761450827122e-05,
        -0.26172295212745667,
        0.11711809784173965
      ],
      "classes": [
        "made",
        "missed",
        "blocked",
        "uncertain"
      ],
      "marginThreshold": 0.05,
      "temperature": 1.0,
      "topK": 3,
      "uncertaintyThreshold": 0.46,
      "weight": [
        [
          0.2953426241874695,
          0.4912566840648651,
          0.0573749765753746,
          0.16311480104923248,
          -0.029866743832826614,
          1.0265388488769531,
          0.3482053279876709,
          -0.30218183994293213,
          0.15098124742507935,
          -0.2580505907535553,
          -0.0586678721010685,
          -1.1970134973526,
          0.1201746016740799,
          -0.12972186505794525,
          0.007086168974637985,
          -0.02866700105369091,
          0.05889817327260971,
          -0.11142441630363464,
          -0.09548334777355194,
          0.3849267363548279,
          0.08018350601196289,
          0.034433167427778244,
          0.05551539361476898,
          1.1533441543579102,
          0.3161742091178894,
          -0.35363784432411194,
          0.05128629133105278,
          -0.1153917983174324,
          0.004874339792877436,
          -1.154274821281433,
          0.19102691113948822,
          0.033845204859972,
          -0.08684869110584259,
          -0.0024036483373492956,
          -0.12334129214286804,
          -0.046724144369363785,
          0.18070539832115173,
          0.4570992588996887,
          0.0654929131269455,
          0.16916745901107788,
          0.0494731143116951,
          0.9722816348075867,
          0.39214810729026794,
          -0.5312064290046692,
          0.03912089392542839,
          -0.06767404824495316,
          0.11229626834392548,
          -1.1324619054794312,
          0.2672540843486786,
          -0.08692370355129242,
          0.07953903079032898,
          0.011176591739058495,
          -0.018346501514315605,
          0.09562396258115768,
          0.36450308561325073,
          0.010895241983234882,
          0.04685775935649872,
          0.15389448404312134,
          0.04904297739267349,
          1.172326683998108,
          -0.5550314784049988,
          -0.9546888470649719,
          -0.13765205442905426,
          0.17349602282047272,
          0.09721587598323822,
          -0.7236049175262451,
          0.10627543926239014,
          0.28676533699035645,
          0.12313754856586456,
          0.27170440554618835,
          0.034456778317689896,
          0.06975610554218292
        ],
        [
          0.01633155159652233,
          -0.4294186532497406,
          0.8271267414093018,
          0.17060069739818573,
          -0.05582009255886078,
          0.10727616399526596,
          -0.01810907945036888,
          -0.38909268379211426,
          -0.05427996814250946,
          0.035920400172472,
          -0.011778371408581734,
          1.1063989400863647,
          -0.34701427817344666,
          0.00021477288100868464,
          -0.029117146506905556,
          -0.3817232847213745,
          -0.2715100049972534,
          -0.05068380385637283,
          0.10651829838752747,
          -0.4971569776535034,
          0.7708263397216797,
          0.03606095537543297,
          0.01674756221473217,
          0.061357419937849045,
          0.046460945159196854,
          -0.3318566679954529,
          0.11712896823883057,
          0.011091943830251694,
          0.10034489631652832,
          1.1429890394210815,
          -0.7230055332183838,
          0.08804017305374146,
          -0.10584515333175659,
          -0.6728362441062927,
          -0.21976615488529205,
          0.05450891703367233,
          -0.055428870022296906,
          -0.5847271680831909,
          0.8886551856994629,
          -0.01559518463909626,
          0.009754306636750698,
          0.0032380414195358753,
          -0.04087725281715393,
          -0.24958156049251556,
          0.14083629846572876,
          0.147859588265419,
          0.1804477721452713,
          1.150484561920166,
          -0.3530593812465668,
          -0.07571408152580261,
          -0.1358237862586975,
          -0.6833723187446594,
          -0.031245259568095207,
          -0.004217998590320349,
          -0.00021576415747404099,
          -0.4839624762535095,
          -0.106473907828331,
          0.1474810093641281,
          -0.11554476618766785,
          -1.1448895931243896,
          0.4832575023174286,
          0.9262566566467285,
          -0.16103200614452362,
          -0.026753371581435204,
          0.1709131896495819,
          0.5143197774887085,
          0.5762929916381836,
          0.09493005275726318,
          0.031585730612277985,
          -0.41846731305122375,
          0.3247125744819641,
          0.09069232642650604
        ],
        [
          -0.12588295340538025,
          0.23183327913284302,
          0.4024627208709717,
          -0.02941015735268593,
          -0.03972499445080757,
          -0.11566630750894547,
          -0.16691885888576508,
          0.16850507259368896,
          -0.19489805400371552,
          -0.11223098635673523,
          -0.1711256355047226,
          0.4177113175392151,
          0.09647717326879501,
          -0.0892023891210556,
          0.20280814170837402,
          0.26721301674842834,
          0.12559956312179565,
          0.08636261522769928,
          0.15480056405067444,
          0.11551342159509659,
          0.3999798595905304,
          -0.09933766722679138,
          0.14478206634521484,
          -0.22515054047107697,
          -0.07727871090173721,
          0.2645360231399536,
          -0.14298415184020996,
          -0.01756693795323372,
          -0.09453316777944565,
          0.4902215898036957,
          0.30125898122787476,
          -0.15572279691696167,
          0.18057957291603088,
          0.4027555286884308,
          0.2937173545360565,
          0.13337495923042297,
          -0.17154929041862488,
          0.116392120718956,
          0.3082723617553711,
          -0.21947793662548065,
          -0.013233780860900879,
          -0.12916238605976105,
          -0.15671667456626892,
          0.21202580630779266,
          -0.19334374368190765,
          0.028623029589653015,
          -0.06811636686325073,
          0.6432099938392639,
          0.23875698447227478,
          0.047711580991744995,
          0.15198203921318054,
          0.1778787225484848,
          0.18252786993980408,
          0.029768649488687515,
          -0.34462207555770874,
          0.5709262490272522,
          0.7899200916290283,
          -0.04854799807071686,
          -0.05380215123295784,
          0.0553361251950264,
          -0.19085641205310822,
          -0.026423713192343712,
          0.050261035561561584,
          0.20775625109672546,
          -0.1479901522397995,
          0.5453282594680786,
          -0.5934720635414124,
          -0.17730090022087097,
          -0.0896306037902832,
          0.4696428179740906,
          -0.1989908516407013,
          -0.22093701362609863
        ],
        [
          -0.13827821612358093,
          -0.35571423172950745,
          -0.8080861568450928,
          -0.004234247840940952,
          -0.06176647171378136,
          -0.7954887747764587,
          -0.2567153871059418,
          0.566030740737915,
          0.05421032756567001,
          0.2065826952457428,
          0.030740367248654366,
          -0.05159260705113411,
          0.042254380881786346,
          0.07676130533218384,
          3.438163548707962e-05,
          0.06569808721542358,
          0.18140237033367157,
          -0.17796872556209564,
          -0.014537932351231575,
          -0.3945736289024353,
          -0.9255321621894836,
          0.11612967401742935,
          -0.22442585229873657,
          -0.8531569838523865,
          -0.278789758682251,
          0.6206614375114441,
          0.2568361461162567,
          0.006220369599759579,
          0.07662086188793182,
          -0.05904024466872215,
          0.15602511167526245,
          0.051533088088035583,
          -0.12370209395885468,
          0.030831817537546158,
          0.26267939805984497,
          -0.04431358352303505,
          -0.24336551129817963,
          -0.372067391872406,
          -0.9939252734184265,
          0.13939504325389862,
          0.041249532252550125,
          -0.8651977777481079,
          -0.1775050014257431,
          0.6287587285041809,
          0.24247008562088013,
          0.01182723417878151,
          0.13485705852508545,
          -0.04496387019753456,
          0.053867027163505554,
          0.0755578875541687,
          -0.048989132046699524,
          0.029192017391324043,
          -0.02718964032828808,
          -0.13138273358345032,
          -0.11944662034511566,
          -0.3233010768890381,
          -0.6651089787483215,
          -0.03178616985678673,
          0.26757651567459106,
          -0.21614326536655426,
          0.4064161479473114,
          -0.263197124004364,
          0.3314806818962097,
          -0.3589979410171509,
          -0.22069312632083893,
          -0.2062603384256363,
          -0.5656591653823853,
          -0.005707277450710535,
          0.04996153712272644,
          0.30118393898010254,
          -0.37068861722946167,
          -0.006661055609583855
        ]
      ]
    },
    "shotSubtype": {
      "bias": [
        0.06476177275180817,
        0.2788631021976471,
        0.09957662969827652,
        -0.1354297697544098,
        -0.025526979938149452,
        -0.14134429395198822
      ],
      "classes": [
        "dunk",
        "layup",
        "jumper",
        "three",
        "putback",
        "null"
      ],
      "marginThreshold": 0.05,
      "temperature": 1.0,
      "topK": 3,
      "uncertaintyThreshold": 0.46,
      "weight": [
        [
          0.2860279083251953,
          0.818983793258667,
          -0.8385745286941528,
          0.24090464413166046,
          -0.04067461937665939,
          0.7893929481506348,
          0.24143075942993164,
          -0.2210400402545929,
          0.1766352653503418,
          -0.2775484323501587,
          0.20364099740982056,
          -1.2265623807907104,
          -0.603871762752533,
          0.18909505009651184,
          -0.10274442285299301,
          -0.5711761116981506,
          -0.2560306489467621,
          -0.049706242978572845,
          -0.33925703167915344,
          0.7344135642051697,
          -0.7415744662284851,
          0.12283824384212494,
          -0.25270214676856995,
          0.696243166923523,
          -0.0024262210354208946,
          -0.3570493161678314,
          0.18234121799468994,
          -0.26294973492622375,
          0.16353248059749603,
          -1.1577167510986328,
          -0.8968685269355774,
          0.04147758334875107,
          -0.25046709179878235,
          -0.8581789135932922,
          -0.3890177309513092,
          -0.2668355703353882,
          0.6221991777420044,
          0.5466107726097107,
          -0.8217008709907532,
          0.045699309557676315,
          0.1013372391462326,
          0.714076578617096,
          0.40391427278518677,
          -0.25648877024650574,
          0.20688368380069733,
          -0.37585291266441345,
          0.23195724189281464,
          -1.1376943588256836,
          -0.4347797632217407,
          0.19390025734901428,
          -0.06325088441371918,
          -0.795779824256897,
          0.0740608274936676,
          -0.04681870713829994,
          0.8197208642959595,
          -0.5010395646095276,
          -0.8294939398765564,
          0.13815563917160034,
          0.5765243768692017,
          -1.2470492124557495,
          0.9635871648788452,
          0.4205608367919922,
          0.1751195788383484,
          -0.5088267922401428,
          -0.3140334486961365,
          -0.5623428225517273,
          0.9066892862319946,
          -0.1738055795431137,
          -0.5766309499740601,
          -1.235037088394165,
          1.0069811344146729,
          -0.3376377820968628
        ],
        [
          0.4343990981578827,
          -1.0334726572036743,
          -0.38124266266822815,
          0.12284696847200394,
          -0.3173137307167053,
          -0.41819900274276733,
          0.13655385375022888,
          -0.08729328960180283,
          0.21680007874965668,
          0.33967238664627075,
          0.2685492932796478,
          0.0023338308092206717,
          -0.6092695593833923,
          0.12440164387226105,
          -0.1717202514410019,
          -0.22670488059520721,
          -0.13780486583709717,
          -0.1042197197675705,
          0.4468267261981964,
          -0.8486723899841309,
          -0.4471901059150696,
          0.24973858892917633,
          -0.25722387433052063,
          -0.5561749339103699,
          0.22922663390636444,
          -0.13689109683036804,
          0.1504393368959427,
          0.38480621576309204,
          0.2199673056602478,
          -0.1010015457868576,
          -0.780583381652832,
          0.21506662666797638,
          -0.06211911886930466,
          -0.29835525155067444,
          -0.38975292444229126,
          -0.06646445393562317,
          0.2516289949417114,
          -0.9858417510986328,
          -0.2880935072898865,
          0.257773756980896,
          -0.2986358404159546,
          -0.33214613795280457,
          -0.11985969543457031,
          -0.3591051995754242,
          0.07145079225301743,
          0.45192670822143555,
          0.14675535261631012,
          -0.03702499717473984,
          -0.6092076897621155,
          0.20348148047924042,
          -0.23099051415920258,
          -0.17104016244411469,
          -0.11220511794090271,
          -0.1680316925048828,
          -0.2115934193134308,
          -0.22292868793010712,
          -0.3244950473308563,
          0.05417850241065025,
          -0.1175592839717865,
          0.6622603535652161,
          -1.2352849245071411,
          -0.885556697845459,
          -0.08028340339660645,
          0.051608726382255554,
          0.19070270657539368,
          -0.25690987706184387,
          0.4494362771511078,
          0.07566023617982864,
          0.18589282035827637,
          -0.12677082419395447,
          0.17760640382766724,
          0.06108088046312332
        ],
        [
          0.07238088548183441,
          -0.04307778552174568,
          1.076647162437439,
          0.12116852402687073,
          -0.1408764272928238,
          -0.09118064492940903,
          -0.0699223205447197,
          0.09285549819469452,
          0.023525116965174675,
          0.08921949565410614,
          0.0924721285700798,
          1.2267111539840698,
          0.349750816822052,
          -0.05336618050932884,
          0.17022083699703217,
          0.3432815968990326,
          -0.023714300245046616,
          -0.03813502565026283,
          0.2627083957195282,
          0.018623575568199158,
          0.7852463722229004,
          0.06635277718305588,
          0.0742424726486206,
          -0.10252157598733902,
          -0.09084999561309814,
          0.14648163318634033,
          -0.0640321746468544,
          0.14912961423397064,
          0.10521085560321808,
          1.220572590827942,
          0.63612961769104,
          0.07380058616399765,
          0.02296270802617073,
          0.38647589087486267,
          0.07531782239675522,
          0.11075156927108765,
          0.04781351983547211,
          0.040270138531923294,
          0.8597952723503113,
          -0.04661809280514717,
          0.027624711394309998,
          -0.06121152639389038,
          -0.05154665559530258,
          0.058322593569755554,
          -0.057169437408447266,
          0.1060042455792427,
          0.10466154664754868,
          1.252495527267456,
          0.18515636026859283,
          -0.03200608119368553,
          0.12087313085794449,
          0.23750562965869904,
          -0.17183133959770203,
          0.16222092509269714,
          -0.3892366886138916,
          0.5576385855674744,
          0.39911356568336487,
          0.024146607145667076,
          -0.37455037236213684,
          0.07136805355548859,
          0.05906255915760994,
          0.2028823345899582,
          -0.15164853632450104,
          0.2187119573354721,
          0.024863554164767265,
          0.8702873587608337,
          -0.4923716187477112,
          0.1703266054391861,
          0.2993408739566803,
          0.25723978877067566,
          -0.44891104102134705,
          0.11216730624437332
        ],
        [
          -1.074491262435913,
          0.3900253176689148,
          0.4567227363586426,
          -0.08744849264621735,
          0.0692090168595314,
          0.7367470860481262,
          0.07336567342281342,
          0.1296878159046173,
          -0.07080411911010742,
          -0.07020901888608932,
          -0.07748688757419586,
          -1.0145511627197266,
          0.6645832061767578,
          -0.20309963822364807,
          0.24579215049743652,
          0.46909502148628235,
          0.13911309838294983,
          0.22104787826538086,
          -0.6217281818389893,
          0.3877161145210266,
          0.6297029852867126,
          -0.24567200243473053,
          0.007646802347153425,
          0.6624466776847839,
          -0.08436647057533264,
          0.3331717550754547,
          -0.03078400157392025,
          -0.1290026307106018,
          -0.21271754801273346,
          -0.7072531580924988,
          0.8289085030555725,
          -0.13048236072063446,
          0.22606711089611053,
          0.5780965685844421,
          0.2506428062915802,
          0.13611063361167908,
          -1.073957085609436,
          0.41805416345596313,
          0.6167238354682922,
          -0.13399232923984528,
          -0.007318553980439901,
          0.7033663392066956,
          -0.07857432961463928,
          0.13271433115005493,
          -0.17289313673973083,
          0.004067850764840841,
          -0.03691009432077408,
          -0.7344120144844055,
          0.7789005637168884,
          -0.023715343326330185,
          0.1715434044599533,
          0.5226133465766907,
          -0.003814023919403553,
          0.20780682563781738,
          -0.5112062692642212,
          0.5163314938545227,
          0.5728120803833008,
          -0.1580166518688202,
          -0.32763737440109253,
          0.9034725427627563,
          -0.32203465700149536,
          -0.4339858889579773,
          -0.08058605343103409,
          0.5098910331726074,
          0.2933191955089569,
          -0.20008690655231476,
          -0.6713442802429199,
          0.05184001475572586,
          0.2053781896829605,
          0.748380720615387,
          -0.45409029722213745,
          0.17912450432777405
        ],
        [
          0.2344161868095398,
          0.3332367241382599,
          -0.09142681211233139,
          -0.049874164164066315,
          -0.05808642879128456,
          -0.5947698950767517,
          -0.4320286214351654,
          0.24395930767059326,
          -0.057495176792144775,
          0.007751466240733862,
          -0.019124779850244522,
          0.3927331864833832,
          -0.21349312365055084,
          0.06788910180330276,
          0.03309996426105499,
          0.08311983197927475,
          0.04087895527482033,
          -0.03326169773936272,
          -0.002887599403038621,
          0.2648349106311798,
          0.02884836494922638,
          0.08779759705066681,
          0.031008485704660416,
          -0.5919840335845947,
          -0.4707331657409668,
          0.2290298193693161,
          0.07403362542390823,
          0.19319729506969452,
          -0.02018987387418747,
          0.6297456622123718,
          -0.08208200335502625,
          0.20791025459766388,
          -0.10790950059890747,
          -0.056980617344379425,
          0.10590420663356781,
          -0.12216886132955551,
          0.16023002564907074,
          0.267011821269989,
          -0.004951345734298229,
          0.1123412474989891,
          -0.09315077215433121,
          -0.7305214405059814,
          -0.3417206108570099,
          0.24045121669769287,
          -0.0010225146543234587,
          0.14258328080177307,
          0.05411240831017494,
          0.5511437058448792,
          -0.1562638282775879,
          0.1762995719909668,
          -0.0533013790845871,
          0.007622972596436739,
          0.05052097141742706,
          -0.054811082780361176,
          0.4452912509441376,
          -0.44879406690597534,
          0.14015041291713715,
          -0.12953293323516846,
          0.08829211443662643,
          -1.1571552753448486,
          1.340683937072754,
          0.42107635736465454,
          0.2355923354625702,
          -0.12149271368980408,
          -0.12556661665439606,
          0.25205016136169434,
          -0.5317347645759583,
          -0.2300478219985962,
          -0.26244795322418213,
          0.09036003053188324,
          -0.030342038720846176,
          -0.19983205199241638
        ],
        [
          -0.08520810306072235,
          0.07195479422807693,
          -0.10119771957397461,
          -0.20243532955646515,
          0.35091960430145264,
          -0.21230244636535645,
          0.057304464280605316,
          0.2920212745666504,
          -0.34460049867630005,
          -0.15823756158351898,
          -0.32137051224708557,
          0.13768745958805084,
          0.28249502182006836,
          -0.11962445080280304,
          0.2007150501012802,
          0.242256298661232,
          0.19437071681022644,
          0.2287910133600235,
          -0.026156481355428696,
          -0.09914873540401459,
          0.023222623392939568,
          -0.3205849528312683,
          0.1762523353099823,
          -0.051344748586416245,
          0.14898152649402618,
          0.3017675280570984,
          -0.29187315702438354,
          -0.14916940033435822,
          -0.26583385467529297,
          -0.07464805990457535,
          0.33758601546287537,
          -0.1222740113735199,
          0.30638858675956726,
          0.12916454672813416,
          0.2710598111152649,
          0.17456823587417603,
          -0.050543177872896194,
          0.06780341267585754,
          0.004279888700693846,
          -0.3486694097518921,
          0.14719697833061218,
          -0.05244411155581474,
          0.07087141275405884,
          0.30883800983428955,
          -0.3450811505317688,
          -0.19511280953884125,
          -0.2679007351398468,
          -0.11198263615369797,
          0.1598113477230072,
          -0.12201786786317825,
          0.15108449757099152,
          0.24028226733207703,
          0.3461349308490753,
          0.3184145987033844,
          0.23647361993789673,
          -0.3786252737045288,
          -0.2962232232093811,
          -0.21480368077754974,
          0.22079744935035706,
          -0.016070593148469925,
          0.029006412252783775,
          0.13845281302928925,
          0.2668493688106537,
          -0.23231543600559235,
          -0.08320628851652145,
          -0.3267386555671692,
          0.1668548732995987,
          -0.23775599896907806,
          -0.20138169825077057,
          -0.1933320313692093,
          0.2206888049840927,
          -0.11152460426092148
        ]
      ]
    }
  },
  "temporalLayers": [
    {
      "bias": [
        -0.08368458598852158,
        -0.40287575125694275,
        0.4314631521701813,
        0.28651291131973267,
        -0.030186481773853302,
        -0.579771101474762,
        -0.07757885009050369,
        0.47513580322265625,
        0.12727028131484985,
        0.267456978559494,
        0.23021522164344788,
        0.11647605895996094,
        -0.29897961020469666,
        0.08665318787097931,
        -0.16169296205043793,
        -0.30778172612190247,
        -0.12452996522188187,
        -0.11243127286434174
      ],
      "dilation": 1,
      "weight": [
        [
          [
            0.6079997420310974,
            0.7160720825195312,
            -0.09636004269123077
          ],
          [
            -0.5272981524467468,
            -0.46806979179382324,
            0.3279779851436615
          ],
          [
            0.052541814744472504,
            -0.2891869843006134,
            0.11537042260169983
          ],
          [
            0.3322596549987793,
            -0.6093379259109497,
            0.13151247799396515
          ],
          [
            -0.20416662096977234,
            0.3064531981945038,
            -0.07882291823625565
          ],
          [
            -0.3328434228897095,
            0.06352698802947998,
            1.0521692037582397
          ],
          [
            0.14250940084457397,
            0.36078381538391113,
            0.02002601884305477
          ],
          [
            -0.36567097902297974,
            0.3778604567050934,
            -0.06413395702838898
          ],
          [
            0.21801994740962982,
            -0.34680095314979553,
            0.163966104388237
          ],
          [
            0.33390548825263977,
            -0.6524432301521301,
            0.09965647011995316
          ],
          [
            0.23639874160289764,
            -0.22439077496528625,
            0.23554229736328125
          ],
          [
            0.18031713366508484,
            0.218460813164711,
            0.3695921003818512
          ],
          [
            -0.06836548447608948,
            -0.22177736461162567,
            -0.20985697209835052
          ],
          [
            0.2475556582212448,
            -0.3616672456264496,
            0.08656267076730728
          ],
          [
            -0.4471755623817444,
            0.42144617438316345,
            -0.055782344192266464
          ],
          [
            -0.39301180839538574,
            0.25222286581993103,
            -0.010367605835199356
          ],
          [
            -0.12444446235895157,
            0.16560092568397522,
            -0.12372016906738281
          ],
          [
            -0.3439471423625946,
            0.39630937576293945,
            -0.04108807072043419
          ]
        ],
        [
